237 100
/people/person/profession	0.8138595,0.21251942,-1.3372192,0.13259242,-1.0810362,-0.47398478,1.1222818,1.7881188,-0.2707747,-0.8582371,-0.7739589,-1.1184618,-1.4757204,-1.2847059,0.54374415,-1.2660552,-0.80989045,-1.6948746,-0.6382539,0.9463322,-1.0513693,-0.74474573,-0.46528447,1.010956,-1.9219348,-0.09258361,0.79623157,-0.41093665,0.23644453,0.68625367,0.068475805,0.9836424,0.89025724,-1.1800964,-1.3252356,0.36625406,-0.79071385,1.5385123,2.099632,-1.2549243,-0.74046093,0.9550673,-1.2515177,1.6243916,-0.89518934,-0.5784706,-0.31019062,1.2254388,-1.2510773,-0.9875477,1.2254219,1.7182132,-0.74045795,-1.5947639,0.3378148,-0.7871101,-1.2182168,-1.6694875,1.4274678,-0.34271294,0.43409225,1.1539346,1.3408945,1.2704543,0.6594552,-0.5389767,-0.6100315,1.1846688,0.99653757,0.45219803,0.8654316,0.037901964,1.2002949,0.41121945,-1.3183136,0.31576398,0.6804034,0.99454015,-1.4413282,-0.34493506,-0.8712628,1.3141744,-0.6751231,0.9926761,0.47985628,0.19190416,-0.396932,-0.90148795,0.76937395,0.4800353,1.5445472,-0.035674036,-0.6567262,0.49880046,-0.6882029,1.0177711,0.11891568,-0.33379653,-1.0867648,1.7502705
/government/legislative_session/members./government/government_position_held/legislative_sessions	1.3912952,-0.5254881,-1.00368,-0.6129218,-2.3943474,0.7209163,0.51501626,-0.2817426,-0.02585278,0.59369236,-0.010396258,0.81563234,-1.2188472,0.07395423,1.590272,0.0344715,-1.0488197,-0.93002343,0.31132355,0.5056075,-0.08496915,1.7928925,-0.9161724,0.46470526,1.7777464,-0.51177615,-0.3164919,-0.6138994,-0.27716023,0.52725756,1.5226877,0.6741427,-1.3768418,1.1595418,-0.7401401,-0.11313918,-0.55808264,0.6568408,0.41634417,1.1333786,-0.2910784,-0.20394814,-0.120196216,-1.199808,0.4507687,0.96524215,-1.1515933,2.380063,0.84566057,0.06583109,-0.13757579,0.21829236,1.6840894,-1.2622272,0.218598,0.4061828,2.3106885,-1.1612122,0.19655652,-0.33864635,-0.09127614,-0.0856827,0.7926557,0.57840586,0.3701213,1.1109939,0.6381771,-0.5441243,-0.55090207,-0.75060195,-1.2898756,-0.74092686,0.10366366,1.2546624,0.8073755,0.6125822,-0.8379183,-0.48638356,-0.32129243,1.6939318,-1.8765987,-0.8989388,0.26674438,-0.5579915,-0.56407297,1.8575109,-0.52165186,-0.8165453,-0.8046244,-0.49717152,-0.60028076,0.046964746,0.4061251,2.363511,0.36076832,-2.0638912,-0.11178846,-0.5122618,-1.8845723,-1.1959016
/location/statistical_region/places_exported_to./location/imports_and_exports/exported_to	-0.016944423,-1.8584737,-1.1585314,1.4808309,0.19183527,0.6476344,1.0388085,1.5608264,0.38596335,-0.4211191,-0.1472263,0.10710069,0.86162764,-0.15657,-1.6861159,1.8151368,-0.79246813,0.52248466,0.25696275,0.3770788,1.7342975,1.212775,-1.7730404,2.2030656,0.10743536,-0.24404933,0.49868223,0.71681833,0.2502981,0.78549826,0.035220105,-1.1296444,-0.683457,0.044261493,-0.1053753,1.8118147,-0.0992522,-0.62712395,0.5313685,-0.40946436,-1.2957577,-0.49005666,-0.96471006,0.6458638,0.5003042,0.8730853,0.7650245,-1.1900743,0.9416925,2.2922869,-1.5515423,-0.034748867,-1.1894214,-0.032628663,0.67151934,1.1581281,-1.0845976,-0.29029644,1.1069496,-0.22492464,-0.51484334,-2.411099,1.2977806,0.89458066,1.032842,0.72963166,0.041188985,-1.2572304,0.83641356,1.4124612,0.66915566,-0.86552805,0.069860205,-0.9890954,1.2071884,-1.0350592,0.6513377,1.33904,0.07099778,-0.5825379,-1.4080178,-0.6946686,-0.76121277,2.248961,1.060042,-1.2520119,1.0829864,2.331785,0.6158701,-1.5773182,-0.75818557,1.4768585,-0.29115316,0.405025,-0.566162,0.14170934,-0.63588005,-0.22000204,0.4342773,0.2665726
/education/university/local_tuition./measurement_unit/dated_money_value/currency	-2.169293,0.10736279,-0.45069978,-1.6010468,0.9120323,0.5409025,0.20475982,0.209009,0.7152907,-0.37663224,0.77885145,2.623218,0.24255918,0.14650671,0.6670033,-1.2775759,0.05494462,-0.12487635,0.901705,0.726524,0.84607136,0.16692178,1.7789059,-0.53045124,-1.6600958,0.63002366,0.13391712,-0.64823157,-1.1861937,1.6846476,0.706698,-0.6424204,1.1717242,0.2996802,-0.54441017,0.7791117,-0.55803716,1.1205757,-0.94748646,-2.144502,1.4464636,-0.16719799,-1.3272897,-0.36183056,-0.2663909,-1.1203958,-0.10512166,0.8789073,-1.3644891,0.84259963,0.90933514,0.64237046,0.044239193,1.1203063,0.44929558,-0.78958946,0.6713255,0.25836107,1.2599151,0.41815186,-1.3271672,-1.5621917,-0.7412066,-1.2502532,-0.51620907,-1.2702605,-0.8124607,0.8148774,0.55011356,0.6975058,0.8180684,1.2080721,0.50638473,-0.96404064,0.71266484,1.194389,1.7948878,0.84172785,-0.5036538,-0.6040099,0.47277611,0.99044615,1.5016487,1.0146133,0.8955836,-0.98131114,-0.8508928,0.31570125,0.99074954,0.71167904,-0.73673207,0.4488853,0.86571544,1.0141897,1.5007449,1.2656195,-0.8300594,-1.1511813,0.25902018,0.53728145
/film/film/prequel	-0.904795,-0.13855858,-0.3497074,-0.2117431,0.3354056,-0.70905507,-0.1679846,1.7580452,1.1413938,1.3217489,-1.3431467,1.0616633,-0.6100409,0.69284314,-0.32139245,0.077429816,1.3617346,0.9454323,-1.0392361,0.1277061,-1.0075812,-0.6639302,-0.7942094,-0.9623614,-0.97390383,0.23061626,1.1163222,0.18803933,0.7286839,-1.4026105,-0.010976121,0.69657165,0.34036556,1.2731831,-1.0056814,0.64244634,0.0480528,-1.2139097,-0.68758416,-2.4963734,-0.8706475,-1.4050004,-0.41732582,1.2904942,0.22648127,0.75232196,-1.3333261,0.16071142,0.5980149,-0.010441931,-0.08629933,0.9768638,0.630479,0.851069,-0.99272877,-0.8032294,0.84487593,-0.5462581,-0.2934701,1.930041,1.1761899,-0.35465476,0.7629374,0.092587024,1.1025498,0.73413974,1.1824192,0.5280759,0.35490635,-0.080666095,0.4491034,-0.73205394,0.29972225,-0.075839296,0.20327164,1.0465689,-2.079807,2.3998976,-0.6825751,-0.49121246,-1.8737392,1.1316451,2.0552878,-0.18781269,-1.2062206,-0.47366786,-0.15712194,-1.2483338,-1.2862388,-0.16037805,-0.0026947455,-0.20450471,-1.0100782,0.25979474,-0.4109202,1.453556,-0.11482953,-1.7834389,0.17760758,0.3708773
/organization/organization/headquarters./location/mailing_address/state_province_region	-1.0680428,-1.2725669,1.5363241,-1.3773963,1.6102895,0.8390368,1.0540446,-1.0424738,0.8883069,1.1824933,0.70311654,-0.746566,1.0989678,-0.2051543,-0.44163477,0.72086746,0.29382408,1.6570891,0.36279228,-1.1751802,0.22693755,0.1189381,0.27377546,-0.816176,0.9610779,-0.6096338,2.353649,-0.13162379,0.050921597,2.477419,0.16351306,-0.2066594,-0.7054281,-0.76771253,1.8832598,-1.7336448,-1.3408153,-0.09708125,1.4593304,0.7571213,1.0577903,0.22124107,0.066148914,-0.75056994,0.14963008,0.36296406,0.04155346,-1.5716686,-2.049057,-0.13370988,0.2672099,1.461966,-0.67551696,0.4357745,-0.5316438,-0.18957607,0.014513028,-1.1020824,-0.38649693,1.0510073,0.7937296,-0.61173946,-0.041750856,1.8247805,-1.2841843,1.3205829,0.9477989,1.6413494,-0.532489,-0.79622823,1.0662439,-0.2638282,1.1128733,-0.1108321,0.5285979,1.654326,-0.14196855,-1.0473641,-2.0864575,-0.41349232,0.96464705,-0.54039055,-1.1334126,0.89036137,1.7020497,-0.93466896,1.2490258,1.6679612,-1.3074863,-0.71378815,1.07787,0.1450596,-0.65908736,-1.1786608,-2.4325395,-1.1034222,-1.8048729,-2.4815662,-0.069669984,0.32400027
/music/performance_role/regular_performances./music/group_membership/role	-0.30503446,0.7178915,1.1850317,-1.7868223,-1.7983422,1.0601275,-0.5798474,0.46051085,-1.6445215,0.5072282,-0.8723591,0.34182593,0.60455346,0.7801915,0.80295366,-0.41839683,1.000694,2.0871694,-1.4336282,0.0711444,0.97781825,1.7302905,0.75247085,1.5658522,0.30546784,0.11458506,1.0832535,0.46852228,0.53887975,-0.46039733,-0.59645814,-1.0622462,1.6624205,0.73864585,-0.44720432,0.53409934,1.0091914,0.9629961,-0.71660244,-1.7120285,-0.6003724,0.6586488,0.97911626,0.8217039,-1.4086757,-1.3280659,-0.42139786,-1.005143,0.5198711,1.0965332,0.43322188,-0.031071603,-1.5217085,0.9565144,-0.2117364,-0.38656196,0.44214222,1.3906596,0.90934324,1.6844419,1.3012815,-0.5181587,0.90778047,0.8710702,1.2379376,-1.7544503,1.342652,-1.2006514,1.2261032,-0.14592196,-1.0236611,1.0003915,0.9072295,0.24719727,1.7356036,-0.31557393,-1.8456197,-0.44555745,1.1620681,-2.3152459,2.0173109,0.28489158,0.45044827,-0.4384067,0.29709673,-0.73096067,-0.43710288,0.6851077,0.93589044,-1.1023575,0.9238633,0.544897,0.7669376,-0.72384584,-1.3104717,0.45129386,0.70237607,-0.96765125,1.180111,0.57778776
/sports/professional_sports_team/draft_picks./sports/sports_league_draft_pick/draft	0.21215618,-1.4561766,0.17038596,-1.2634223,0.8625847,1.9271805,-1.2293175,-0.27974093,0.07650604,0.044933494,0.8119398,1.4853848,-0.63774335,-1.2703853,0.35904354,-1.1108145,-1.2972071,-0.56556773,0.095618784,-0.68438816,-1.6197718,0.69420356,1.1320801,-0.51273876,-0.04349468,0.15976785,0.6256019,-1.7344322,1.0695914,-0.480377,-0.12977543,-1.413588,0.35990986,-2.1413496,-0.4279435,1.2513691,1.1593626,-0.525343,-1.8675327,-0.48361495,1.7236016,-0.45518726,1.6605127,0.16782777,-0.93074644,-0.23281953,-0.055534538,0.6374108,-1.2057478,-2.1751013,0.77719194,-0.102109924,-0.87163705,-0.5823555,-0.4520408,-1.0288521,-0.6687924,-0.62326014,0.6646882,-0.5991218,0.84217113,-0.60428137,-0.18157323,0.80031127,1.6212974,0.7846788,-0.46120122,1.5414283,-0.5809667,0.46952596,0.3486092,0.6006063,1.7891382,-0.56123906,1.3369621,-1.1260056,-1.4582039,0.86151487,-0.3482166,0.33630803,1.061389,-1.1836925,-0.6673949,-1.002443,0.86913115,-0.14724119,2.3582125,-0.9202278,1.2686334,-0.67098576,2.1562564,0.19749558,0.5071334,-0.22473791,-0.93389595,-0.48218673,-1.5499024,-0.33331364,-0.73464,0.77622163
/film/film/edited_by	-1.5183915,-0.8848796,-0.17598717,-0.20151146,-0.28238875,0.7957966,-1.5984794,0.83222884,-1.7345072,-0.85039407,-0.8540828,2.109872,-1.3535987,-0.13674681,-0.038557753,0.21662085,-2.551274,0.7292956,-0.8973415,-0.8516203,2.2045252,1.8686192,-0.56799793,1.6175302,-0.1412321,-0.14677006,-1.6461378,0.43428046,-0.091439076,1.0693352,1.0468822,1.0323185,0.84584033,-1.0978357,-0.6117264,0.2311971,1.113133,-1.6955566,0.80609816,0.07940011,-0.17711005,2.4028249,1.3199286,0.16788267,1.3442738,0.09381928,1.060166,-1.5263603,-1.4026676,1.4121549,-2.672569,0.31870008,1.0199742,-0.46992952,0.7303105,-0.557142,0.5375076,1.0360128,-0.31894132,0.7938408,0.3724292,0.46872556,2.0622787,-0.21550718,0.78504497,0.10931667,1.5023475,-0.09152138,1.8526065,0.585487,0.055369884,-0.2538539,0.68728286,-0.87240154,-0.04413325,0.06680592,0.34443083,0.6409116,-0.18692541,0.05746464,1.0402179,1.3308308,1.1329592,-1.0231235,-0.90809184,-0.32275936,-0.9666675,1.5742869,1.3033792,0.6832078,0.3015152,0.508469,0.5729113,-0.054429512,1.0393676,-0.85383207,-0.06111178,-0.60564846,-0.886206,-0.5257594
/government/governmental_body/members./government/government_position_held/legislative_sessions	1.2375536,-0.066862196,1.6000643,0.81194717,0.49748528,-0.47078285,-1.2192693,0.4182734,0.34221774,1.3378836,-0.1871235,2.5353968,-0.41504574,0.4945479,0.15370947,-0.0112597225,-0.5954702,-0.79803187,-0.6118403,0.6742444,0.17350747,0.12182231,1.3712951,-0.22183357,-0.3076979,0.5980922,0.3825279,-1.731792,-0.36154103,-0.18554191,-0.18060324,1.0857686,-1.3904998,-1.7482902,0.7273534,-0.31030577,0.058840595,-0.36594334,-0.24123628,-1.4315923,-1.2638888,-0.94992405,-2.7342818,-0.9209741,0.61563885,0.7988385,0.12038637,0.12822382,-1.5959108,-0.5767979,-1.7349616,-0.3483235,0.8450624,-0.84621364,0.043570478,-1.2871556,1.248415,0.07130432,-0.7830297,0.2554475,1.7701721,-0.30475408,-0.014600246,-0.050678603,-0.65084696,-0.08170689,-0.63302946,-2.066094,0.095606826,-0.67418355,0.5458971,0.094497934,-1.1933032,1.48041,1.2252132,0.69318193,1.1714039,0.6685622,0.77788144,0.3937245,0.33171022,-0.26910263,-0.44628036,-0.37918878,-1.1471657,-1.1766123,-0.14853866,0.12067357,-0.6316986,-0.17415838,0.035947274,-1.0724422,0.25033155,-0.34239656,-0.37450874,-1.0379081,-0.048915166,-0.95785433,1.3839444,-0.19947986
/user/ktrueman/default_domain/international_organization/member_states	-0.1206273,0.48173806,0.019277947,-0.36492413,-0.6563545,-0.6534252,0.63312715,-2.1781802,0.5589813,-1.0163255,1.8907115,-2.3665915,-0.7302438,0.12071816,-2.176758,-0.667482,-0.76136565,0.96076363,0.46394715,-1.7608094,0.58015126,-0.095078655,-0.50821555,-0.52943647,-1.2231314,0.6703945,0.56988174,-0.19750865,0.20721002,0.924304,-0.23002338,0.29040846,-1.8187667,-0.71958864,-0.97427344,-0.054681763,2.0545738,0.17620546,-0.62248784,0.27324867,-0.6307868,0.2740726,0.26487592,-0.47258404,0.7778464,-1.0144728,-0.18419228,-0.20100835,-1.2470934,0.34668508,-1.518341,0.69743466,-0.49500376,0.50496775,-1.7686906,-0.8634889,-0.54384136,-0.4025481,0.970635,0.10306227,0.91059345,-0.032250077,-0.07494492,0.38091674,-0.8548304,-0.23167972,1.702613,-0.8814941,-0.25121945,-1.5299398,1.6694776,0.7118734,0.31989992,0.5869731,0.84637284,-1.1034278,-1.2416041,0.32478672,0.7989591,-0.45297274,0.80072486,0.42712104,0.1420194,-0.8254447,1.4827749,1.3063649,-2.2933767,1.1592768,-1.0544964,0.46943903,-0.13885558,-0.57005167,1.7038591,0.3719891,0.57172394,-0.78756523,0.83140665,-0.2046552,0.41992047,-0.91703784
/people/deceased_person/place_of_burial	-0.27802923,0.8196287,-0.6837689,-0.14740509,-1.7736133,1.1042738,1.3690321,1.0935487,0.7944317,0.528646,0.21523614,-0.6735146,0.06344822,-0.33395875,0.68394315,-0.47369507,-1.0415566,-0.40828353,-1.174565,0.060742833,0.4644041,-0.44139007,0.30269635,-0.8613736,-0.130852,-0.102448545,-0.6759524,1.7153723,1.1662589,-0.5549881,-0.8532854,-2.2656746,-0.871239,0.81252337,-0.8203354,0.55967754,0.17666742,-1.561117,1.4819719,-1.2968223,-0.24524578,1.6290174,1.7350177,-0.8009417,-2.6290739,-1.6366417,-0.62833416,-0.8866469,0.98498017,0.48153988,0.52444196,0.86439675,0.10245151,-1.8083156,-0.58024013,-0.4580879,0.6466258,0.51028264,-1.0618198,-1.6302943,0.27427307,-0.81035405,-0.19397546,0.59364885,0.30132774,0.8618736,-1.5382433,-0.22613665,0.5090138,0.08065538,-0.21350627,-1.4123764,0.88496935,-1.6431442,-0.8108702,0.076786794,0.37753278,1.3992963,-1.5915449,0.015739942,-0.34709775,-0.9092131,-0.422521,0.8927275,-0.55131465,-1.5344421,-1.8084515,1.0495058,-0.89035195,0.37415048,-0.5167148,-0.82279617,0.2231693,-0.00723064,0.1658205,-0.5803891,-0.85761905,0.24558274,0.3158124,0.42350733
/award/ranked_item/appears_in_ranked_lists./award/ranking/list	0.08069178,-0.57928294,0.06592483,-1.1919062,0.43275982,0.46088696,1.2871011,-0.48065224,0.21438333,1.7678758,-0.19419107,-1.9937564,-0.69536,-1.9536262,-0.40975532,-0.43912026,-0.13879812,0.66085595,-1.9088469,0.3069846,-1.1328344,-0.15205033,-0.8967686,0.28927472,0.5830195,0.24055696,0.17288202,-0.86230457,0.8752496,-0.8987025,0.69484717,-3.4958646,0.45530808,-1.5946165,-0.43008363,-1.5642902,0.9529816,-1.1598011,-0.24409379,1.4042434,0.7047509,1.6242179,-0.016885033,-1.3441757,-0.73752207,0.4889727,0.4428791,0.090257294,-0.747408,-2.388203,-0.7991867,0.7760187,0.73319966,-0.42822558,-0.45458168,0.50737476,-1.3635234,-0.082437605,1.0309991,0.049708515,1.2387558,-0.61056405,0.040638406,-0.1689534,0.35487196,0.53362995,-0.9580661,1.0669516,0.62274325,-1.2055262,0.5032446,1.3779162,-0.10205139,-0.6145356,-0.41950247,-0.7289572,0.3984466,0.80006397,-0.98787296,0.93532205,0.23289648,-1.3903605,-1.3477982,1.6015697,1.5474432,-0.28507188,-0.5996065,0.5055945,0.69494826,-0.10661326,-2.0077631,0.756296,2.5149846,-0.77499384,0.44306648,-0.0024840843,0.13132325,-0.9093916,0.319751,-1.8002044
/sports/sports_team/roster./baseball/baseball_roster_position/position	0.81321406,-0.44121888,0.4749648,0.8926005,-1.2904788,1.5891296,0.44418284,-0.7700222,0.41538218,0.50815743,0.4533877,-0.3595115,1.3093956,-0.989221,-0.42190105,-0.71751857,1.5572847,-0.20299451,0.12970406,1.2795889,1.3196521,0.10978399,1.0194529,0.5057292,-1.5731306,-1.9919665,-0.06283969,-2.2627466,-2.205705,0.6021509,-0.4032062,0.8193616,1.0736716,-1.1784873,-0.45465592,0.36369142,1.237888,1.2151836,-0.9691043,1.5196239,0.0070204325,0.8053481,-1.1282907,0.7320661,0.018664083,0.73874265,-0.7055134,1.0932566,0.074942455,1.2122018,-0.6270491,1.4281744,1.0341518,1.2561915,0.6074613,-0.28625742,1.0729567,0.1601454,-1.0528375,-0.010658507,-0.6079485,0.48884693,2.4338472,1.1456267,-1.7083493,-1.3758599,-0.66020304,-0.30884206,-1.0903329,-0.34050435,0.6924074,0.88181704,0.55195785,-1.3617852,0.8272028,-0.9130053,-0.4489048,-0.54215086,-0.55190706,-0.22311194,-1.057992,1.5171789,1.9556043,1.822009,0.36341497,-1.3171204,1.519204,-0.69620085,-1.2493209,-0.23575334,0.27571654,0.4918386,-0.4927097,-0.76322687,0.9355825,0.89018196,-0.25739965,-0.9284403,1.5461168,0.88619226
/base/saturdaynightlive/snl_cast_member/seasons./base/saturdaynightlive/snl_season_tenure/cast_members	-1.1534612,0.17114928,2.1960459,1.1308413,0.070376135,-0.5105766,-0.80192924,0.6693945,0.75243926,-1.3848912,-0.8801838,1.4501324,-1.3550816,-0.24031954,-1.805796,-0.52340174,-1.6419623,-1.1307114,0.8614237,-1.1638705,0.9537987,1.042955,-1.45136,-0.18188782,0.40166855,-1.1857342,-0.11163574,-0.65355635,-0.7068154,-0.5017278,-1.9498707,0.29438496,0.2614801,1.1541772,-0.47041094,-0.7638443,1.1901895,-1.6433842,0.121405974,0.43677172,1.5933748,-1.1604221,0.38644752,1.1129049,0.65109247,-0.7921488,0.9010334,0.1191856,1.504879,-0.82632244,0.42672005,1.9541582,1.4637756,-1.3590224,1.6939596,0.03351438,0.51658946,0.008920273,-1.9600604,1.092338,-0.6681673,0.75010586,2.4503872,0.104107715,-0.4433894,1.4395517,0.0902097,1.2675922,0.8266317,0.023052568,0.61131275,-0.9442878,-1.9511989,-1.6734649,0.8589662,-1.1877693,-0.10432798,0.90189594,-1.4346251,-0.9451174,0.008321439,0.32279965,0.08005809,-0.86842823,0.53017485,-1.0896524,-1.6235889,0.11918877,-0.00087617355,-0.03524865,-0.59772676,1.5376213,0.3277764,0.33005047,0.7181256,-0.05498181,-0.46318623,-0.32429147,-0.93964094,0.7196967
/film/film/film_production_design_by	1.8531563,0.31177887,-0.41159695,0.89217186,0.18202794,2.0853837,0.044587374,-0.59845984,-1.5948516,0.014595964,0.60779387,0.52274406,0.28228602,0.61294687,-0.56419706,-0.20059283,1.9380916,-2.787506,-0.37748942,0.533335,3.9673426,0.88843954,1.0915914,-0.23498765,-1.1489992,-1.3134555,0.54121,-2.0751836,0.056135695,0.4763526,0.12727953,-0.18900336,-1.148621,-0.5824469,-1.3899882,1.0306908,-0.14996102,1.1181339,-2.6691632,-0.43240827,-0.051094834,0.52497786,-1.3498629,-1.3595295,2.2952821,0.3511113,0.34916255,1.1349914,-1.4778825,0.3625421,2.0460203,-0.4998684,0.3519427,-0.13433613,1.5302502,-0.025923485,-1.6990675,-2.5795193,1.778455,-1.370416,0.6454117,0.3977819,0.32154,0.2318754,-0.22856864,1.3246657,1.1497623,-2.0763166,0.41060117,0.5663812,0.5018506,1.041952,0.5699664,-1.0478997,-0.19477664,-0.6846455,-1.7617282,1.5865346,1.2201893,0.27302292,-1.6874913,-0.09673775,0.66830033,0.6407511,0.73979944,-0.21465302,1.2661752,0.2790812,-0.06263825,-1.1588703,1.8659432,1.3706461,1.9462824,-0.6286475,-0.9661291,-0.8785671,-1.183543,0.9449265,0.623237,-0.2815447
/film/actor/dubbing_performances./film/dubbing_performance/language	-0.852864,-1.9568994,1.2126225,0.55841494,-3.038639,-0.570433,0.303246,0.96411896,1.3630242,-2.0748148,0.3003222,-0.4363535,-0.29553103,-2.7505527,-1.4168123,-0.89554113,2.3618217,1.0394017,-0.41713712,0.2771747,-0.18085268,0.22546545,1.3713256,0.13111243,-0.08293017,0.19283721,-0.5247069,-1.288347,-0.4162436,-0.11783691,-0.6656524,-0.9421123,-0.24223937,0.75403416,-0.67722064,0.52643996,-0.1983043,-0.7867709,0.16990085,-0.44903585,0.43674007,-0.68080163,1.7241088,2.4564304,-1.4413346,0.89859194,-0.13159786,-0.57205737,-2.0077312,-1.4064763,1.0669438,1.6969149,-1.0825208,2.7063403,2.172674,-0.5682563,0.42070672,0.3512666,-0.83978593,-0.8127321,0.6701043,0.4211011,1.9246286,-2.2835948,1.042814,0.985221,-0.63202864,0.7287369,-1.020638,-1.4087387,-0.90397066,-0.44449425,2.5081391,-0.69908696,-1.8710527,-0.029920166,0.9149946,-2.4931684,2.3324084,0.9807121,-1.200703,-0.6961975,-1.7427305,-1.8866624,-2.017007,-0.67469186,0.8935509,1.1120982,-0.027162306,-0.07095912,0.14530244,-0.46624497,-0.40716892,0.6167428,-0.08567989,0.46295685,0.76651937,0.28537348,0.5591496,2.0110903
/award/award_winning_work/awards_won./award/award_honor/award_winner	0.25551644,0.010279798,0.7268479,-0.4988423,1.2890527,0.52322006,1.4006823,1.287308,-0.29491028,0.13517845,1.4284096,-0.7084009,-1.5854437,0.089305475,0.8398552,0.780912,-0.117781304,0.05236814,0.40745938,0.1354126,0.4146983,-0.90396756,1.491356,-0.6264351,0.36479992,-0.29704916,-0.7774031,-0.25972506,-0.5801007,0.3118939,0.5409442,-0.7538294,-1.0809592,-0.4120258,1.2295635,0.9448162,-0.7607417,-1.0467875,0.5649536,-1.1344248,-0.497629,1.7590678,-0.7196585,1.1516758,-0.60964936,1.3845888,-2.1621938,0.53874743,-0.33258092,1.5135994,0.56484324,0.3462964,0.7689222,0.50806886,0.87877405,-2.0471811,1.9531246,-0.72060263,-0.8179621,0.7031768,-1.7193604,-1.3464833,-0.84570116,-1.9006335,-0.81249744,0.9376795,1.6371363,-0.88835025,1.587148,-2.4140098,-0.3228427,-0.022291612,1.7037742,0.7336593,0.16315535,0.22217856,1.2336142,1.5735674,-1.4275651,-0.3812684,0.22523472,-0.8165877,-0.7107728,-1.3344564,-0.0063491203,0.36920655,-0.99021167,0.83194965,0.9915531,-0.44843778,-0.710151,0.33504775,-1.6315402,1.427362,1.7344253,-0.64001507,1.5786021,-0.91986835,0.6666222,-0.82827914
/common/topic/webpage./common/webpage/category	-1.3857151,0.7064853,1.0807189,-0.8497267,-1.5061827,0.10507719,-0.7730796,0.7678811,0.9914887,-0.9372929,0.54120463,1.4018203,-0.9722061,-0.07398251,-0.5343802,-0.5691944,1.4257965,-0.87222123,0.53615004,-0.7127835,0.22737518,-0.118558995,1.5758868,1.3604835,1.4027858,-0.6562643,-0.45985845,-0.34031767,-1.334391,-0.23814362,0.6832504,0.095930405,-1.6437474,-1.19361,0.43545982,0.7635682,-0.75549054,-0.8477436,-0.111717485,0.35712796,1.9935067,1.3161703,-0.23652647,1.1733444,-0.80381054,-0.2693555,-1.2119296,-0.49879834,-1.5645337,0.027591277,-0.27215478,1.4458671,1.2020202,1.0388013,-0.5157976,-0.5320453,-0.9148076,-0.77477884,-1.6107854,1.3336828,-0.9397043,0.7209278,-0.6267779,-1.0631285,1.1192063,0.2225681,-0.51241404,1.9284986,-0.6872403,-0.5313533,-1.1741042,-1.3218564,-1.1023351,0.9423924,-0.56848335,-0.9611475,0.7653814,-0.7574098,-1.296422,0.4563894,0.7315637,1.0279676,-0.07271154,-1.5170254,1.3393545,0.6126049,-1.0787848,2.0204582,-1.1622602,-0.5143976,1.2013605,-0.9577123,-1.0227668,-0.92728335,0.43833223,0.83737165,-1.1181675,-0.61011654,-0.4090185,0.7962806
/education/educational_institution/students_graduates./education/education/student	0.12357725,0.092884645,0.2740487,-0.18416911,0.3486456,1.409878,0.6644508,-0.89194757,1.2052032,0.24064133,0.7426326,-0.2714103,-1.3112324,-0.57167566,-0.90446204,1.0164305,-1.5749907,0.5803154,1.0869601,-0.39086586,0.4123807,-0.26831836,-1.5209033,-0.44650745,1.4714022,1.1562388,0.54885703,-0.00062585546,1.1627159,-1.3234826,1.6373845,1.1583468,-1.6297288,0.54868203,-2.1874816,-0.056533165,0.5184466,0.74448955,1.6376076,1.1417192,0.7064206,0.5197064,-1.9918014,-0.33276138,0.44858634,0.88870364,0.39854306,-0.0140145235,0.71442634,0.9590357,0.5307306,-1.9918008,-1.5065894,0.750267,1.2720166,-0.47889993,-0.8144085,0.90150243,-0.26154217,0.70752144,0.7868263,-0.17247647,1.153235,1.3683174,-1.1349171,0.68244106,0.361382,-0.5861465,0.0025362787,-0.78016824,-0.51798373,-1.3903657,-0.69724536,-0.24369936,-1.1923376,1.1340789,-1.4931457,-0.5345109,-0.36705592,-0.513088,-0.8351094,1.7375784,-0.80945265,0.4397689,0.80466044,-1.4480522,-0.93442565,0.88178694,0.6517205,-1.0797579,0.25945437,1.1559536,-0.7923254,0.703506,1.1066611,-0.09274491,1.7225968,-0.7126011,-1.5433981,1.0179418
/base/locations/continents/countries_within	0.43445483,-0.40075535,0.45559254,0.40447488,0.3520783,-0.12072043,-0.42176223,1.1093057,-0.847589,0.054446287,0.4373302,1.5627784,1.5961424,0.7615877,0.8613696,2.2342443,-0.60461265,-0.039521575,-0.24949907,2.1450477,-2.620053,-0.7517832,0.054043256,-0.5080833,-2.3153293,-0.10238348,-0.04303935,-0.015515406,1.3932883,1.1495858,-0.90361583,0.6324812,0.8181065,-0.11450496,-0.9969525,0.77399856,0.28985712,0.025108377,0.8797355,-0.73240334,-0.32602188,0.3318229,0.07638389,0.4670443,-1.7330748,-0.416326,-0.1323746,0.29905573,0.5386268,1.2240674,-0.019765852,0.21489413,0.23364358,-0.87445,-0.5671233,1.0021087,0.5841766,0.2663268,0.11764087,-2.2176447,-0.33405975,0.14918672,0.6007201,-0.58130217,-0.76192904,-1.5542874,-1.0997077,-0.2256433,-0.9604957,-1.152908,1.8727399,-1.7519686,1.7667217,0.74392074,-0.64382756,-1.0236936,0.42665425,-0.9202631,-0.60186106,-0.4573016,-1.4912806,0.22779912,-0.6121835,-1.378315,-0.29622173,0.61236924,0.01671851,1.0930963,-0.6010115,0.6686731,-0.3384747,0.46724185,0.45162907,0.45005697,0.012412053,0.6234174,-0.39325836,0.7765757,0.105510175,-1.9735844
/government/politician/government_positions_held./government/government_position_held/jurisdiction_of_office	-1.5697725,-0.03735954,-0.7898793,0.59225035,0.67252606,1.6713073,0.23821457,-0.48480996,-0.3825392,0.009457729,-0.55038047,-1.0723337,0.45182285,0.18581592,-0.100230075,-1.1897005,0.7616837,0.28057185,0.042805348,-1.5654402,1.3944311,-0.47607595,0.15270051,0.46189862,-0.34124094,-0.8351513,1.563619,1.9173691,-0.6566102,0.3900789,-0.7803597,0.8201497,1.7471533,-0.8400056,0.44924286,-2.343514,-0.8138919,-0.20517235,0.38684002,0.09185812,0.23995261,-2.1488695,-0.09307322,3.024921,0.31161144,-0.23380023,-1.965079,-0.044576254,1.8520086,0.95079595,-0.6740197,-0.029660776,1.436995,-1.0479544,0.9934341,-0.04088541,-0.24823868,-0.6878652,-0.9025304,1.5409571,-0.53871804,1.778224,-0.79692626,0.2599721,2.4138885,1.4118621,0.45296124,-2.0402112,-0.22676352,0.066705585,0.7610276,0.28947583,-0.13661726,0.18344577,0.38050067,-0.27431124,-1.5687267,0.3982394,-1.5908753,0.07666207,0.9587981,1.9629815,-1.313785,-1.5935425,0.58485925,0.046439543,2.0599601,0.08860783,1.1505526,-0.3182884,2.3483982,0.45656103,1.3716215,0.34911016,-0.8101546,-0.042478733,-1.8760079,0.8225166,0.40657178,1.7605786
/award/award_nominated_work/award_nominations./award/award_nomination/nominated_for	-0.021367755,0.94632363,0.122108884,-0.5047247,-1.343277,-0.101740696,-0.8101641,-1.7706912,-1.6766684,0.2607631,-0.34371412,-1.1255225,-1.3934729,-1.6998435,0.55639386,1.0877017,0.44052792,-0.49575576,-0.5820219,-1.9956851,-0.5386909,-0.78414685,-0.47825408,-0.5070412,0.16974416,0.7921814,-1.4413797,-0.60210645,0.04575037,1.0504425,-0.08973876,-0.5947798,-0.27813742,2.0398338,0.67167354,-0.6438561,-1.0929921,-0.013082426,-0.9451483,0.15502104,0.40401778,0.32629412,1.8471237,-0.48041403,1.1260362,-0.9648136,1.6608768,0.5001793,0.6498363,-0.67789334,1.527823,0.9744759,0.73085415,1.5545788,-0.9156536,-0.80513144,0.6314019,0.358722,1.3874092,-0.16920146,-0.5193838,0.5789551,-1.0610421,1.0431008,-0.8282848,-0.86003083,-0.06614048,-0.5590351,-1.3415426,0.6058075,-0.09689091,-0.5556445,-1.0499665,0.83147776,0.85933155,1.1840279,-0.5892501,0.07431122,-0.56374544,1.0749449,-0.3213315,-0.47045046,0.51098293,0.7603341,-0.87980354,-0.040139917,-1.5036935,1.8140094,0.8115141,0.9372107,0.4539156,0.28122237,-0.3889035,0.8960687,0.63897264,0.65563035,-0.9690775,-1.4968623,-0.6871729,0.07801538
/film/film/other_crew./film/film_crew_gig/crewmember	-1.7357339,-2.0344095,1.6051823,-0.72002405,1.2512106,0.23786941,0.8322757,0.89256054,0.41513845,0.8657719,1.2222682,0.1414595,3.2624521,0.6556503,-0.93840367,-0.80675393,-1.0540284,0.35254955,0.11841165,0.39148247,0.50963885,-0.5665743,-0.6237352,-0.59429777,0.5026125,2.2983625,0.74377894,-0.29343602,-2.2054343,0.03725776,1.2848618,-0.1354937,-1.0169028,-1.4802529,1.1879413,2.1686337,-0.50895405,2.0022933,1.1652645,0.41364357,-1.4145035,0.7199658,-1.3099457,1.4962069,-0.43797535,-2.0890207,1.034965,0.5891281,-0.28111443,-0.29301953,0.63014203,0.5656343,1.4855134,-0.21395302,0.42907384,1.03755,0.36654302,-0.7261043,0.45398232,0.60025424,1.4765632,-1.8233356,2.4435773,-1.30251,1.457694,1.6214107,-0.8766385,-0.9985805,0.15211867,-0.6553156,-0.2995903,0.8784628,-0.859317,1.760416,-0.35327414,-2.5919597,0.7565756,-0.56675464,0.14809489,-0.39291027,0.1135118,-1.1358477,0.20633452,-1.3279126,0.7103158,1.2643474,1.5236468,1.8395948,-1.5011747,1.5504009,1.2737365,-1.1773275,-0.89655834,-0.5992017,-0.26047245,0.40000805,-0.6033796,-1.7861688,-2.3720624,0.63720375
/base/schemastaging/person_extra/net_worth./measurement_unit/dated_money_value/currency	0.7807958,-0.7247711,-0.7420982,-1.2237936,2.1271372,2.36881,-1.571586,0.8119098,1.6619551,0.35043907,0.28545484,1.6433818,1.0766274,-0.54470044,0.7224898,0.43589598,0.8100743,-1.3449477,0.18749139,-0.18946314,-0.4514833,1.277472,0.06155623,-1.7980642,1.578312,-0.4013039,-0.045622867,-0.63916576,-1.041754,0.20682897,0.41864765,-0.6351384,-0.815867,0.7588176,0.22771724,-0.6787168,2.5583644,0.8878097,-0.62507117,0.6815976,0.49917877,0.36195323,-0.013682934,0.35619122,0.8062619,0.3011327,1.4294978,1.6822153,-0.97457325,1.6029899,0.1577706,0.4754542,-1.8828888,1.0543917,-0.602444,0.24531354,1.6584446,-1.0850142,1.1305068,-1.0179737,1.437909,0.50444263,-1.9002745,0.895713,-0.61957407,0.5760298,1.2634054,0.4182722,0.4052642,-0.6382618,-0.40976956,0.3212694,0.48878974,-0.02060649,-0.5711037,0.2620374,2.0422626,-0.2354152,-0.8974536,-0.44465232,1.0673534,2.0046716,-0.1723834,-0.81482047,0.26119933,-1.2091137,-1.3422029,-0.38402605,-0.91518086,0.15223202,0.2789131,-0.9698188,1.1641848,2.5449705,-0.7369184,-1.0324618,0.2232761,-0.4148096,0.8732154,-1.3001181
/education/educational_institution_campus/educational_institution	0.160745,-0.61802626,-0.57247645,-0.74759495,0.1321683,1.068879,-1.677926,0.77134585,0.9706321,0.7926427,0.15117429,-0.8477154,0.19125961,0.5544498,-0.82137746,0.17121625,0.29808792,0.21700096,-0.0065230415,0.27247745,0.8151193,-0.5878582,-0.37631053,0.7821981,-0.5482451,-0.6879916,2.5741885,-0.8110527,-0.994525,1.9135658,-1.5304593,1.2534144,-0.6190122,-0.6507783,0.45027825,0.8821258,-1.3888364,-0.574212,0.6593265,-0.52191895,0.9015331,-1.2788937,-0.8163242,0.68333465,1.6454414,-1.894,1.1042001,0.25128293,1.5977962,1.3002095,-1.0043592,-0.09890254,1.4652944,-1.069696,1.0718104,-0.6070124,-2.7746475,-1.9080846,-0.4365426,1.0490277,0.7643196,-0.01221164,-0.69288176,-1.0410312,-0.8906215,1.0058833,-0.5741632,0.38088402,-0.56157184,-0.49637723,0.7263034,-1.1746284,-0.2796215,-0.4662603,0.20745462,-0.8928215,0.0921357,-0.25849992,-1.2024873,-1.1777773,-0.9677536,0.3852818,0.4839139,-0.5576921,0.6270213,0.09440435,1.1159946,0.3018463,1.2582468,-0.28657857,0.5441215,2.3883066,-0.6524669,-0.067996785,-0.84444,-0.62291604,0.5851526,0.70211375,-0.5459195,1.1063974
/sports/sports_league_draft/picks./sports/sports_league_draft_pick/school	1.0029553,0.7746174,-0.30314144,2.1345172,0.8906371,0.40078306,1.1631835,0.009409126,-0.84026855,-0.04369725,-0.4825883,-0.7370072,-0.047871068,-1.8443735,1.0719769,0.75785017,0.72834814,-1.3240595,-0.7312677,0.31174102,-0.69206226,0.60575914,-0.0997655,0.93583286,-2.207715,-0.62246823,-0.5263874,-0.7909665,-0.708761,1.0630506,1.4244004,1.4562364,-0.20647456,-0.1225646,-0.87696654,0.69672436,1.0474417,-1.0451777,0.8548563,-0.22783583,-0.6420487,-0.5679453,0.38158798,0.6744069,1.1627574,2.8447003,0.22642414,-0.5885035,-0.77394915,-0.28442574,-0.42749313,-0.16041274,0.2685458,0.09432156,-0.61779666,-0.059975713,0.1922099,0.033906948,-1.9548038,1.4384397,-0.32600805,-0.7715663,-1.196407,0.2998997,-0.5923196,1.5479263,0.6383678,-0.0047345096,0.39285412,-0.6024435,-1.2066665,-2.1363182,0.56177723,-0.535565,0.6358157,1.9875917,0.27848276,1.3918893,-1.4422851,1.5162961,-0.33080286,0.72973627,0.17129126,-0.42574456,1.337881,-0.7067018,0.20148739,0.7534834,-1.1455952,0.037796758,0.32770762,1.2463557,-1.0372609,-0.43884045,-0.25075302,0.002344173,1.7733697,-0.028007057,1.8694572,1.0913104
/base/biblioness/bibs_location/country	0.99103606,-0.89155376,1.4759787,1.4638225,0.950799,0.94015944,0.1526547,-0.36003372,-0.07590955,-0.6113211,0.4248659,-1.2872001,-0.1080343,0.25162223,0.5521209,-1.5505514,0.84196395,-0.8401881,0.8912407,0.040185165,0.33934844,-0.023134857,-1.2541184,0.35236213,1.0778056,0.32187536,0.02946786,0.117388055,-0.15344381,1.0996599,-1.3832685,-1.402339,0.38225353,1.4682338,-0.037530262,-1.2817429,1.1551557,-0.54511786,-1.592097,1.3177947,-0.9727732,0.31274745,0.33557686,-1.3777406,0.5791912,-0.5666453,0.49511838,-0.58106995,-0.49466088,0.12573244,0.43250915,1.2955829,-0.02939759,1.29887,0.9755454,0.07431502,1.3493205,-0.2241415,-0.34802702,-1.4357265,0.6576045,-0.48215863,-1.7051467,-1.4718447,0.25549978,0.58668536,-0.78759104,1.1717279,1.4141974,-0.24122505,-0.7231591,-0.049375717,-1.1130905,1.8630527,-0.8017571,-1.3637296,-1.169655,-0.36004677,0.5689046,-0.3451027,1.1004045,-0.099662215,-0.4505455,0.56589234,2.146157,0.7227292,0.86439675,-0.260024,-0.87728125,0.19552848,0.1562454,-0.29857466,-0.4268946,1.0442868,-0.4421748,-0.7327944,-0.4882197,1.0935738,0.72577983,-0.5811234
/base/schemastaging/organization_extra/phone_number./base/schemastaging/phone_sandbox/service_location	0.6079589,0.65588576,-0.6403261,-1.2508453,0.84199464,0.8631299,-2.0518625,1.7887813,-2.4741333,0.7521978,-0.57189435,1.0013133,-0.8077443,-0.30546194,-0.29120034,-1.8979553,0.768578,-0.18472292,0.8504617,-1.6785482,-0.91680974,-1.0256549,0.5254386,0.59317994,0.49265438,-0.0106164245,-0.36961034,0.8559573,-0.80154914,-0.43273377,-2.6744132,-0.7643635,0.027754648,0.038007453,0.49378183,0.7113275,1.0274448,-0.9135855,-0.12974948,0.1737793,1.7275229,1.5198945,1.7197658,0.67446417,0.045528006,-0.91767335,0.014496684,-0.7541348,0.85640347,-1.3878962,1.3119147,0.24681036,-1.7754134,-2.0771997,0.6803428,-1.8455445,-1.1746389,-1.5532283,-1.1437083,-2.1504006,1.4701606,-0.7744131,-0.1958923,-0.5119937,0.5486664,2.3903425,-0.9646897,0.7975181,0.15510128,0.6722341,1.171755,-0.039554436,-1.167799,-0.82135236,0.14587308,-1.8471932,1.3334612,1.1113636,-0.36629814,1.8629981,-0.23813795,-0.46366552,0.9610209,0.40478253,0.27432,-0.64994097,0.054739818,-0.32382804,0.5246944,0.11006797,-0.7120189,-0.042102106,0.31631434,0.01690765,-0.0048456243,-1.0313134,-0.93186957,-0.69358385,0.43178964,0.14518726
/sports/sports_team_location/teams	-0.41483185,0.27721214,0.61961555,-1.3523221,-1.173253,-0.43247315,1.1096084,-0.060442995,-1.0499187,-1.2492949,-0.25330105,-1.0777032,0.50677073,-0.09369405,-1.2789165,-0.9511747,-0.50883454,1.0867614,-0.15606646,0.75980103,0.5229298,-1.6434733,-1.2140943,0.96353465,-1.5140775,1.2597766,0.010106817,-1.5868709,0.9869948,0.43302828,3.234867,-0.3567255,0.3277729,0.26152086,-1.1893932,0.76307636,0.8535566,-1.0231447,1.2859209,1.6255391,-0.2358274,0.9760329,0.9711041,-1.4714229,0.3762494,0.27859634,-0.11622189,1.0906699,0.74899954,-2.0174918,0.104681835,-0.48179165,1.3011007,-0.30757773,-0.18446098,1.0881071,-1.4810477,-0.12302764,-1.3052986,0.8334805,-0.28088123,-0.20052066,-0.12215274,-0.6794606,1.993295,-0.23557895,0.27013168,-0.062270615,-0.66257745,1.1788425,-0.5516394,-1.3302387,1.4688572,-0.6459658,-2.415441,0.39378434,-0.4517051,-0.48508337,1.0647905,0.13730915,-1.0598534,0.68626684,-0.48138702,0.5843515,1.2841805,0.3812382,-1.1564564,-0.74229985,-0.13069503,1.2291354,-0.41470572,0.7885959,-3.006308,1.2007604,-0.47844723,-0.51439714,-0.607787,-0.71998185,-0.4498603,1.2078832
/travel/travel_destination/how_to_get_here./travel/transportation/mode_of_transportation	0.79446584,-0.4302458,0.8990335,0.37185726,0.08408337,0.18004741,0.30411512,-1.1303828,0.10354611,0.20858556,1.1553805,0.37254244,0.6840835,2.291822,-0.3976995,0.44723904,0.096635394,0.7954869,0.2649533,-1.6815101,0.05427442,-0.59855807,-0.4011223,-1.4308021,-0.4117624,-0.011850454,-0.5057134,0.014493503,-2.715959,-0.8084823,-0.8002326,0.5998839,0.27898374,-0.2322338,-0.15846834,0.75843996,-0.11431876,-0.5987327,1.4530747,-0.3297726,-0.9314698,0.6025385,0.9951066,0.055636775,1.5278735,-0.69368285,0.69085306,0.13584791,-1.0067939,-1.9794961,-1.0474955,-0.5916102,0.38563138,0.6368769,0.24794587,-0.022561418,0.66493267,0.8342634,0.9455977,1.0943689,0.50541,0.12577939,-0.23579867,0.543077,0.46977,2.0485816,-1.436016,0.34088746,0.22043872,-0.5341251,-0.4952439,0.61288553,-0.53618103,0.28155676,0.63076717,-0.22749282,1.7674948,0.053479064,0.72041255,-0.72027916,-0.23473436,1.6944133,1.3257198,-0.534641,-0.70098746,-1.1987998,0.07486137,-1.8940501,0.8133291,0.14387466,1.3196257,0.20738456,0.120695636,-1.0552838,-0.16984904,0.069935456,1.3396897,-0.66398704,-1.203472,0.49990112
/film/film_subject/films	0.7586313,0.3156356,-0.008658991,-0.5324145,-2.2606254,-1.8597131,-0.50113493,-0.8960436,-1.0074698,1.5040991,-1.0684599,-0.7649332,0.26331565,-1.1664063,0.02834392,-0.9525621,0.24462557,-0.69010836,-0.25911823,0.3896616,0.8962231,0.10099917,-2.908069,1.0795394,0.50086683,0.62569046,-0.6533027,-0.36201903,-1.8062954,0.56034976,1.3871841,0.22324477,-0.5706156,2.5809026,-0.27657306,1.0193789,-1.3579025,0.31195137,0.88399374,1.0067769,-0.05265033,0.6087027,1.6220375,0.70095086,-2.0902379,0.91320145,-0.30569378,-1.4618723,-0.7639339,0.46790022,0.16782208,1.3263876,-0.83595884,-0.009816841,1.3804336,-0.22880206,0.8118862,-1.2111033,0.4119147,1.3471029,-0.56256956,-0.70111805,-0.47435364,-1.5684905,0.1337053,0.17062916,0.18360384,-2.0338461,0.22301964,0.35674435,0.19264476,-0.92571694,0.09359095,-0.86255246,-0.49648297,-1.0134485,0.48844892,-0.013084633,0.49095824,0.118773624,0.5311822,0.87857497,-0.18924026,1.8167449,-0.22100922,-2.1371527,-1.9501389,-1.4723821,-1.0743787,-0.21682014,0.6664771,0.84319067,1.7263747,1.0279266,-0.757293,1.389282,-0.596887,0.63942283,-0.034764055,0.44422075
/location/administrative_division/country	-1.7377775,0.6213092,-1.2110348,-0.37770173,1.4677953,1.3172531,-0.5494838,-0.26598665,1.5978763,0.4429202,0.29622948,-0.38994402,0.88065755,0.48412436,-0.21799554,0.51909524,-1.052963,-0.63234264,-0.21866173,0.59089255,-0.477572,0.45696715,-1.0445545,-0.43118334,0.046712987,-1.3619102,-0.89623326,1.1720414,-0.9074897,-0.6945541,-0.6965617,0.09972279,0.40009055,-0.544867,-0.46065482,0.8351031,-1.0413061,-1.122667,0.9538649,-0.2050249,0.5257972,0.08721565,-0.05050954,-0.22947763,-0.18055601,-0.78525853,-0.7017691,0.29922104,-1.3832752,-0.857937,-0.3781494,1.0357832,0.3920223,-0.18800274,-0.21659864,0.22196624,0.24235013,-0.12838568,0.22674029,-0.6416506,0.67768973,-0.057237133,-1.0986813,0.77434206,-0.19672133,0.27747726,-0.19761191,0.64676213,2.0337818,-0.37926286,1.5643414,0.7594951,-0.7257026,0.16783024,-0.76454747,-0.16332833,-0.43703756,-0.63090825,0.3181351,0.08547213,-0.32423142,0.09657953,-0.77975345,-1.7355468,-1.2397377,-0.91517484,1.3890122,0.415265,-0.88654464,1.5097455,0.65682817,0.15160866,-0.5949921,-0.08971183,-0.39498863,-0.39847815,-1.1464725,-0.827717,0.14502385,-0.84081066
/film/film/story_by	-0.31753418,-0.64995825,0.7840013,-0.95909756,1.0377668,1.7900423,-0.24624482,0.77673393,2.3134987,-0.6610671,0.098098926,1.5655006,-0.93083483,-2.418585,0.18066004,-0.0006545974,0.10821105,-0.08625621,0.33110818,1.2982669,0.92429185,1.1353706,0.13237607,0.25193813,1.0846683,0.4851104,1.5368677,1.3924018,-0.06540235,1.0944691,0.40961745,0.0944521,-0.2233782,1.0653701,0.43368942,1.4014826,1.2559073,0.6422473,-0.3046004,-0.6975265,0.9218724,-1.0686405,1.8560003,-1.1775986,0.6700411,-0.45208344,-1.0137914,-0.932585,2.1233191,-0.739426,1.0940677,0.56828296,-0.024272831,0.29480866,0.68110454,-0.7693126,0.7051002,0.91157556,-0.45190796,0.6164258,-1.2264712,-1.3757305,-0.4427127,-1.3530691,-1.141419,-1.3806537,1.2491685,1.3244436,-0.68507016,0.29978648,-1.0176924,1.0717388,1.8953102,-1.0891374,-0.9243476,-0.695761,-0.34377763,0.1083076,-1.0350018,0.9357524,0.8924018,0.87953323,1.5021104,0.2335252,-1.0580093,-0.15659219,-1.0053716,-1.0971249,2.7397583,0.5385098,-1.377515,0.3858902,-0.25738913,0.9912343,0.18707314,0.2549577,-0.7422434,1.5966097,0.54621196,-0.17855856
/base/biblioness/bibs_location/state	-0.24839729,-0.7003609,1.678872,0.8096044,0.35781235,-1.1831002,-0.025055371,-0.7076695,-0.33203724,0.25221887,-0.7933458,-1.520571,0.81239575,-0.546971,0.20953469,0.5328962,0.48473787,1.1156633,0.6339739,-0.2103623,-1.1243484,-0.7693252,0.6574746,0.1261186,0.73177624,1.2617961,-0.60956466,-1.5136994,0.144805,0.8995517,-0.556809,-0.82583445,-0.5180558,0.34205198,1.438681,-2.4134414,-0.010417525,-0.5848403,-0.04250306,-0.5046572,0.8160695,-1.0505147,0.48517704,1.2227292,0.7172389,-0.289743,-2.3577228,0.72190624,0.3546443,-0.49441695,0.12483332,-0.46773198,0.5250909,-1.1513395,1.1935477,1.2243468,0.8735916,-1.0028131,1.1126487,0.10508718,-0.11175426,-0.89472353,0.8704044,1.0872564,-1.8008184,-1.8106754,-1.1224908,0.98206323,0.26579374,-0.5083648,0.9737759,-1.3688573,-1.7403877,0.40646505,0.17722179,0.75257725,0.19491446,0.14112695,-0.659174,1.2451524,-1.0109013,-0.40331542,0.117156036,0.62544143,1.1790644,1.2366848,0.010928138,0.7229972,-0.9835405,0.6513495,-0.03891302,-0.05912595,0.30216047,0.24701147,-0.5563228,1.6690621,0.6986124,-1.5847623,0.96345556,0.81057686
/education/university/fraternities_and_sororities	1.3369751,-1.0975138,0.43357643,-0.6686807,0.33747193,-0.016303767,0.35726708,0.68311304,-0.17891853,1.0826827,0.27406785,-1.1752716,-0.26200965,-1.1249008,1.4381168,-0.5062604,-0.24654229,0.07692633,-0.86054015,0.98203075,-0.21040767,0.1337434,1.0242165,0.89082676,0.7898443,0.24369067,1.7490977,-0.38661066,-0.6772096,-0.5966225,0.45156544,0.12677547,0.037621923,-0.33927816,-0.0017611764,-0.30006605,-0.5076719,0.08766179,1.9569268,1.0497949,-1.2795069,1.3081893,-0.850151,0.934467,-0.41468,0.79080564,-0.44246447,0.332025,-0.5450575,0.2597913,-0.07120428,-0.5987974,-0.44650942,-0.87024045,0.47386295,-1.4217703,1.3437302,0.030376965,0.058758236,-0.4123369,-1.324707,-0.23534091,1.8331188,-0.445696,-0.37612486,0.65123826,1.2734225,0.20938021,0.7850641,-0.17127335,-0.6318842,-0.43502143,-0.79472023,-1.5540315,0.34083125,0.71615267,0.28564224,-0.78891176,-0.09187513,0.42663717,-1.8555534,-0.70840234,-1.4864908,-0.88934886,-0.75364953,1.1943272,0.22545947,-0.42320243,1.3453302,0.040795144,-0.59453666,1.4488995,0.9729081,-0.82573915,-2.2929661,1.1906774,-1.0236553,0.3111207,0.5606315,1.0986586
/celebrities/celebrity/celebrity_friends./celebrities/friendship/friend	0.26355845,0.4190672,-0.30207163,0.3842125,-0.725889,0.29367337,-0.95391464,0.5851926,-1.4565386,1.0053344,-1.0424048,-1.1934577,-0.9348508,-1.0898416,-0.77669513,0.54751873,-0.04614817,1.0208367,-1.3457673,-1.25723,0.3874593,-0.67472064,1.4634441,2.2680397,-0.9896016,0.7490348,0.58548325,1.2289684,1.1443604,-1.344024,1.9304087,-0.17167997,-0.21486825,1.6370393,0.44667637,0.46452177,-1.1090876,-0.32276568,0.0035135122,1.7357837,-0.9079965,-0.51609707,0.8027333,1.6183139,-0.64457524,-0.9564913,-0.44817525,0.7171142,0.72606784,0.25419715,1.635211,-0.3848385,3.0097682,1.2660964,-0.22873761,0.28194234,-1.3431517,-2.4074862,-0.831079,-1.3450917,-0.836497,-0.8982389,1.9379158,1.5470762,-0.3290354,0.99990463,-0.32008758,3.3270726,0.49719188,-1.0181072,-0.7575289,-0.87722766,-0.23247257,-0.9260364,-2.05202,0.57787305,1.1240737,0.32136872,0.01093339,2.0764937,-2.4378648,-1.5806252,-1.2496083,-1.301924,-0.69276464,0.32051873,0.60532707,-0.45291942,0.5859953,1.974476,-1.634863,0.042685684,-1.7090194,-0.67282337,0.27081028,-0.04898558,1.0926743,-0.92931455,-0.96641976,-1.0406886
/location/statistical_region/gdp_nominal_per_capita./measurement_unit/dated_money_value/currency	-0.44489437,0.785857,0.4089964,-0.7099644,-1.675993,0.091868944,0.4583344,0.487991,-0.2300888,-0.3373336,-1.290835,0.7619828,-1.2439015,-0.13915795,-0.3045047,0.78492147,1.8473867,0.4157525,-1.3054835,-0.45562515,0.92060435,-0.67736375,-1.4482067,0.8886459,-0.1693238,1.3295376,0.6948943,-0.019628411,-0.61933225,0.4169082,-0.9178121,1.1392301,-0.21337199,-0.85340023,1.6846086,0.93636066,0.19089693,-0.82283205,1.1303488,-1.1784211,-0.39719957,-0.78106725,-0.113737516,-0.8802433,-0.5067573,0.6564657,-1.2461013,-1.0500197,0.6092552,1.0561478,0.19681807,1.051404,0.842571,1.6588709,1.3570008,0.88624346,-0.82696265,0.5525263,-0.44951773,-0.26372007,-0.91879547,-0.39882645,-0.5694294,-0.6763985,0.4414975,-0.096821904,-1.1874137,2.5152197,0.63807946,0.7702198,-2.2438326,0.87432146,-0.19006151,-0.03725322,-1.0356375,0.35987124,-1.2473117,1.1087664,1.5074301,0.18628663,0.9319589,0.3843317,0.51934284,2.1256182,-2.389583,-0.43439284,-0.18905242,-0.8832895,1.9766363,-0.5657556,-1.4373517,-1.1838771,0.9003091,-0.50604653,1.0853145,-0.61731744,-0.80971855,0.54111284,-0.631584,-0.73995966
/people/profession/specialization_of	-1.1853735,-1.1968262,-0.31299964,-1.4659404,-0.8550517,-1.5750884,-1.0198492,-0.6891008,-0.4511299,-1.6975337,-0.8897453,-2.0427933,-0.03187602,0.21459939,0.023503883,-1.3905466,0.28482562,0.09664358,1.6241086,1.4303446,-0.029310845,-1.3266251,0.13656639,-0.47488225,-1.1305952,0.15843804,0.59835535,0.9124515,0.89368486,-0.11706406,0.90152323,0.67601424,-1.7816917,-0.13160086,0.3205223,-1.2065164,-0.19579445,0.2006797,1.2274262,-1.1212467,0.77093357,-0.09807041,0.34160635,0.046419233,1.2556272,-1.3786787,-1.1064105,0.7850033,-1.0349034,0.014235389,-1.4018083,0.53089684,0.42193043,0.6803373,-1.7429088,-0.54831654,-0.10318487,2.5539348,-0.9342879,0.50280404,1.084164,-0.6715219,1.4723927,-0.9985407,0.42516804,-0.48194164,-0.76034087,-2.2525733,0.4136305,0.03227581,-1.4473364,-1.2826726,0.4626614,1.5232826,-0.61513436,-0.5607274,0.04893165,-0.21772096,-0.45309663,1.2659086,-1.139193,-0.29044682,-0.9893169,0.75568193,1.4352578,1.1209424,0.22139744,-1.0799477,0.1968355,-0.16920991,0.14296009,-0.062171325,1.2980677,-1.6643573,0.7444483,-1.1182451,-0.48100448,0.8396346,-0.5417502,0.6656272
/american_football/football_team/current_roster./sports/sports_team_roster/position	0.44620037,0.13020872,-0.21594809,2.67733,0.64723504,0.13792792,1.3033853,-0.41266105,0.6490942,1.9954684,-1.7095039,-0.49205467,1.0235989,-2.029712,-0.45894536,1.597038,0.3948521,-2.7160099,0.64558357,0.37061685,1.5151805,-0.6619227,-0.35760736,0.07517652,-0.65327436,-2.329696,-1.0616853,-0.72820514,-1.3035145,-0.30794787,-0.9038674,0.09902938,0.14262895,-0.7837346,0.7365512,-1.6732142,-0.49856806,-0.44591165,0.24729581,-0.44737858,1.3572348,0.32348946,1.4255054,-1.7378758,-1.004897,-1.4279447,-1.2942603,0.24502122,0.117302075,0.10933824,-0.65641135,0.764915,-0.86684424,0.21162523,-1.268112,-0.14757028,-0.43805537,0.03365796,-0.50916606,1.2761167,-0.5766377,0.86239576,-0.7156491,-0.5084558,-0.42987633,-1.4420018,0.28628936,1.1207128,-1.2080036,-0.6470677,0.5965468,0.6016383,-0.6349442,-0.41728032,-0.40818974,0.1682967,1.1947174,-0.4899923,-2.1468809,0.33766547,-0.33851218,-0.24761236,0.23333651,0.021007141,-0.09495918,-1.3693712,1.6228715,1.2411497,1.2120684,0.009489374,-1.9502623,-0.16718346,0.6172248,-0.24602184,1.6959752,-1.0413446,-1.417161,-0.033275973,-0.042745534,-0.8761587
/base/schemastaging/organization_extra/phone_number./base/schemastaging/phone_sandbox/contact_category	-0.19034445,0.97993225,-0.5630254,-0.6573213,1.778293,1.1358525,-0.45899498,-2.049615,1.126394,-1.7541243,0.6407883,-0.020390987,-1.3095111,-0.22676492,-1.3442355,0.7435748,0.51856357,1.8227874,1.2234701,2.1057477,-0.8515126,-1.1245421,-0.67844456,-0.22998378,1.5350693,1.2313008,0.89086413,-2.3593075,0.7747109,0.40921664,0.21131086,1.6223181,0.9424487,-1.3320476,-0.007041575,-0.32830244,-0.9323957,-2.18948,0.99042886,0.4876272,0.67923874,1.1873983,0.35075173,-2.1246428,0.8260561,-1.2813445,0.8329343,-1.0473424,1.0484573,-1.0166662,-1.0592786,-0.63815296,0.5957178,0.4095635,-0.6816872,0.75102884,0.0035811176,-0.3619069,-1.8684876,-2.348731,-0.7370609,0.46677962,-0.73836774,0.36026767,-0.6652333,-0.4473504,-1.341892,0.93228954,-0.80460924,1.5907981,1.374861,-1.6833313,-0.885372,0.10224508,-0.49624,1.0170001,-0.8495604,1.3165466,0.052115258,-0.57196045,-0.1430279,0.014803974,0.86012983,-1.3660871,-0.6014717,1.1174821,-1.3367832,0.67755467,1.0079311,0.7519749,-0.56878567,1.0854934,-0.54655313,-0.76034987,0.87073445,-0.5588496,-1.4969114,0.68257755,-0.37427655,-1.318712
/music/performance_role/track_performances./music/track_contribution/role	-0.16046335,1.1803944,0.3629347,0.5110491,-1.0202522,0.28026387,-0.72517073,0.39761204,-1.0752264,1.6767067,-1.0881044,1.688468,-0.9577999,-1.2313735,-0.8514619,-0.8880384,1.33326,-0.18835847,-1.1831356,0.5257949,0.41651693,-0.42224747,-1.4483185,0.7276088,-1.696497,1.5374894,0.87427694,1.3893209,0.39068744,-0.7439475,0.778857,-1.345549,0.14284013,0.660679,1.0379206,-0.14230958,1.4006225,-1.5952356,0.67872024,0.39920583,-0.6385654,0.353996,-1.4609213,1.4367303,-1.0294607,-1.321694,0.23262794,-0.76146966,-1.1861408,0.7063457,-0.39494205,-0.69978315,1.6189348,0.9880743,1.0179821,-1.4976218,-1.2293869,-0.4822304,-1.0333724,0.7569161,-0.79564655,0.21301696,1.5953937,-1.3859197,-0.121391036,0.33678582,-0.6237842,-0.17591844,-1.4116795,0.33156258,1.3095797,1.1560265,0.21961735,0.2952634,0.7073618,1.3200165,-0.93375283,-0.8324325,-0.18056747,0.46830413,0.93890154,1.1697989,-0.64817137,0.8738626,-0.9404791,1.7702816,-0.84274143,0.58596593,-0.24670228,0.08026421,0.6378688,-0.58717763,0.55547804,1.7021337,-0.02638067,-0.24860632,-0.8979313,-1.164241,-1.137316,-0.09059279
/time/event/locations	-1.6463996,0.44150767,-0.16130537,-0.25245693,0.987314,-1.8736072,0.038380172,0.13586934,0.32260215,-0.35661402,-0.9483556,0.09887825,-1.6599498,-0.6173645,0.85972184,0.5443602,1.0674707,-1.3349751,-1.2713296,1.2820988,0.9504174,-0.7145997,1.2397652,0.5547392,0.5462216,-0.31581303,0.58076376,-0.25628322,1.7337768,0.11160124,-1.6482339,0.79854846,-0.301081,1.6695703,-0.43961954,1.3241334,0.5010893,1.2481624,0.26005524,0.55995977,0.6118581,0.09487538,-0.24518865,-0.70522934,-0.75886095,-2.2478576,-0.25551012,-0.11163661,-1.5902094,0.10381114,-1.2390428,0.70932424,-0.3703964,0.40899777,1.3055143,0.11119872,-0.0690721,0.89125055,-0.627803,0.15148363,-1.3338413,1.298199,-0.8295616,0.8059071,-0.8174975,0.16291615,1.8210173,-1.1201959,2.0298488,-0.44663724,1.4793906,-0.41382474,-1.5414605,-1.8386402,0.9423829,1.8395774,-0.40383974,-1.0692357,0.053865284,-0.60725766,-1.3284817,-1.3964151,0.864826,-0.3147817,1.5322748,-0.51812893,-0.030669842,0.36353186,-0.07178352,-0.33810756,0.332563,-1.397935,-0.057645783,-0.12822965,-0.9304564,-0.11704793,0.526022,0.77012,-1.7747662,0.41840535
/tv/tv_program/regular_cast./tv/regular_tv_appearance/actor	1.4446365,1.88749,-2.0613868,-0.49913493,1.4104925,-0.9105711,1.3703988,-2.5313401,0.7974003,-0.674818,-0.061618324,-1.613714,-0.72747713,0.067571886,-1.0479152,0.3185764,0.7967081,-2.2448342,-1.2624688,-1.229203,-1.2625947,1.680225,-0.765252,0.22138104,-0.46135575,-1.6773064,1.6874382,-1.6970345,-0.6916793,-1.466424,-0.28908315,-0.22362283,-1.1405505,0.82639843,-1.1158108,1.5260206,-1.607367,1.3357601,0.89391416,-0.41978985,-1.4692428,-1.251005,1.3057942,0.016461665,-0.3474558,0.69273555,0.43672812,-1.6610262,0.054053735,-0.8592103,-0.45269778,-0.061859503,-0.92706394,-0.23444532,-1.3826455,-1.3918698,0.709233,-1.1190355,0.86441284,0.29812044,-2.1538548,1.4134967,-0.26843634,0.904339,0.84101903,-0.34390298,-0.392876,0.2674484,-1.2273462,1.324107,0.7674724,1.0404942,1.1448998,-0.8420765,-0.33745152,1.7307987,-0.13418049,0.3102051,1.1192136,1.1774589,-0.31260854,1.7874209,1.7949477,-3.2745273,-0.075957865,0.8076897,1.5377017,0.17001747,-0.74349874,-0.49633425,-0.7925686,0.7242825,-0.13196796,-2.2294576,1.8056492,0.6005251,-0.3678545,-0.30590284,-0.41567856,1.8603206
/language/human_language/countries_spoken_in	1.8287263,-0.5353197,-0.4546877,0.108074896,0.84473276,-1.01,-1.155226,-0.6852607,1.3506569,0.15680374,-1.0579122,0.3585645,0.90714943,0.059250314,-1.5443716,-1.2647078,-0.9066415,-1.1560366,-0.6556229,-0.72535884,-0.18083064,-0.40624976,-0.54665047,0.027581224,-0.90297043,-1.0269041,-0.24258497,0.20485985,1.2207274,1.2332418,0.21389182,1.3443792,1.8727013,0.5977845,0.89575356,-1.4360862,0.8873539,-0.21302353,0.5694009,1.4979043,-0.4989774,0.5241166,-1.018201,0.48223677,1.3197302,0.54354745,-0.78223884,0.9226723,-1.2642254,-1.4342408,0.6372705,-0.3048841,1.2517815,0.55842793,0.39450344,0.24213028,0.56201655,-1.3323003,0.058986265,0.5878008,-0.8680066,0.721417,-0.2091882,-0.37117386,-0.07887324,-0.8225567,-0.5986193,-0.86452657,0.8906443,0.03128348,0.24098387,-0.9335053,1.9174517,1.105964,0.43980423,0.1734182,0.46709302,0.43038175,-0.75134355,-0.21183553,-0.6399766,-0.14420825,-0.25311476,0.14763229,-0.55700505,-0.32722223,-0.8772993,-0.027792983,1.5680053,0.4436063,2.5839758,1.0666019,0.16942047,1.5497981,0.86133355,-1.1043798,-0.13607784,-2.0432785,0.4513079,1.1833735
/sports/sports_position/players./sports/sports_team_roster/position	-0.93847483,1.0930814,0.58864105,-0.27192125,0.25130114,1.078559,-0.2574402,0.27275506,0.48947513,-0.009713554,0.06268337,-0.6781921,1.0158454,0.7854194,0.30125314,0.665002,0.055102035,-2.7528946,-1.4100614,0.72460073,0.24434264,-1.1899638,0.213958,-0.7867255,-0.43103406,0.79750293,0.11306557,-0.93607944,-1.0320107,-0.6427435,0.0025925636,-0.8950868,-1.028995,0.33782035,0.02827671,0.1426053,-0.71730393,0.062021613,-1.0289483,0.2921723,1.0965697,0.7341021,1.7201898,-0.7628644,-0.4557865,0.106795356,0.23018193,-0.18814038,-0.1672439,0.64076126,-0.21769562,-1.002486,-0.08110855,0.37186047,1.856047,-0.13041943,-0.099065475,-1.7032243,1.7138542,-0.36798525,0.43639687,-0.5887958,0.25544292,-0.8266948,0.43411294,-1.2036389,0.15994535,0.53883326,0.7882524,-1.431581,-3.0602152,-1.34084,-1.088265,0.18158029,-0.00883841,0.45907652,0.7326525,-1.2743278,1.0040268,-0.14605747,0.8489504,-0.3184174,-2.7289548,0.36424804,-0.22716281,-0.1808568,0.3502034,0.17950504,0.8812953,-0.006605114,0.29128954,-0.2798156,1.1681783,0.24439949,-0.986327,0.3062812,0.2450919,-0.43166268,0.8369407,-0.47725418
/music/artist/contribution./music/recording_contribution/performance_role	-1.0107641,-1.549724,1.2244213,-0.59117746,0.9906921,0.023060627,-1.5979788,-0.9354823,-0.4435212,0.8795553,-2.2854621,-0.97128135,-1.5323118,1.0216292,-0.47573292,-0.50933456,0.4136954,-0.59212565,1.354065,-0.8677013,-1.631241,0.6895492,-0.9313526,0.2883253,0.7720459,0.27799472,-0.6410671,2.2156014,0.76206297,-1.5102292,0.12789285,-0.80026644,0.82167536,-0.3812453,0.71610194,-1.8302695,-0.2771738,-1.4376576,0.3816915,-1.2700922,1.3973328,-1.7273384,0.29345354,-1.4286479,-0.9387094,2.4406786,0.8573411,-1.4391254,1.5146099,1.4906814,0.33089435,1.0724274,-0.8338273,0.5428692,0.74027586,-0.037755128,-1.2503943,0.078766786,-0.73231214,0.100596994,-1.517771,-0.43418196,0.23219281,0.026969936,-2.0227287,1.1249503,-0.5180839,-0.5221662,1.3599249,0.5326937,-0.8361426,-0.3019779,-0.7313016,1.0354726,0.33060136,-0.17549238,1.4357585,0.15361866,1.5930915,-0.7852623,-0.68727994,0.44832197,-1.3094991,-0.1117047,1.3217788,-2.1003377,-0.8559111,0.30861598,0.2973145,0.81549585,-0.9963799,0.7809765,-0.5761883,-0.7840123,0.7588064,0.28772572,-1.4807464,0.55759686,0.1551442,-0.05146144
/tv/non_character_role/tv_regular_personal_appearances./tv/tv_regular_personal_appearance/person	0.5213496,-0.17071834,0.16568366,-0.018704684,-1.0752544,0.86452353,-0.9323817,-1.6585803,-0.6630469,0.8043939,-0.451212,0.46191096,-1.0227256,-0.21043868,-0.37760663,2.1517339,-0.08624332,-0.8424684,-1.0379329,-0.19604951,-0.46300384,1.2746698,0.16544709,0.050705798,-0.69004583,0.08476909,-0.3851643,-0.48757747,-0.9847066,0.18368286,-0.6703232,-1.5638634,-1.1188945,1.0577717,-0.56928355,0.11677549,0.8376621,1.9185768,-1.6430197,1.0999404,0.38449097,0.568673,-0.94775176,-0.17999679,1.857963,-1.908391,0.11392162,1.56655,-0.2321794,-0.37334585,0.7336197,-0.65187126,1.9042891,0.9522717,-0.13473369,0.33488888,2.427522,-0.19026679,0.7947914,-0.61587083,-0.42680213,2.4247484,0.3718079,-0.5154027,-0.0891291,-0.19575395,0.7615876,1.4445812,-2.10577,-0.24238592,-1.1483312,-1.1152651,-0.4621127,-2.1091998,0.96047777,-1.275582,0.39021665,0.91761065,-1.2982336,-0.5567831,0.104266934,0.59820795,-1.7947696,0.6576095,-0.79914254,-1.0857005,-0.33568308,0.16388294,-0.016833963,-0.8017026,-0.87675256,0.4373986,0.19566867,-0.16004309,-0.7780667,1.734091,-0.4864136,-1.6853861,0.9614176,1.4405816
/location/country/second_level_divisions	-1.2280266,-1.4904147,-0.6247091,-0.26490253,-0.34755796,-2.1404855,-1.0156639,-0.65651107,-1.0184929,-1.3025726,-0.75744003,-1.2112346,-1.5074834,0.6288505,-0.26750955,0.55469346,0.3286133,0.26557866,0.8208619,1.9727497,-1.789579,-0.02593062,-0.94305295,0.51925176,-0.8299525,-0.79634345,-0.5797979,0.6320682,-0.1700996,-0.40792316,0.9526141,-0.29943243,-0.0077900407,0.8083342,0.060076054,2.4609468,-0.67965156,-0.27511656,0.14639358,1.267564,0.22376351,-0.722378,0.033282366,0.2985447,-0.2659096,-2.3655782,1.3492057,0.30061838,-1.5824697,0.78676605,-0.96907884,1.0837096,-0.0551591,-0.6451208,-0.497701,-2.011971,0.8590671,1.0535058,0.37117022,-1.5707284,-1.1025428,-0.67585284,0.88403374,0.5910363,-0.28783983,-0.67633784,-0.37847635,-0.9649191,-1.204017,-0.7366053,-0.123608,-1.3605869,0.8803608,-1.3446199,-1.2062461,-0.42719376,0.9130081,-0.49328274,-1.2720164,-0.005235167,-0.18550871,-1.3554564,-0.29760158,0.7817655,0.6740746,1.5491983,-0.88784283,1.510035,-0.6904055,0.7540372,0.3911968,-0.14670736,0.053990413,0.28799814,-0.06418109,0.25732523,0.074760765,0.5061047,0.17429672,0.95397836
/people/person/religion	-0.5043364,-0.83451563,0.17409486,-0.3621363,-0.6569127,-0.5413314,0.1310869,-0.6766235,2.0146925,-0.118411854,1.6446809,-1.6079468,-0.09771536,1.4529232,0.53423715,0.13448925,2.1867385,1.5788444,0.27391264,-0.90914965,0.30838272,1.0445281,0.7877764,1.1218073,-1.0419565,-0.17390218,1.2348034,-0.5809705,-0.18865104,-0.24040699,-0.97019696,0.06069032,-0.8621825,0.5599413,0.5924185,-1.6877501,-0.44688743,0.29625672,-0.7344527,-0.1775711,0.5071967,0.7643291,1.5345322,-0.37964353,0.57691014,1.318609,0.030441578,-0.6747497,0.23403545,-0.7940609,-0.34430447,0.75379574,-0.10270617,1.059272,-0.684564,1.8200253,-1.1332511,0.08632387,-0.39800566,-0.132713,0.03907476,-1.7967037,-1.8881351,0.30217683,0.24006604,-1.2234526,2.6986947,1.9502993,0.26674697,-0.9530116,1.3344272,-0.547104,-1.4974532,-2.0878537,-1.2441937,0.69121003,0.80755174,0.23188326,-0.23817375,-0.445528,0.5641429,0.12998612,0.43152738,-0.57006335,-0.99334913,-0.16440782,0.22824042,0.41716325,1.7333653,0.02317841,0.47044656,0.25404733,0.50785005,1.0514523,1.1354505,0.006937119,0.37618104,0.43830267,1.0140779,0.8414598
/location/hud_county_place/county	-0.2829312,-0.08702387,0.62226176,1.0776272,1.097361,-0.016462224,-0.71802825,0.9825767,0.3348124,0.27419657,2.6128008,-1.2318338,0.6078329,1.3100071,-1.5829685,1.1978434,0.20218793,1.9622278,0.71044576,-0.92539626,1.6253887,0.7421424,-0.99593973,1.5770826,-1.1411169,0.2232284,0.75745755,-1.9867651,-0.011791418,-0.9029958,-0.37363368,-0.05674809,-0.53579557,1.5004905,-0.6835194,1.2788806,0.4353681,0.48229125,0.4760816,-1.5725805,0.2157906,0.19887064,-0.4644691,0.6846082,0.43201226,-1.0707836,-1.3734938,-1.2043676,-0.5414918,1.0746216,0.68393314,-3.1558723,-0.15363815,0.1312681,0.57900304,1.2110409,0.97956806,0.107614234,1.4652747,1.7041675,-0.4454576,0.48863664,0.027613005,0.764945,-0.6950588,-0.6108021,1.5824068,-0.5457111,1.4230471,1.4981756,1.0174583,0.8088768,-0.08166944,-0.5962319,0.86448556,-0.74381405,-0.5133113,-0.4025264,0.6103521,0.9182515,-1.0891956,0.9030606,-0.4678768,-0.3015873,-0.21606658,1.3881603,-0.67121804,1.7984122,-0.549098,-1.2918578,2.1060746,-1.0582824,-0.7644049,-0.7018994,0.9782673,1.7121712,-0.120099835,1.0141045,-1.1062204,1.8759352
/film/film/music	1.0057973,1.0102797,0.6769083,-0.4533425,-1.311376,0.35101873,-0.51253563,0.63854873,0.19681993,2.056662,1.4114106,0.65502447,1.1864744,-0.06128514,0.76132506,-1.1793778,0.46696424,-0.379105,-0.0060714176,1.9396532,-0.11274403,-2.119847,1.4252629,-0.9897776,0.6089533,-0.99112636,1.987689,0.2966986,0.58287877,0.5346407,-1.0924585,-1.2294201,-0.9368529,0.81109035,-2.1683724,-0.16060618,1.0817684,-1.1632481,-1.4045832,-0.1753929,-0.71708256,-0.9293311,1.2483901,1.3386226,0.7379867,1.6701789,-1.6474088,-0.18048069,0.8850498,1.0972276,0.3115335,0.53097963,-1.463776,-1.3835514,-0.07478863,1.2895437,0.23391569,-0.798903,-0.648538,0.38687602,0.5444018,-1.0281506,1.4617931,-1.336966,0.08475908,-0.68458444,0.5269578,0.04073214,0.34966975,-0.29871523,0.84855574,-0.0064968597,0.85050845,-0.38032633,-1.1105695,-0.36124444,-1.4329405,-1.4789132,0.93138665,-0.4102942,1.0791022,1.4869931,0.17917557,-0.00019869345,-0.8168171,1.1429093,-0.66813964,0.71682787,-1.6359055,0.4955514,-0.8616378,-0.20841521,-0.61182904,-0.883977,-0.05315279,-1.2438614,0.46231747,0.50877666,1.045174,-0.5695488
/education/educational_institution/school_type	-0.39327404,-0.102926664,0.16515732,-0.66173136,0.5047641,-0.24683169,-0.35225412,-1.5396875,-0.876341,-0.9249419,0.18311013,-1.022816,1.1067239,0.25321603,-0.77487004,1.4662316,-0.3974367,0.3003994,-0.09491193,1.8440485,-1.4443743,0.11209153,-0.26901495,-0.19606298,0.61608964,-0.9303085,0.8141315,1.0336224,1.1363274,1.4143987,-0.62379783,1.6858358,-0.2081751,-1.8905809,-0.76229143,3.0105274,-0.9493699,-0.85362613,0.761117,0.017415287,0.13098961,-0.25766477,-2.2559109,-1.2261215,-0.49718162,-1.2161163,1.1496929,0.490296,-1.4527217,-0.06922461,1.1863911,-0.22232102,-0.61297894,-0.21907629,-0.829191,-0.339537,-1.6506047,-0.28843433,-0.41888177,1.3662975,2.1933827,1.141149,-0.8192569,-0.2442017,-0.34505928,-0.7496575,-0.28148437,-0.73159164,-0.9330625,0.6929336,0.22915772,-0.8890285,0.5334997,0.22272515,-0.55069995,0.27440092,-1.7275695,0.3888244,-0.53979534,-0.009914295,-1.1464928,-2.3280375,0.6524899,0.32862028,0.60186744,0.48676038,0.8312724,1.3670547,2.704874,-0.98827577,0.53915644,-1.8380872,0.35338077,-0.7015621,0.9780427,-1.1370476,-0.10863041,-0.87265366,1.5626856,0.013046136
/film/film/film_art_direction_by	-0.16648096,1.244945,-0.94722575,0.5842337,0.12540047,0.7942819,-0.2765256,-1.5834056,-0.14969152,-0.83298326,-1.0249475,0.16257092,1.9812546,0.17261994,-0.7221011,1.1562968,1.969344,-0.3582781,-1.5546267,0.68089384,-0.825407,1.6496867,-0.8251653,0.7080422,-2.164856,0.914214,-0.8430368,1.0606331,-1.0304394,-0.016635774,-1.3377843,1.3120142,-0.15846437,1.219412,1.2347398,0.7433282,0.27120915,-0.13095842,-1.091226,-0.6171112,-0.846969,-0.5023273,-0.64145505,-2.7173579,0.07926756,-0.28319293,0.39205396,0.7678986,-0.15473975,-0.41709784,-0.7326709,0.35888934,0.4118698,-0.9292857,-1.9827992,-0.8661461,0.5440079,-0.17646909,-1.2531284,0.52273595,-1.0522505,-0.6594059,0.12163598,-0.78651875,2.0680568,1.8689361,1.3534992,0.6327102,0.19558427,-0.33374903,-0.10164017,0.8081418,0.343654,0.52665687,0.49693364,-0.32159305,-0.6815401,-0.3379198,-0.19118674,-0.11252169,1.9637898,2.2814636,-1.5983918,1.5529782,1.2930086,-1.0020738,1.0399395,0.13462448,-1.5390452,-0.598231,0.19520603,-0.47470975,0.69253606,-0.096299134,-0.5118056,1.1195874,0.77786404,0.811905,0.8521895,2.2141273
/music/genre/parent_genre	0.8130778,0.25652856,0.9763724,-1.0613848,0.38147274,0.54131144,-0.2546802,-0.87631506,0.2968312,-0.5202141,1.2486721,0.5260114,0.5287191,-1.039516,1.1796161,1.0965619,-1.491561,-0.70772445,0.18026868,-0.16817264,0.27779305,-0.8465046,-1.0475825,1.3873905,-0.23789911,-0.19390343,-0.3578277,0.2557861,-0.47448984,0.41858253,2.7792315,0.71872556,-0.26990613,-1.7222499,0.8348426,1.345843,0.63420063,-1.2628429,-0.9170568,0.67481893,2.0753024,1.4980236,-0.6095945,0.7891621,0.4678633,-0.6972789,-0.64717776,-0.8796346,-0.502789,0.8772171,1.1731925,1.5536816,1.2853242,-1.3861986,-0.05169676,0.6580803,0.32354015,0.02258366,0.8418397,0.16733824,-1.1707788,-0.2049436,0.10172374,-2.0465376,-1.2006,-0.66261226,-0.074237615,-1.5324252,-0.9846922,0.43830475,-0.8826554,-0.5778401,0.05141667,0.5224427,1.4005258,1.7907839,0.6080336,0.9552922,-0.66570526,0.050996307,-0.69888973,-0.28124183,1.583141,1.3375462,-1.3318619,0.27451319,1.4037955,0.30046508,0.9708989,0.42300248,0.7922303,0.7087207,-0.1944238,0.74859834,-0.7946766,0.22271726,-1.015176,-1.0737756,-0.4819831,-0.66022915
/user/alexander/philosophy/philosopher/interests	-1.3073936,0.33674988,0.8319879,1.4167846,-0.19080569,-0.51723605,0.95488507,-0.6605259,0.06695691,1.5749589,-0.8789301,0.95357484,-0.4703923,0.22932138,-0.17075118,0.046817575,-0.18967186,0.37593678,0.7243709,-1.4452926,-1.5729924,0.13441867,1.5484517,0.40583947,-0.57377255,0.3500536,-0.4979611,-0.28319794,1.8498762,1.4843272,-0.64324045,0.8427594,1.2046446,-0.2740192,-0.05377501,-0.058235902,-0.18859647,0.88252574,0.44963276,1.6128867,0.9077143,1.2175859,-0.12166895,0.08126416,0.15004414,-1.6741569,-1.6678686,0.52667403,-0.48231456,-1.4108375,-0.7069183,-0.12913054,0.33944657,2.4998264,-0.48921078,-1.1990097,0.25231197,0.6372663,0.05831116,-0.21675174,0.1828754,-0.33092946,1.2439307,0.40498638,0.55147946,-0.0044892915,1.5772976,-0.15013765,-0.48259103,-1.8620458,-0.8766001,0.5194389,0.9838355,1.0997448,0.13450983,-2.111394,1.343184,0.03530951,1.4127485,-1.9866804,-1.6119987,-1.1531105,-0.42527035,0.6597873,2.2163713,1.0274729,0.04646599,0.11384366,-1.4752821,-0.6929076,0.8277598,0.568915,-0.39637932,1.1295189,0.8984831,0.646985,-2.1924932,-0.7253948,-1.4638622,-0.01629347
/people/person/place_of_birth	-1.1595925,-0.8675433,-1.3450128,0.8155552,2.3819482,-1.2181615,-0.5224761,-1.2533126,-1.4578115,0.7334684,0.18770075,-0.9790257,1.2424588,-1.6187222,-0.45930463,0.56677264,-0.83593494,-1.5411259,0.40264228,-1.5838041,-0.23112337,1.1415033,0.031689893,-0.884063,-1.7447244,-0.60724926,-1.2135149,-0.70009303,-0.94934535,1.4669931,1.227473,-0.7385961,1.2300932,-0.54577535,-0.857772,2.6919184,1.959669,1.1885785,1.0357778,-0.19189017,-0.79514176,0.3250683,0.078541525,0.24381931,-0.7891076,1.6733335,0.95119536,0.49059334,0.60187584,0.19122858,0.5406259,0.75899744,0.56907105,0.52660424,-0.995968,0.633696,1.1917442,0.73150325,1.0548086,-1.7525854,-0.504661,-0.5065018,-0.58008486,0.89202774,0.80062354,-0.9758028,1.3002833,1.1828262,-0.19584662,1.3259374,0.7237375,-1.6840198,0.33545414,-0.798707,1.2589144,0.40357655,0.106600724,0.84643954,0.6346802,-0.3935032,-0.62675667,-0.6468334,-0.4686233,-1.920344,0.34225473,-1.3403845,1.10777,0.6063409,-0.47866508,0.70447046,0.7444696,-1.145509,-0.3567247,-0.8278026,0.95781696,0.25296462,-2.2852407,-2.759137,-1.5020298,0.6435575
/location/statistical_region/gdp_nominal./measurement_unit/dated_money_value/currency	-0.9333809,-0.040847667,-0.37735015,0.3304491,-0.6841792,-0.85334116,-0.715891,-2.5626507,-0.22190847,-0.8542945,1.3386813,0.5429009,0.5897451,-0.8754449,-0.6865377,-0.588457,0.7499987,-0.38973925,1.0237492,-0.45151696,-1.0178596,1.8580157,0.79851633,0.6674535,-0.48302448,0.3732542,-0.5744364,-0.11261934,-0.084979504,1.1572382,0.713749,-0.4835408,0.083196804,0.5434247,0.15298876,1.8774896,0.15666775,-1.3887286,0.15861237,0.77209103,1.3673128,-1.1869893,-1.0589536,-0.82635266,0.61015934,1.0706844,1.7865562,0.6274376,0.0787263,1.8596387,1.1175839,0.29318935,-0.17240874,-0.12628888,0.47338092,-1.046764,0.0008684438,-0.7403079,-2.1057408,0.89301205,-0.97055256,-0.8802465,0.22275595,-0.21914917,-0.5049202,1.8573674,0.46945584,0.4369435,0.4467519,-1.8896967,0.68341786,0.27343014,1.5166684,-1.9160132,0.85408574,-1.2135278,-1.25832,0.17504424,-0.44461334,1.6469377,-0.55618334,-0.5959305,1.5849756,1.6850125,0.17051423,0.28266522,0.36688486,1.5690665,-0.8703671,-0.21720128,-1.1624469,2.0831225,-0.45694518,0.66285414,0.5223205,-0.50772816,0.52453876,-0.010871114,-0.20819189,-0.39882404
/business/business_operation/industry	-1.4952794,-0.8607813,-0.25490636,-0.6536273,-1.9625582,-1.1458365,2.3962176,0.16677819,-1.3751009,-0.7342168,0.08799858,-0.45992443,-0.7844308,-0.25207847,-0.68677616,-0.1671543,-0.5469464,-0.9812957,-1.728642,1.1053108,-0.9793923,-0.27136075,-0.36993274,0.5092874,-0.61411816,-0.9868421,0.36694682,-1.8704256,-0.49142265,-0.25694224,1.8977758,1.1015931,-1.0594198,-0.0551564,1.578452,1.3519613,0.34845513,0.41649336,-0.065910615,0.03966371,-1.3632185,-0.38503972,-0.085559264,0.7211675,-0.25587645,-0.7710457,0.27397698,0.787494,-1.1223346,0.8559588,0.80478865,0.09981106,0.3672838,-0.5742854,-0.18113385,-0.839438,-0.99066603,1.0730293,0.511889,-0.2757292,-1.3571986,0.3487285,0.6110817,-1.2088963,-0.4631425,-0.4902225,-1.92978,-0.71135545,-2.8446872,0.420753,1.7800131,0.34925658,0.9363817,1.2023888,1.0665759,-0.53259444,0.15987366,-0.8229694,0.80329335,-0.4905301,-0.5277376,0.4034462,-0.5359316,-1.8839083,0.24226137,0.13774382,-0.09093901,1.4865838,1.0192004,0.43158,1.0169867,0.404293,-0.61820346,1.6858776,0.7795205,0.26200897,1.9771531,0.106013484,-2.7072535,-0.3553489
/music/record_label/artist	-0.92999846,-0.5308487,0.5831491,0.18673226,1.3705796,-0.5973881,-1.2749327,-0.42229214,-0.8303379,-1.2318578,0.07534336,1.9810017,0.7817815,-0.44344598,-0.97754097,-0.38965753,-1.1235284,0.71186054,-0.38027984,0.62484765,-0.6318382,-1.8229991,-1.0933942,-2.3105497,-0.4250492,0.9652073,-0.35961166,0.39015198,-1.7094629,0.3208148,-1.276258,-1.6443598,0.12735896,0.3127291,-0.9020776,-0.453763,-1.226441,-0.84697634,-0.61405164,-1.6970209,-0.38429058,-0.14358033,-1.2352593,0.6490101,-0.53043777,0.35257006,-1.0007842,0.53231406,0.12471972,1.3683125,1.713185,-0.54892534,-0.9982676,-0.023931842,0.8550544,2.403073,-0.8178009,-1.255636,0.38494253,1.4746507,-0.47442782,-0.6003901,0.4095806,-0.35610262,-1.2423253,-0.6348315,2.3145385,0.20308805,-0.42623895,0.84624475,0.046389792,0.9597695,-0.86207634,-1.8711578,-0.8920656,-0.43696982,-0.5630884,0.42830715,-0.3567877,0.6122041,0.075275764,0.3587988,0.5278121,0.19125523,-0.6120603,0.23207973,0.8841054,0.6393779,-0.96940166,-0.33309639,0.18197903,1.184611,-0.36294332,-0.14485447,1.0752257,-1.752652,2.3417387,-0.9168525,-1.3667386,1.2970606
/music/performance_role/regular_performances./music/group_membership/group	-0.092674136,-1.1418533,-1.1344197,1.0370834,-0.60746723,-0.18727715,1.4806087,0.29407147,-0.3717799,-1.0924469,0.5522833,1.6977162,-0.5387903,-0.45165807,0.040898297,-0.8944709,0.021523397,-0.720091,0.75470746,0.8845492,-1.1643213,1.087837,1.6118644,-0.6177383,0.6806368,-0.6006554,0.97918206,-0.5432742,-0.9170509,0.059889883,0.49235368,-1.5349367,-0.6071612,2.1286077,-0.69882834,1.884464,0.08082101,-0.418873,0.98064536,-1.622971,0.59145004,-0.5376949,-1.143435,-0.4657432,0.4216354,-1.1690459,-0.6507014,-0.49052006,-1.475073,0.36401698,-1.6174922,-1.8986297,-0.22775733,0.77140594,0.05122984,1.2185254,-1.2456379,-1.0251704,0.16169818,-0.63695294,1.0082468,0.7512632,1.9919657,-0.51298577,0.15880463,-1.3289667,0.20389539,0.34704956,-0.11372497,1.0115275,0.9771178,0.001353804,0.81143296,-2.0275996,0.27236095,0.22668928,1.1027565,0.8129955,0.74107367,-0.65583736,0.09701249,1.7397689,1.2739906,-1.2877895,-0.6124528,1.2287027,0.7861474,-0.7796309,0.102893144,-0.92441523,0.4092886,-2.1754496,0.6849662,-0.48221588,-0.36639923,-0.60501575,1.497648,0.92086804,-1.729077,1.2829078
/sports/pro_athlete/teams./sports/sports_team_roster/team	1.4344935,-1.7230482,0.47981194,-1.7678902,2.4868298,0.40890053,-0.22170691,1.3400515,0.7988873,0.7679035,0.7089014,-1.7998766,0.18856332,-1.3998815,0.36009818,-0.031622753,1.7334108,1.0897703,0.79176784,-0.9830318,0.28972074,0.29488087,0.82204884,-1.1422093,-0.41451925,1.061177,1.0766382,0.4221564,-0.8123123,-0.7517033,-0.6869703,1.0803429,-1.2158653,0.97756183,-0.41561374,-1.2669854,1.6003977,0.2165662,0.45009717,1.2902728,-1.5219,-0.9268194,-0.48738894,1.5434895,-0.32922208,0.85709786,1.0523578,0.94880265,0.05325351,-0.4570154,-0.58342165,0.97562915,-0.39272538,-1.2087388,-1.195415,0.35996985,-2.7647321,0.14061184,-1.8992268,-0.8311938,1.3299456,-1.0053211,-0.2173261,0.050826356,-0.83450705,-0.9357179,-1.6576381,-1.6875997,-3.0234394,0.73354065,1.1267083,1.0989532,0.48278034,-1.7422692,0.6226653,-0.73504925,-0.5390632,0.64358556,0.9022177,1.6860913,1.0012501,-1.2674534,0.23959519,0.42630255,0.801009,-1.287014,-1.5965617,0.8009666,0.54604304,-0.17379451,0.0958013,1.4010853,-1.1328334,0.33573604,0.9231367,-0.48500812,0.76793367,0.9068751,-1.0337125,-0.1161744
/education/educational_degree/people_with_this_degree./education/education/major_field_of_study	2.5479512,0.70946383,1.2350588,-0.012936004,2.1727848,-1.0665327,-0.9283526,0.10409367,-0.103157364,1.4375781,1.4275088,0.36746305,-0.48302457,-1.3189505,0.9771616,1.5224653,-0.86344886,0.31808105,-1.8438678,-0.9767156,0.2007651,1.3538064,-0.1718965,0.9310959,-0.18340085,0.3176289,-1.8622655,0.38686597,-1.2143296,-0.60525817,0.06961878,-0.2436306,0.3732763,-0.43731698,-0.31197473,-0.65944946,-1.853297,0.76707506,0.17710254,-1.7656678,-0.49270928,0.90009433,1.0926014,0.01386527,-0.62798345,-0.44957134,0.25169906,-1.4181968,-0.01117422,-0.21501534,1.2589197,0.99918705,0.91830164,-2.0162742,0.43460965,1.614509,-0.41146985,0.39749414,-0.7714471,-0.72544,-0.7334161,-1.432922,-1.3133018,-0.8364885,-0.6993461,2.142224,0.66281164,0.517692,-0.40358707,0.29710284,-0.5677792,-1.3989202,-1.2565445,1.4344828,-1.2951881,0.4028882,0.9856744,0.1540884,1.4557165,-0.75423443,0.54018843,-0.24249028,1.2268271,-2.1815493,0.556496,1.1237557,0.047456663,-1.1553528,0.98960215,0.31471258,1.9444396,1.3883655,-1.5257492,0.19883145,0.8978046,0.9795504,0.8726786,0.37038895,0.8993204,1.1626799
/business/business_operation/revenue./measurement_unit/dated_money_value/currency	-0.70940524,0.16597664,-0.8859675,-0.45258966,-0.24872088,1.4126736,-1.6121501,0.56137335,2.2909675,0.8144277,0.8940812,0.8179151,-0.07372519,0.97573465,1.2011786,0.78894866,2.29985,-1.2906463,0.8280527,-2.1501133,1.5727388,-0.2960066,-0.40785086,0.016711326,1.333452,0.6407169,-0.49543917,-0.13218147,-0.25308245,2.1960618,0.031351533,1.3249985,0.13600571,0.83978,-0.30061597,0.6497433,-1.3607814,-0.73867005,-0.38058951,1.4408494,-1.2868354,-0.05745162,0.21250789,0.28382677,-1.7858804,0.28654018,0.18491846,1.2317144,-1.3131051,-0.45331955,0.1430465,1.8281295,0.36161125,0.8982001,-0.085519664,0.3268588,-0.0006103263,-0.7808596,-0.58332056,-0.02161476,-0.46665803,0.0815662,-0.13677002,-0.54438627,-1.4992318,-0.51001126,0.2728178,-0.6065531,0.8475623,1.5922081,1.4378144,0.56670284,0.28820258,0.05219917,-1.777755,0.6956971,1.267945,0.47798976,1.2202567,0.5563773,-1.2178011,0.77568865,0.5465861,-0.18668687,-0.9784502,-1.4171716,0.69642234,-0.005051921,0.4719275,0.63187903,1.3355501,1.5090532,-1.4381311,0.34017855,-0.88612777,0.8885777,0.9423681,-1.4439192,-0.35948128,1.2925359
/sports/sports_position/players./sports/sports_team_roster/team	-1.0502071,-0.7343203,-1.3439633,-0.40085876,0.6031883,-0.45829827,-0.3427319,-1.1625031,0.597935,0.8581699,-1.1112039,-0.41336992,-0.031579178,-1.5570608,0.60051006,-0.33953235,-1.3431588,0.26984057,0.61506236,0.17229651,0.31840575,1.8473175,-1.7442981,-0.5712505,0.67424816,1.7362013,-0.65566075,-1.2789555,-1.4046707,-0.9903115,-0.9751782,-0.930249,0.39276314,-1.273544,-1.5295253,1.3278414,1.1933182,-0.7900126,0.71221226,-0.46097165,1.2860456,0.27740014,0.46479267,0.43477553,-0.646395,1.0467715,2.3507965,-0.14920622,-0.8681769,0.31216627,-0.38297594,0.9940018,-0.6092991,-1.2390302,-2.666492,0.6885002,0.39894623,-0.7820599,-0.5133853,1.0324044,-0.211825,0.7881149,-0.2601644,1.2637342,0.84884286,-1.5959604,-0.7741101,-0.21495458,1.0187159,-0.7539371,-0.8628245,0.50264764,1.7928888,0.2099617,-0.41420683,-0.26726314,-0.60612315,1.219195,-0.74369186,0.94424695,-1.2325443,-0.10319746,-0.9715022,-2.5958893,-0.33230248,-0.045509823,0.9643551,-1.014489,-0.15668024,1.0327964,-1.2444429,0.3756867,-0.69154924,-0.028990649,0.89307857,1.2524598,1.3730271,-2.93067,0.91237307,1.417947
/sports/sports_position/players./american_football/football_historical_roster_position/position_s	0.30095598,0.68467224,0.40369216,-0.5877518,-0.26040876,-0.4000393,0.2515626,0.44542304,0.5026529,-0.061427675,-1.6980797,1.7663987,0.07756528,-0.7612456,-1.3962607,0.040837362,0.8309374,-0.5062873,-0.9460483,0.7922326,0.48179942,-0.52382904,-0.7666206,-0.03925578,-1.0487823,0.027939767,-1.7625566,0.71889424,0.15367721,0.5833814,-0.041786056,0.7495206,-0.46373785,-0.009110985,-1.6206074,0.31204486,0.640643,1.3059515,-0.54893935,0.690669,-3.184317,0.89939916,-1.3858347,0.46022362,0.75671524,0.110018,0.3505599,-0.6677575,0.06973043,-2.6808603,-1.9700109,0.12469168,1.5368483,-0.24923319,0.7395055,-0.09957502,-1.1386186,0.49036893,0.2812347,3.2728686,0.59059924,-1.7763413,1.0976576,-0.25026813,-0.16646712,-1.2657381,-0.48310512,0.24647556,-0.542697,-0.10227439,0.49081883,-0.36850494,0.3429249,1.7545389,0.24060273,-0.10252559,-0.26283014,0.4967137,-0.3276037,-0.52248174,-0.1634114,-0.116669245,-0.5029334,0.4933625,1.1593449,-0.48251435,-0.22969647,-1.1195849,-1.5415616,1.2999679,0.8948503,-0.06552619,-0.40256494,0.1411296,-0.5375605,-0.25876278,0.836342,-0.34685326,-0.5089998,1.3802556
/tv/tv_program/languages	0.65427226,1.292319,0.8846989,-0.81113,0.08103432,-0.35362938,0.2568543,-0.6974706,-1.0553837,0.89731145,1.6799093,0.1374658,0.10960121,-0.11872324,-0.3541257,-0.11534471,1.8088253,-0.1318422,-2.3227704,2.1074638,-0.0945702,2.152563,-1.0667659,-0.51793754,1.608041,-0.48372087,-0.95439,0.3137894,0.31290135,-1.596197,-1.4143226,-1.6645482,-0.3285429,-1.2051258,-1.7101555,0.6256548,0.67468077,0.053246778,1.7695754,-0.026606593,1.3192503,0.76932675,0.56426895,0.9968982,-0.82884914,-2.4619389,1.98965,-2.4150877,1.314857,0.1164301,-2.0201762,1.153127,-1.2587956,1.4368503,-0.7590649,-0.7951851,0.28560486,-0.57642967,0.8895745,-0.031646598,-1.44759,-1.284606,0.58058465,1.8979561,0.15830654,0.38417152,-0.41212758,1.6500155,1.7967017,-0.9766745,0.62685853,-0.9576926,-1.1979918,0.74748063,-0.025222728,-1.6111536,-1.3743083,0.601257,-1.0030442,0.28329504,-0.2148662,-0.98607415,1.1691879,0.86955595,0.8449403,-0.014328356,0.08457424,-0.5656966,-1.0836998,-1.526756,-1.3688054,-1.4243984,-0.26817667,-1.0002375,-0.20964031,0.79978347,-1.7034315,-0.9981578,0.43493053,0.80179656
/film/film/personal_appearances./film/personal_film_appearance/person	-0.22340806,1.0429902,-0.7347631,0.28871286,-0.5444294,2.209959,0.4221819,0.28830916,-0.9762509,1.0976496,0.6252353,0.3074546,-1.1918104,-1.3172905,-1.4024976,0.41536573,2.0993385,0.16922076,0.005571931,-1.6185147,-0.6656727,-0.44318914,-0.7533316,-0.794531,-0.4544242,-0.15877058,1.2082237,-1.0420095,-0.91138184,-0.13227688,-0.8265184,-0.12175593,0.0687151,1.5618975,-0.8399332,0.9413495,-0.33014017,-0.73484766,0.19110522,2.495546,-1.9291346,0.074991964,-0.493179,0.8223374,-0.52616364,0.5424144,0.20219001,0.5694356,1.2151138,0.7156804,-0.19365188,-0.6768006,0.28039303,-0.10563973,-0.36550865,-0.3200166,-0.90818864,-0.76915103,0.59914225,0.27810743,-0.8187098,1.3374153,0.5852247,0.36318898,-0.42695847,-0.3530382,1.6817582,-0.5893097,0.7972526,-0.08020865,0.6916643,-1.4147733,-1.2874407,-0.60659957,0.54543585,-0.9579998,-1.5077258,0.58212036,-0.3287152,1.1628971,-0.60058,-1.1041805,-1.4021314,-1.3691996,-0.90221435,0.9205019,0.40868098,-1.1653005,0.9671156,0.2256415,-0.013656986,0.16447784,-0.37813634,0.09284408,0.38875666,-1.5814568,-1.0789559,-0.43026668,-0.8148665,-0.41190618
/location/capital_of_administrative_division/capital_of./location/administrative_division_capital_relationship/administrative_division	-1.1366763,0.23589134,-0.3041951,0.82223165,0.24400029,1.3249255,0.0044074226,-1.4650948,-0.3487269,1.5268967,-0.1633314,-0.6901242,0.7977507,1.1977822,-1.7396898,-0.46415025,1.3718464,1.854594,0.26063928,0.820322,-0.8952416,1.8442099,-1.167413,1.189431,1.5696697,0.49641913,-1.621408,-1.0699047,0.009933504,1.1164559,0.37510484,0.13580196,-1.4292032,1.6046062,0.734843,2.4321573,0.9123765,0.3224028,-0.9940072,-0.5715168,-1.7357395,1.8267051,0.36187768,0.8444757,-0.05030829,-1.5033245,0.07112448,-1.3834766,-1.846367,0.04907881,-0.6260561,1.425346,-1.1444618,-1.3497833,1.199652,-2.2389421,1.969199,0.27119628,0.17912865,0.7011878,-1.8677047,0.0042542694,-1.0372006,-0.33413404,0.0439475,1.7201121,-1.118598,0.4664094,-0.98931247,-1.3767782,-1.4427853,0.2287841,1.9044731,-0.036382407,0.5167481,-1.7076653,0.5697791,1.2277095,0.13906513,0.37943748,-0.31848717,-0.23068625,-1.3417186,-2.7876842,0.04756057,0.595865,0.4279839,-0.018548014,0.3315528,0.26227635,-1.35721,0.041902874,-2.0770695,0.7911285,-0.67792237,0.8467143,-0.764989,-0.9314066,-0.05428179,-0.6886168
/tv/tv_program/tv_producer./tv/tv_producer_term/producer_type	0.71214366,1.2563822,1.6975877,1.4113895,-0.35301065,0.2851049,0.59174323,1.9289151,-0.19673069,0.10246525,-1.4138635,1.7764347,-0.61280894,0.47359324,-0.7558406,0.93904555,0.1410992,0.53929514,-0.99320585,0.09601828,0.07549572,2.0590873,-1.2990109,-0.24979414,0.67906034,-0.28577182,-0.2088586,-0.02613106,-0.92885464,-0.6157766,-1.1369636,0.9315518,1.6224833,0.23479633,0.6147623,-2.8731575,1.0533203,-0.20727922,-1.1909015,0.119059175,0.6169999,-1.8076532,0.94210804,0.27210283,0.8698355,0.515415,0.4657244,1.1189587,0.7570524,2.3965278,-1.4260616,-0.29092896,0.63646734,0.47402814,0.12723039,-0.67310536,-1.0112948,0.6569434,-0.01831634,-0.6097199,0.32316336,1.1238576,-0.14796205,0.34655645,0.9596024,1.1164311,0.0019151681,-0.16107166,0.39191252,-0.5095426,0.27229607,-0.1517109,0.74147505,0.18791239,-0.20735663,0.92652637,0.8434521,0.94928074,0.42084458,-2.6215365,1.0277122,2.353461,-0.89655846,1.0579491,1.1837072,-0.15671326,-0.8675597,1.4957191,0.2764431,-1.1874065,0.53585845,0.15322681,0.9547724,-0.002574968,0.1473226,-0.8025711,-0.33324048,2.922467,-0.35622445,0.13697775
/award/award_ceremony/awards_presented./award/award_honor/honored_for	0.26505452,-1.7244847,-0.024014223,1.7657243,1.9217676,1.3219483,-1.1458309,1.2907709,2.0800395,0.5925436,0.60440254,-0.4499734,1.1527689,0.81075317,0.34864774,-0.6194503,1.2507724,-0.9731123,0.17845877,-0.01707168,-0.39418718,-0.093394086,1.5707828,0.80848175,-0.3852679,0.8329856,1.1499443,-0.009085136,0.23431881,0.76699984,-0.9611838,-1.4328629,0.88914156,1.1491312,1.920348,-0.42277312,-0.6411854,0.12429664,-0.27385995,0.33126217,-1.5296332,1.1341674,0.913358,-0.1620296,-0.7978701,1.3074975,-0.8223171,0.1471513,1.628847,0.29782507,-0.485972,-1.068815,1.1561748,-0.83529097,1.3144425,1.5300618,-1.3573916,-1.1761526,-0.5632534,0.6470435,-0.23643206,-1.1247288,0.55528134,-1.533483,1.0376941,-0.06472528,2.727525,-0.9393772,0.67191017,0.22320461,0.47974694,1.4034175,-2.2161543,-0.16116117,-1.5335306,-0.98072433,-0.7037717,-0.29867882,0.14363389,-0.80902636,-1.4218534,1.0415772,-1.0213231,1.191856,2.0103552,-0.39469,0.781908,-0.97277087,2.732112,0.8624935,0.8452439,-0.66320956,-1.0564092,-1.4138494,3.0078418,-0.24986188,-0.31349552,-0.3751352,-0.7949751,0.37649703
/base/culturalevent/event/entity_involved	0.9625469,2.0622497,-0.7335833,-1.0941005,-0.12577611,-0.2511196,1.6481217,-0.5546164,0.84903497,1.0974991,1.5577046,-0.12721443,-2.5914137,2.6116774,-0.45135054,-1.8300803,-0.7305265,-0.16089974,-1.4228239,0.90982175,0.1668207,1.6588562,-1.6295122,-0.28209308,-0.36494005,2.4433813,1.1448653,1.0261855,2.1517463,-0.25274524,-0.07980726,1.3996238,-0.55897236,-1.2188483,0.07320975,0.23742366,-0.6912237,1.66901,-1.1326302,-1.018243,-1.246674,-0.599149,0.40543067,-0.54612726,0.46541113,0.44827446,0.07588666,-1.1434333,-0.9426388,-0.032094184,1.7383032,-0.5469574,-0.97397554,-0.5481738,1.241111,-0.58936924,1.1730132,0.104270324,-1.2341911,-0.954145,1.0332538,-0.23135458,-0.05572851,-0.10608053,-0.953536,0.4172832,0.6672724,-0.26472992,1.4179065,-0.45234323,-1.1560792,1.6077186,1.7149006,1.410231,-0.38149667,0.8081544,-0.50818634,0.2037757,0.10319784,-0.35791755,-0.7439215,0.9971087,1.1005439,-1.2578567,1.0236185,-0.22063142,-0.412125,-1.1845462,1.7638065,-0.3526958,0.017289914,0.32441413,-1.5537626,1.2893605,0.5025769,3.015589,-0.12145789,0.3540166,-0.2427925,0.025737448
/award/award_category/category_of	1.0158043,0.787476,2.8363569,-0.043899044,-1.6832654,0.10906685,-1.3279971,2.1135118,1.2795877,-0.540582,1.971837,-2.4776175,-1.0307366,1.7073982,-0.59631133,0.515366,1.3207725,-0.38298362,-0.68061215,0.93145734,-2.0337455,-0.54403967,-1.0117114,-1.2523942,1.3899407,-1.1044834,-2.628934,1.029963,1.0366064,-0.14202382,-0.57178056,-0.7937729,1.0748165,1.5008798,2.6691859,1.3071563,-0.7276232,0.8643937,0.7062598,0.34217057,-0.5530135,0.08104489,0.051239267,-0.9414985,-1.3140025,-0.81431365,0.6137466,0.34540045,1.2526306,-0.6209311,-0.38723558,0.032016736,0.5327201,-0.78809685,-1.680217,-0.15894432,0.04968321,0.68524045,-0.36139178,-0.29911086,1.0018415,0.35393,-1.7680938,1.5516366,-0.77498037,0.10180137,0.83712924,-0.17232698,-1.3046203,0.37687978,-0.68841326,0.8175867,-0.31939653,-0.8989537,-0.8214507,0.48876202,0.8004386,-0.8128739,-0.09560981,-1.1086879,0.3207453,0.4041845,2.3599365,0.16983514,2.0671442,-0.33372375,0.80643815,0.9607999,0.24777061,-0.2879306,0.24113204,-1.2130715,-0.83931005,0.23079212,0.9329627,0.7439576,-1.340563,-2.2340815,0.012081583,0.47011268
/people/marriage_union_type/unions_of_this_type./people/marriage/location_of_ceremony	-0.2326519,-0.11976751,-0.13942271,-1.851852,-0.21187143,-1.2443912,1.9490948,-0.4516367,0.4667968,-2.1875072,-1.6437734,-0.9085164,0.6892519,0.55796707,-1.4444824,-1.6149238,0.7260296,0.21541023,-0.10906375,-0.8976375,-1.5908285,1.0950471,-1.4871962,-1.7841632,1.3010106,-0.61902946,-0.37603748,-0.463502,-0.4185124,-0.31918198,1.1400259,0.33321723,0.06419405,1.5203174,-0.33369124,0.8891594,0.84133375,-1.1711962,-1.2546452,-1.6513628,-0.20160183,0.107138604,1.9815574,0.91244036,-0.743491,1.3116196,1.1945001,0.23293394,0.948317,0.27118543,0.89152294,-0.8145376,2.809948,-0.89618415,1.9365063,-1.2526157,-0.50546575,0.13645248,0.7535289,-1.2365164,0.31915015,-0.93562466,-0.2293551,0.981263,-0.76413226,0.1541938,0.44533372,0.775844,0.6856331,-1.0773237,-2.0279942,-0.5209882,0.34554335,-0.37452972,0.9089635,0.4046377,-0.1702691,0.6746147,1.9729066,-0.87699217,-0.119865194,-0.7117576,-0.59513766,0.6916978,-0.13207546,-1.5016744,-1.081642,-1.8625288,1.0788871,0.0056945556,1.3133665,0.61489975,1.49445,0.3879767,-0.47643033,0.3121791,-0.67068446,0.95505065,1.2853802,-1.2285906
/organization/organization/child./organization/organization_relationship/child	0.18669835,0.24257436,0.46825916,-0.5130625,-0.419881,0.39707243,-0.17079824,1.3506126,-0.13453962,-0.47402945,1.0148654,0.39949194,-2.5082216,-1.3817596,0.07701662,2.420891,-0.38497475,-0.913041,-0.2677792,0.15469363,-1.492868,0.023213219,-0.92699695,1.1945878,-0.6533064,0.58227605,-0.09500249,-0.09531648,0.88689035,1.0572386,-0.12146344,0.95349944,0.5274906,1.6862247,0.34279332,0.92407,-0.92855495,-0.010861187,-0.28138888,-0.18088335,0.23377977,1.4745557,0.18853968,-0.38451105,1.7928842,0.8033527,1.156641,2.3200681,0.63582104,-0.5501516,0.07880782,0.600795,-0.56667525,-0.09053579,-1.8214504,0.8919848,0.0744359,0.8553669,0.4817195,1.4593055,-0.14572755,1.6282505,0.19385274,-2.271155,1.0030214,-1.7035763,-1.521088,-0.61172765,-1.7457112,-0.11687254,-1.6208658,-0.40760356,-1.8976234,-0.1511948,-0.6823289,-0.20052645,-1.6522224,-1.057404,1.8515452,-1.6435331,-1.2937391,-1.0640737,-0.17157598,-0.59051204,-0.29420555,0.41323596,-1.9595495,0.9237326,-2.0565836,0.37678215,1.2398248,0.059392482,0.42040616,-0.35112792,-1.0031124,0.2322211,-0.6044474,0.017107343,1.4328809,-1.8538569
/location/location/contains	0.815511,1.6969103,-0.42348278,-1.3891463,-1.289541,1.9442626,-0.33384663,0.7213624,-1.8838843,0.0413071,0.8401837,-0.30524433,-1.6574606,0.84339035,-1.3670963,1.5876834,-0.3568489,-0.23161791,0.21864519,-0.26507005,-1.1420555,-1.2514399,-0.5998889,-0.70831764,1.0734113,0.48923948,0.14407785,-1.159759,1.9373382,-2.4817429,2.574406,1.6420219,-0.7511745,0.2263534,-1.0923258,0.054327294,-1.6955223,-0.90492415,0.82230526,0.67424595,0.91278166,-0.42080802,1.3974284,1.3749576,1.0233178,-1.6590356,-1.4833345,-1.4645246,0.36900762,-1.3677489,1.0189679,-1.7959261,0.7975551,-0.77544665,0.797215,-2.0618737,-0.13839321,1.7281588,1.3477746,-0.45287386,-0.53932756,-0.7573639,-0.5925765,1.1654361,1.8328203,0.26908222,1.4544543,-0.7473626,-1.3175555,-0.19626588,0.28317174,-1.4233445,0.80314606,0.4358337,1.6226504,0.74615514,1.6162617,1.4350097,0.8706322,-1.5509658,-0.0835808,-1.5822799,-0.76500976,0.15636507,-1.3794689,0.010726193,0.70140254,0.3726726,0.3413498,-0.9861822,-0.10814944,-0.8880607,0.8459648,-0.47013685,1.1222342,-1.4402941,-0.62096286,0.3839277,-0.6604773,-0.07615398
/film/film/film_festivals	-0.53421867,-0.08260888,0.9118264,1.6167617,-0.76180136,0.8965577,-1.1479876,-1.0616217,-0.17768829,-0.19389331,-0.07987681,-0.18037511,1.1929264,-0.24263705,1.0277929,2.1732862,1.0018805,0.3873046,0.51798797,1.4062718,-0.70928913,0.9748219,0.24045816,1.7473092,0.052740686,-0.40225008,0.19392358,1.7372019,-0.041947495,0.6814965,-1.1832479,1.8384095,-0.12855142,-0.06131135,1.9143918,0.16231851,1.1325973,-0.45894167,-0.43293506,-0.6232256,-0.052005228,-1.4437133,0.9468457,1.1053815,0.7656444,0.18260425,-0.06665175,-0.09465901,-0.4669469,-0.31270403,2.832233,0.83632773,1.1135817,-0.4354526,0.20585757,1.4565724,0.30834386,0.3344994,-0.50132585,-0.8754999,-1.4404432,-1.39462,-0.6899306,-1.657266,1.10777,0.024421604,-0.1557045,0.22931768,-0.8633629,-0.31249034,0.80046284,1.0667777,1.4096845,0.33702976,0.0831789,-0.086832285,-0.612802,-1.3055999,-0.32501328,-2.1917882,1.2842624,-0.30523103,0.026757933,0.23535797,-0.36700287,-0.13185465,-0.024054933,1.9560949,1.1730297,-0.08484723,-1.2860689,-0.7431961,-0.63965404,1.298445,-0.6078061,1.0771556,0.88804424,0.69689363,1.3150059,0.41982073
/film/film/genre	1.643972,0.2105656,0.8155664,0.36999458,-1.3592213,-2.2910383,-0.8629116,-0.7790079,0.9458422,1.7097796,-0.7561492,0.072369985,-0.70525944,1.0943387,-0.84183383,0.42186707,1.2619276,0.96890604,-0.85897565,-1.235485,1.1522619,-1.1458681,1.3522282,-0.962777,-1.9697042,0.608754,1.3229572,-1.1277063,0.7670317,-1.114252,-1.368173,-1.553873,0.8353537,1.2907298,-0.40234485,-0.5880682,-0.60754263,-1.6531981,0.3680417,0.73483,1.0753142,-0.9372744,0.5146691,0.7610412,-0.98241156,0.51439583,2.8829706,1.5868816,0.35649362,1.2675691,-0.9428503,-1.5418029,1.4474605,0.41332582,0.68048394,-1.503584,-0.7531973,0.070114076,-0.9498283,-0.7059902,2.0113454,0.74268264,0.4733249,-0.4248767,0.4013392,0.9567205,-1.7699633,1.0757097,1.103959,-1.4346701,-0.45689496,-0.835921,1.4839017,-0.7332691,2.0618746,-1.0638179,-0.75808555,-0.49861133,0.4400907,-0.8894031,-0.74741805,0.48439103,-0.8955777,1.5580126,0.75998497,-0.4057999,-0.20712511,1.4507155,-0.6454207,1.0580449,-0.485564,1.438467,-0.89336526,0.746197,1.6337969,-0.5034751,0.5960383,-1.9174523,0.88702697,1.1456724
/base/aareas/schema/administrative_area/administrative_parent	-1.0048429,-0.35831663,0.4518885,1.0677829,-1.7335997,0.7921772,0.32848266,0.00037279312,-1.4174006,-1.0956197,-0.4865969,0.32700002,0.89897287,-0.23749667,-1.8089036,0.415562,-0.3043366,-0.041802995,-1.0671326,1.3628933,1.0921332,-1.031624,-0.59597194,0.26214522,0.7399998,-0.96993977,0.43901837,0.37112528,-0.37994617,0.4722937,-1.1376795,-0.0591322,-0.8917979,-1.1045418,0.83182114,1.2960806,-1.3772665,0.9472781,2.467105,-1.3236759,-1.8345968,-0.29741737,0.05357324,-0.21008138,-0.3325935,-0.5031847,-0.28690365,0.4660524,2.1868892,-0.56240225,-0.8812183,0.6189545,-0.59330004,-0.0842029,-0.44884256,0.53004235,0.8810551,-1.0427899,-1.1531712,1.4644837,-1.4735153,-0.50964314,1.8027457,-0.42482886,0.10499126,-0.69518036,-0.36722335,0.6530091,-0.60128987,0.18875806,-1.1336287,-1.1874839,1.4104162,-0.28375626,0.67565835,1.5423584,1.5100719,-0.5036075,-0.07530041,-1.6325935,-1.5058148,1.062123,-0.61183107,2.0411487,0.25248957,-0.2959723,0.8774626,1.6235881,1.7791556,-0.61166245,1.2872089,-0.74042624,-0.23373304,-0.62252796,1.9918826,-0.09965415,1.9250094,-1.0728999,-0.019362025,0.19140476
/military/military_conflict/combatants./military/military_combatant_group/combatants	1.7023416,-0.15374511,-2.0877476,0.11243546,0.5319691,0.56483203,-1.1775458,1.4410415,0.021228625,0.23083584,-2.8749347,-2.4630625,0.8599393,0.73586494,0.019118052,1.5655802,-1.6756704,-0.25066534,-0.16838676,-0.0010387235,1.1728537,-1.258078,0.066235624,0.24316852,0.39843348,0.8275087,0.20649353,-1.5292277,-0.75971526,2.9695427,-1.0574361,1.3533393,-1.6534339,-0.64358103,-0.8387211,1.8898461,0.4323211,1.4696661,0.16864981,0.2185208,0.54637223,0.10970958,0.16357127,-1.0914227,0.425281,0.32570088,1.5029926,0.99835074,0.81727487,-0.90288854,0.7699584,0.2735079,-0.0603837,-1.1450641,0.83337796,-0.3622031,-0.5834065,-1.3618915,-1.4706602,1.6453269,0.2115661,1.2003869,1.994139,0.86830276,-1.8439394,-1.1392242,-0.07428842,-1.0304726,-1.5515114,-0.7471463,-1.2631363,-0.48193812,0.08285266,0.32025146,0.6742495,0.070671394,-0.06368138,-0.44748074,0.81529176,-0.09327184,-0.726511,-0.5586496,0.35501328,1.1025966,-1.6044035,0.8951193,-0.9013935,0.93154794,-0.59111696,0.031857237,-0.7360651,1.1675968,0.4069886,1.0592792,-0.14850175,-1.768989,0.567936,1.292344,1.7426403,-1.5991251
/location/us_county/county_seat	-0.169274,0.59196216,0.063962,0.8961444,-0.63900894,1.271161,0.10455632,-0.36610922,-0.072900884,0.22342981,-0.76063114,0.20464176,1.0451404,0.60113984,-0.34199214,-2.2354455,-0.39585856,0.17877962,0.71102995,-1.1551548,-0.14751907,0.80652547,0.2684903,0.86732996,-1.6321998,-0.9111588,-0.5146902,-0.23863453,1.7159351,-0.20822048,0.9163423,-0.30793592,0.4791242,-0.48758858,-1.1071556,-1.2442819,1.1155088,1.3240194,-2.5295799,-0.52648175,1.0169666,0.04956491,-0.55177784,-0.48965743,-1.0957458,0.770309,-2.170021,0.4024222,-1.1721985,-0.211637,2.436303,-0.37889668,0.45658386,1.1914171,0.3051946,0.67489094,0.4792679,-0.57818294,-0.17700645,-0.57814574,0.8254546,-0.4298037,-1.6852084,-0.39864567,2.7390785,-0.52064466,-0.2132257,-0.3176631,0.13155387,-0.20221725,-0.02516389,0.52911717,-0.13756709,-1.2738887,-1.8121494,0.16899335,-2.0067759,1.0827736,-1.0211312,-0.23041679,0.5492739,-0.38337824,-1.3107809,0.9487912,-0.52658296,-0.430824,0.9872916,-0.20036563,-0.8236019,-0.015106494,-0.11366526,0.035218604,-0.23558554,-1.4696943,-0.33144587,-0.99094963,0.41434547,0.4203564,-1.266757,0.6637291
/location/hud_county_place/place	-0.462879,0.038413186,0.7275454,0.15789701,0.8705761,0.25236353,-2.6760077,0.69319695,-0.18225433,1.0440426,-1.0745302,1.6711258,0.8537104,-1.0844183,-0.49309862,0.7994166,0.6694766,-1.0764185,-0.09138151,-0.07892827,0.29368284,-0.14542854,1.8404071,0.3266554,2.1825054,2.163417,-0.31820598,0.32031316,1.1509509,0.67863333,0.46243182,-0.081395425,0.65387297,1.4989539,2.3025293,-0.15291475,1.3650748,2.6976984,0.90469706,-1.0028024,0.031513337,0.90177846,-1.749362,0.25134778,1.4993203,0.52779514,-2.6848938,-0.9197376,-0.45447335,-0.28316996,0.4827518,0.7323971,-1.4772701,-1.8151777,1.0683852,0.10684024,-0.66997564,1.0827191,1.7681633,-0.62756205,1.6163801,-1.4855824,2.1882746,-0.5570892,-0.3861329,-0.2228055,0.35657257,0.8922705,-0.5875082,1.5124636,-1.0416174,1.6626416,0.99052113,1.3666384,-1.9453273,-0.44691446,-0.91552246,-0.66969323,-0.7828603,-1.4353807,0.91596305,1.3244065,0.08575076,1.5700674,-2.176437,0.55211794,0.22195627,-1.3734637,1.0378479,0.88333046,-0.23830074,-0.23189929,-0.9114508,0.43556508,0.27903765,-1.0233139,-0.61813235,0.13236846,2.1746674,0.050458238
/location/statistical_region/rent50_2./measurement_unit/dated_money_value/currency	-0.6709228,-1.155686,1.1667751,-0.5874059,-0.5093096,0.18445183,1.3658919,0.4108754,-0.7223016,0.48688108,1.7925271,0.48564294,-0.6368655,-0.34006035,-0.07413405,0.7540951,-0.107097134,-0.5401863,-0.6673064,-1.405465,-1.0436352,0.79306304,1.1900835,-0.85667735,-0.4711045,-0.5488633,-0.13966772,-0.32497182,-0.57014275,0.47703215,0.02109779,0.2653607,-0.5529823,-0.7833752,-0.22527318,1.5930412,-0.8177972,-0.92719483,-0.5572471,-0.18258224,-1.6501238,1.2888197,1.5833384,-1.099914,-1.0336465,0.3459982,0.84289616,0.5627208,-0.45740905,-1.458019,-0.1864551,-1.659722,0.4348981,-0.58499426,0.7458323,-0.8194603,-0.7043555,-1.238168,-0.94181895,-1.2555385,-0.58782196,0.26793164,0.80456465,0.24012108,0.9709083,-1.287359,-0.4469295,0.5652727,0.28361097,-1.6816233,-0.56163794,-0.10258728,0.34717548,0.6145234,0.61295843,-1.5008287,-0.43853015,-0.8166624,1.1343868,-0.43788767,-0.51904184,-1.2304591,-0.9404334,0.2197088,-0.090353556,0.59493244,-1.7794863,-1.939762,0.39029264,-0.8787452,-0.42083347,-0.28025234,0.18721524,0.878658,1.605094,0.836459,1.2241832,-1.5398186,0.8953412,0.9179449
/location/location/adjoin_s./location/adjoining_relationship/adjoins	-0.0802763,0.05914536,0.72475016,-0.70802236,-0.72520214,1.0540522,-0.8595142,-0.72414154,-1.5119641,-0.66372633,-0.16893221,0.6535432,1.3473986,-0.8963646,0.71832377,0.91565067,-1.0916692,2.1823971,1.3347538,0.77628964,1.2853888,-1.054211,-0.7261538,-0.4671191,-0.032253522,0.71774447,-0.20963228,-0.5981825,-1.1379243,0.7546042,0.53927803,-0.8148221,1.25986,-0.58661413,-1.4610089,1.256922,0.2963677,-2.5145648,-0.31571475,0.69703186,-0.9362365,1.0616108,0.18573464,1.3110844,0.96742064,-1.1846786,0.32313868,-0.19723625,0.61465645,0.2237251,-0.41573754,0.5728285,-0.34597552,1.0474952,-1.0629485,-0.56148016,1.5590808,1.3427521,0.73439354,0.6420045,-1.1257601,1.3309429,1.6905714,-1.3064452,-0.7904584,-1.154231,0.98494625,1.2063617,-0.91874695,-1.2881825,1.357387,2.1204314,-0.13599235,-0.4784726,1.3567363,0.4610033,-0.8804568,-0.24191482,-0.42050198,0.6217905,0.8072129,-1.029276,-1.0187719,0.4564067,0.5839007,-0.90515316,1.8738654,-0.9784732,0.34954378,-0.22501224,-0.38550058,1.5166148,-1.3819939,0.71314627,-0.102999754,1.4954464,1.0218674,0.9538865,0.6580864,1.6578262
/baseball/baseball_team/team_stats./baseball/baseball_team_stats/season	-0.5265647,0.20116915,-0.70412135,-0.16110292,0.918422,-1.0461192,1.0251181,1.1447263,-0.22618978,-0.3905211,0.6552274,0.19722748,0.43674493,-0.768654,-0.8926055,-0.037943877,0.90970623,2.6006565,-0.37208846,-1.3870354,-0.97147834,0.06499359,1.4368904,-0.1698658,-1.1752108,0.0053929533,-0.7080797,-1.455818,-0.34351924,-0.43167645,-1.1727064,-0.73975545,-0.61975896,1.2045839,0.040338125,1.7592418,0.80262107,1.5141851,-0.17334619,-0.64778954,1.3000883,1.1458583,-0.6254724,0.6743228,0.055644736,-1.0604482,0.39574352,-0.44221547,0.7284511,-0.7894884,0.5746,0.89743596,-0.5203734,-1.2171601,0.96834445,1.3971157,-0.030456036,-1.3136499,-1.1110189,0.86825186,0.31225184,-0.48258722,-0.6712274,-0.52975345,-1.6129657,0.37981322,0.72856355,-1.0412773,1.0077976,0.9643382,0.42268354,1.4501976,-0.2521343,-0.31935817,0.3354205,0.27383986,-1.6077596,0.5077076,-0.22525859,-0.18575172,0.9706299,0.94070506,-2.421841,-0.79692125,-1.411682,-1.1227487,-0.69271433,-1.9873377,0.7126976,-1.1672895,-2.1517007,-0.039705954,0.3969042,-1.77906,-0.20293783,-0.86231065,0.9546055,-1.5541209,0.121278405,-1.1192632
/location/country/official_language	-1.1754599,0.11485132,0.89431363,1.9770316,1.0774591,-0.67668825,-1.0107498,0.38668802,1.2472357,-1.4797543,0.5300711,-1.8532401,-0.59147614,-1.7203984,0.103825495,-0.7512666,0.7611368,0.008747959,-0.69787574,-0.5834015,-0.7751363,0.61515605,0.15379316,-0.363223,1.0113608,1.0437051,-0.77864265,0.83430713,-1.4310732,0.24548382,-1.0122956,-0.8688586,0.48879778,-2.116648,1.8982966,-0.03989388,-0.049713027,-0.05182513,-1.560888,-0.85551184,-0.49247903,0.38315275,1.0463893,-0.1586347,1.05273,-1.4889784,0.99874574,0.33325353,1.0888923,2.1464112,0.22878383,-0.3064329,1.5754745,-1.2343955,0.7542863,0.4949274,-1.4542787,-0.059756085,0.3052663,-0.98648334,0.32449603,-0.28555003,0.16166665,1.0821744,-0.7037331,-1.227967,0.5523058,0.7624191,-0.54274124,-0.031099467,-0.090081416,-2.3584464,1.2415351,1.5427053,-0.6622851,0.05791339,0.18255016,-1.1501191,-0.44887537,0.62664133,1.07336,0.12995446,-0.10989123,-1.3834956,-0.16997574,-0.42058802,1.1452284,0.9728018,1.4717784,1.5887694,0.12637213,1.6080478,-1.476104,-0.07931283,-0.38608044,0.56906635,-0.64979374,1.8280656,0.39114386,0.14534713
/olympics/olympic_games/sports	0.99924755,-0.6789828,1.3363404,-0.8911329,0.69478923,0.0806805,-1.5076218,-0.83887386,1.6734418,-0.9768234,0.57019186,1.9729285,0.59884566,0.28540537,-0.28806013,0.4303495,-0.36172777,-0.17626944,0.07295657,0.71596,-0.9429683,0.8038282,-0.9152475,0.42752206,-0.3627801,2.2735534,-1.7536993,-0.1950857,-0.4829613,0.25890648,1.0716258,0.5437397,1.2678292,-0.7759079,-1.232662,-1.4249574,0.8678212,0.48719177,-0.6166388,-0.3662921,-0.8889324,-1.5837768,0.631209,0.017411368,0.864946,0.19791284,1.2579602,0.033038642,-0.8509112,0.8641156,-0.6165534,2.9872603,-0.96434534,-0.82762927,0.6681385,-1.1805398,-0.2840914,1.2338599,-1.008401,0.83106315,-1.4703373,1.0340526,-0.7627849,1.3918886,-0.9131243,0.26371244,-0.27446452,-0.4285268,1.347424,1.0151283,-0.3447221,0.251189,-0.046822,-0.57288986,-0.77655554,-0.11235984,0.82292163,0.39364645,1.7672135,-0.13777427,0.04898469,-0.38153052,-0.82802725,0.3807947,-0.7439148,1.0851953,-1.2757248,1.568893,0.30015603,-2.1085851,-0.47111097,-1.5725795,1.6305586,0.8798825,-0.17352395,-0.0493851,-1.7246951,-1.7201356,-0.6883558,0.56295943
