237 50
/people/person/profession	0.74863553,0.5631669,-0.90874743,1.6137655,1.3176855,0.59397733,-0.5581924,-0.68238235,0.5154755,0.5592743,0.6842397,-0.8229377,0.53365463,-0.5353237,0.3306559,-0.56196916,0.12877092,-1.0387536,-1.1811919,0.14885162,0.78855526,1.005628,0.666462,0.2934015,-0.7220104,-1.2121778,-0.85724974,0.4962235,-0.81139636,1.2938471,-0.5823828,0.3865865,0.10059283,1.4451784,0.31749883,-1.3957586,-0.7602912,0.10842358,-0.6027124,1.0125967,-0.066255085,-0.116312236,-0.39000097,0.9888638,-0.82404256,0.37398723,-0.047579773,0.73746675,-1.1420372,-0.34288692
/government/legislative_session/members./government/government_position_held/legislative_sessions	0.5339026,0.80711025,0.0468412,0.2279282,-0.41081166,0.114883564,0.7488746,-0.5255356,-1.0630926,-0.47821382,-0.3424277,0.93015176,-0.29376894,1.1065494,0.029450394,-0.5758923,2.3744607,-1.0696608,0.3691102,0.96369326,1.2616352,-1.1883508,0.039438717,1.5228659,0.75714934,-0.6650822,-0.36472744,-1.1141065,-0.13744052,-0.31296384,-0.59184134,-1.5518124,1.3490866,-0.3001535,0.25659287,-1.0956334,0.82601166,0.21644291,-0.98352945,0.8131963,0.6884238,-1.7255489,-0.016983997,0.044474512,-1.2689861,-0.48307598,1.0723741,0.94445217,0.31693235,0.16381738
/location/statistical_region/places_exported_to./location/imports_and_exports/exported_to	0.791828,-0.941869,-0.59917676,0.5207483,-0.09426228,-0.092275135,-0.503702,-0.61160207,-1.3794806,-1.3143047,-0.78214407,0.4655785,0.018181337,1.137577,-0.8732273,-1.6868106,-0.9025722,0.63924515,1.2857625,-1.6054399,-1.3389516,-0.198673,-0.00022742378,-2.0107791,-0.5256731,0.46232045,-1.5528376,-0.3443062,-1.5084661,0.49152702,-0.85921854,1.1125028,-0.36645442,-0.4931522,0.039914206,0.29915297,-0.9693721,0.096458144,1.3853238,-1.5594188,-0.17868154,1.2112142,-0.37098756,-0.2743786,-0.29012486,0.45507714,-0.76248455,0.119952336,0.50947654,0.33517036
/education/university/local_tuition./measurement_unit/dated_money_value/currency	-0.5055951,0.008113244,-0.20259291,-1.2983122,0.042184457,-0.46913573,-0.26153028,1.5906073,-0.9162166,-1.1854463,0.19074106,-2.810554,-1.5048292,2.5298386,-0.9568603,0.462776,-0.34299904,-0.28606418,0.9277803,0.66308045,-0.30310193,1.8600942,-0.24311686,0.59192914,0.21581197,-0.6516147,0.12053349,0.78731155,-0.11884148,0.8331164,0.008996726,-0.6969019,0.176879,0.42115334,0.24122187,-1.7378974,-2.2111213,0.72676337,-0.811784,-0.08475013,1.1973109,-0.18745808,-0.21505533,-0.7544878,-0.7212518,-0.936359,1.6418655,0.42455086,1.0413338,0.024535825
/film/film/prequel	-0.73886114,0.7653023,0.109884545,0.51128745,0.47885925,-0.5505824,2.2342553,-1.2849548,-0.7170601,-0.527551,-3.213041,0.12418944,1.3502405,1.6701987,1.2051367,-0.31938326,-1.9723452,-2.152692,1.4083172,1.5612102,0.528247,-0.03839914,0.3412229,0.7614962,-0.097863756,1.5408473,0.08111213,-1.2702767,-0.4401902,-1.8788666,0.3058246,0.0044259294,-0.6468374,1.5609405,0.99964494,0.26337528,-0.39437115,0.39283663,1.4626459,-0.090239085,1.4035413,-0.54354686,1.5365142,-1.3704597,0.57642275,-1.2034652,1.5710697,0.47988874,-1.4305216,0.5868047
/organization/organization/headquarters./location/mailing_address/state_province_region	-1.2297584,0.0034722858,1.1188008,0.40099558,1.6933233,0.9664532,1.0568123,0.11288583,-1.4394487,1.8370248,-0.95620024,0.49035773,0.7152778,0.30088973,0.5322674,-0.11228486,0.13864999,-0.922913,-0.012073985,-1.0057781,-0.93315274,-0.94765675,-0.8458551,-0.84695417,2.3318937,-0.32831982,0.048373252,1.0173244,0.8548658,0.72681504,-0.86028904,-0.7441636,-1.4265717,1.5188313,0.6185898,0.023768432,1.950751,-1.0523095,-0.84196234,-1.3101654,0.5540576,0.857676,0.59932816,0.04412475,-0.5511371,0.4798467,1.3972344,-1.2663176,-0.6565564,0.12772556
/music/performance_role/regular_performances./music/group_membership/role	0.8812794,0.7715447,-0.7294176,-2.6157632,0.82434064,-1.5831519,-0.59607726,1.1709458,-1.6093857,0.5267143,-0.79332745,-1.4553111,0.6588083,-0.04434814,1.0445542,0.0062699253,-0.44495633,0.5736867,1.0559794,-0.017476676,0.76574504,0.399968,-2.3557901,0.71367705,-0.374112,-1.7315224,0.84691536,-2.2298322,1.8040788,1.2262418,2.1415184,0.7475768,0.74371636,-0.42549372,-0.82327986,-1.4019098,-0.78120035,0.4529481,-1.5514404,1.1284045,-0.56365913,-0.8823201,-1.5200891,-0.889013,2.9271445,0.0033279764,0.62949854,0.2763575,1.1676639,1.1282259
/sports/professional_sports_team/draft_picks./sports/sports_league_draft_pick/draft	0.15324908,1.793471,0.112805076,1.4358455,2.0448878,0.23842284,0.33196712,-1.6502309,0.29696703,-0.46046954,0.6592379,-1.3804947,-0.86471045,0.45874348,-0.57344335,0.41963193,0.1454804,0.5365839,0.7247592,-2.017659,-0.4032389,-0.48535156,0.4564325,0.4313505,-0.3629047,-0.1714877,0.7579696,-0.8905281,0.14606135,0.30390766,-0.5799371,-1.3751231,-0.9015142,1.244717,0.465114,0.83761543,-1.5759861,-0.2679847,-0.32719532,0.63697183,-0.23810233,0.45252815,1.0555888,-0.49257037,-1.560562,-0.13507853,1.694694,-1.087012,-0.84251386,0.6209494
/film/film/edited_by	-0.94363344,0.14632286,-0.09353372,1.5465434,-0.19190599,-1.6950206,-0.47815564,-3.0089571,-1.3609191,0.057229403,1.4396595,-0.22751626,-0.95051533,-0.5989107,-1.5288601,-0.23086414,1.3646263,1.3135431,0.27142754,0.89782315,-0.3762752,0.6711882,-0.16699229,0.79679984,-0.80171216,-0.3468574,-1.8024671,0.69117594,0.47235888,-0.7252761,-0.056339398,-0.064948626,-0.6269782,1.1510533,-0.6688844,-0.120371886,-1.2736638,0.86773866,-0.72924864,0.45111018,-0.031941123,0.45177618,0.5886691,0.025069987,-0.64805794,0.47151265,0.8479937,0.61944187,2.050073,-1.016214
/government/governmental_body/members./government/government_position_held/legislative_sessions	0.8171045,-0.53315413,0.6486097,0.4894408,-0.06579407,1.2348093,1.2301214,1.7459852,-0.4341383,-0.5194711,-1.4838029,-1.8263571,-1.2694235,0.00557481,1.7751969,1.4318568,1.4965409,-0.57380503,0.49888566,1.2590722,-1.6398194,1.3518196,1.6756103,-1.443053,-1.0206325,0.5196103,0.23237509,-0.58267003,0.2549724,-1.1177821,-0.6930697,-0.6098339,1.0231485,-0.8561987,0.4294971,1.2111833,-0.030421171,0.49993825,-0.028635861,0.17022271,-0.6895317,-2.174458,-0.31325015,-0.8438815,1.3941648,0.38470906,-1.7697812,-1.4446825,-2.0386622,0.47876826
/user/ktrueman/default_domain/international_organization/member_states	0.47369695,-0.58616304,-0.5716453,-0.2278511,-1.13208,0.5819304,1.0460099,-0.4351556,-0.36755505,0.889246,1.2426943,-0.50379276,-0.53927106,0.5397563,-2.0343466,0.6375984,0.007241422,-0.8006568,0.4048406,0.48302343,0.31215543,0.9616697,0.2871752,0.28700924,2.310968,0.2456081,-1.3690858,0.1834823,-0.9721071,1.1342268,0.0053089266,0.8705221,-1.1207707,-0.25475696,-0.24569784,-0.8942459,-0.124632075,0.9128708,0.041787535,-1.3728873,-0.23605584,0.3692784,0.40883684,-1.0304849,-1.2369407,-1.2690911,0.67101765,1.7829125,1.665322,1.0629534
/people/deceased_person/place_of_burial	0.2916709,-0.16656174,-1.1445042,-0.6041038,0.98811716,0.40506834,-1.3192016,-1.2965505,1.0895518,-1.3145846,-0.31356573,-0.43201613,0.0042743883,-0.48039278,-0.53653705,-0.66825455,0.9132649,-0.11893456,-0.92190945,0.6219744,-1.0841762,0.96068555,-0.61101943,1.0533139,0.89175236,0.4537369,-1.0180147,-1.7920882,0.48832116,0.40234518,0.1462668,0.55964404,0.82465297,0.55280113,0.47738263,1.3048536,0.36003584,0.9223774,1.3675809,-0.55118185,0.60325587,-0.5400614,-1.9485962,-0.20669979,0.20754187,-1.1791629,0.46723282,1.0677528,-0.49909,-0.67802894
/award/ranked_item/appears_in_ranked_lists./award/ranking/list	-0.28219053,-0.87211365,-0.1027461,0.75066364,1.2744292,0.65975875,-0.1502614,1.7309986,-0.42913443,0.07837969,-0.9525898,0.055789,0.5819998,-0.8330116,2.123249,0.6967507,-1.0811572,1.2028062,-0.2288983,0.6703047,-0.364195,0.4148162,-1.2512556,-0.47696233,-1.7541219,-1.5005991,-0.44589356,0.7081058,0.083745904,-0.29336965,-0.45304173,-0.4320174,0.0171514,-1.1177267,-0.13988876,-1.1262745,-0.1597858,-1.6207693,1.1904837,-0.47570783,-0.25638255,1.0157722,0.93872243,-0.35767204,0.009652902,0.2710316,-0.099285394,0.36547253,-1.8946748,-0.04004741
/sports/sports_team/roster./baseball/baseball_roster_position/position	-0.16337991,0.8014859,0.9465385,-2.0078695,0.17349707,-0.24444728,1.9696081,1.0680579,-0.0056603854,-0.537295,-0.046420895,0.61917305,-0.5611013,-0.7339307,0.13039356,-1.5904334,0.8744098,-0.25020778,1.8079461,1.9618794,-0.24787185,-0.5080149,2.162701,0.75735486,-0.7166373,-1.8319148,-0.27078345,-0.0084207095,0.34182554,-0.808464,-0.2352955,0.06700799,-2.0192263,-0.57251,-0.6399166,-0.972206,-0.017827783,0.6403833,-2.0827055,-0.5188331,-0.18251039,1.6729357,-0.75885737,-0.29930452,1.2237707,-1.4456996,0.26682517,0.21815388,0.028302066,-2.259666
/base/saturdaynightlive/snl_cast_member/seasons./base/saturdaynightlive/snl_season_tenure/cast_members	-0.32327706,0.28921616,0.4436264,-0.69543964,-1.2318119,-0.576104,-0.87670255,-0.19173211,1.224088,-0.31189263,-0.66539377,-0.6851537,1.3268281,1.0772202,0.6570096,-1.3458955,0.46646544,0.11564641,-0.5461438,-3.1818173,2.909602,0.38830382,-1.354579,0.15176249,-0.43819806,-0.1662807,0.04537403,1.2446626,-0.5976716,-0.9522951,0.45656958,-0.7309554,-1.2396902,0.43829545,0.65227467,-1.3004093,1.4259624,-1.2448441,-1.3653721,-1.4226842,1.467402,-1.545801,-1.0965564,-0.50026506,-1.3626622,-0.5365739,0.062167864,-1.08206,-0.15998295,0.90410656
/film/film/film_production_design_by	0.73761547,-0.7837087,0.70414275,-2.4643445,0.34778103,-1.0023031,0.79868096,0.0018513296,-1.1265495,-0.7290503,2.0583253,1.1911669,0.87732804,0.43182558,-0.59831476,-1.6521177,2.5767095,0.23197125,-1.5543103,1.4009786,-0.9868708,1.0516715,0.93700016,0.9000127,-0.14812286,-0.24384466,0.23294571,-0.24950634,0.6411003,0.14905168,0.55334383,-1.3768939,-1.5005089,-1.1638194,-0.052888326,0.013548269,0.7825517,-0.28299293,0.659562,-0.9117081,0.07260234,-1.477705,-1.6258879,-0.607685,0.45801616,0.41755766,0.89639777,1.1866038,0.91672003,-0.8863247
/film/actor/dubbing_performances./film/dubbing_performance/language	0.053410858,-0.31019557,1.1545739,-0.67046374,-1.9962413,0.76118076,0.27987614,-0.7833164,0.37015453,-0.7928613,-1.3097485,0.99999917,-1.1072952,0.69779396,0.35110375,-1.1715351,1.1861172,1.3080053,0.40217063,0.80157316,0.4652087,0.6971253,0.72905284,-0.29387787,-0.18676154,0.58672446,-0.87206227,0.7044426,-1.1984419,-0.8605173,1.4444253,-0.7192178,0.979266,-0.32849687,1.7167728,0.46224013,0.6756151,-1.4788957,0.09079538,-0.99191785,-0.013145739,0.93306774,-0.6175288,1.2861319,2.0370095,-0.949089,-1.8222897,-0.7093586,1.6982728,-1.1075492
/award/award_winning_work/awards_won./award/award_honor/award_winner	0.31756735,-1.9131764,-0.42866948,-1.3171916,-0.95875275,-0.93007857,1.3743346,0.54158795,0.25155795,0.4676291,0.7414022,0.80448943,0.43336198,0.45747304,0.006047232,-0.52800673,-1.51709,0.57949704,0.5828136,-0.025547015,0.73863274,0.9911549,1.7223719,0.9899485,0.38836446,0.9108869,1.2233026,-1.0965236,0.41230837,0.12538718,0.41932547,-1.1590374,-0.6195808,-0.6403296,0.6762049,-0.40837485,-0.4734658,-0.49058282,-2.185251,0.9784357,1.4253749,-1.0767351,0.08392431,1.593922,1.7065796,1.0740033,0.08297067,0.2581113,-0.6723715,0.11416135
/common/topic/webpage./common/webpage/category	-1.1082811,0.027455421,-0.6538608,1.0838966,1.9110479,0.5409799,-0.09473976,0.12650816,1.0425386,0.07315945,0.40184677,-0.47168535,-0.76546973,0.3647405,-0.6429814,0.48040968,0.92394996,-0.9300626,0.5289915,1.3306569,0.3898883,0.44914165,-0.38662177,0.90933007,-0.5018188,0.3906122,1.2595936,-0.3818378,0.61507916,2.2102125,-1.3091909,-0.5758075,-0.26176676,0.5813622,-0.5069414,1.1397773,-0.6357909,-0.6743098,0.26259464,-1.4569247,0.8157333,1.0507255,-0.42765322,-0.85367686,-0.2329784,-1.2229065,-1.3716063,1.5542104,-0.8334969,0.15111205
/education/educational_institution/students_graduates./education/education/student	0.57775164,-1.5870928,-0.79638654,0.9930144,-1.1478201,0.3301242,0.8299202,-0.25912392,-0.11989404,0.6067883,0.16975601,0.28362587,-1.0358468,0.77956784,-0.59830767,-0.507231,1.6898899,1.5705365,-0.28632414,-1.790612,-1.279362,-0.12744434,-0.35280207,-1.6932702,-0.2929888,-1.0407194,0.76957136,-1.280658,-0.90491575,0.5371621,0.32234052,1.0728357,-0.18874839,0.24301456,-1.1845721,1.331498,-1.4885446,0.03228047,-0.9952121,0.6135997,-0.5657142,-0.42101598,-1.5246664,-0.8582086,-2.0223732,1.4157827,0.9485256,0.8082795,2.708426,-1.6858734
/base/locations/continents/countries_within	0.70934784,-0.24692333,-0.071841955,0.4629169,0.12795527,0.44110644,-1.5827395,-0.9378287,-0.23701476,0.824315,-0.4493954,-0.34240714,0.99750215,-0.5922674,1.7655627,0.23283072,-1.8909122,-1.361793,-0.26963255,0.52308995,0.33769226,-0.36248082,1.0989445,-1.1126215,-1.0351262,-0.7695762,0.5288971,-0.021277657,-0.7646011,0.93110734,0.65525585,-0.8755445,0.31010583,-1.5155696,1.0781398,0.009342972,0.43350488,1.1338964,-0.1825695,-0.7697699,-0.45682842,-1.6422232,-1.2556913,0.6023096,0.49816084,-0.9718317,1.0251602,1.9362049,0.8058135,-1.0598613
/government/politician/government_positions_held./government/government_position_held/jurisdiction_of_office	-1.214553,0.27077416,-2.0642767,0.6896945,1.3534256,-1.604812,-0.38471538,-0.35916612,0.7212413,-1.8562131,0.33845973,0.5367984,-0.9940627,1.5332927,1.2446809,-0.90260464,0.10782539,0.05854103,-0.68217486,-1.5145822,-0.049684286,-0.5828998,0.69331276,-0.83808273,-1.316226,1.3914443,0.26946875,-0.039254807,-0.49524817,0.38979238,0.18560822,-0.5090274,0.5196413,0.7062746,2.2658389,-0.81410486,-0.14939582,2.3137453,0.49306566,-0.10648606,-2.093106,0.78102213,2.5857089,-0.2916708,1.7145869,0.13742667,0.12842387,-1.3641516,-0.6075737,1.5335923
/award/award_nominated_work/award_nominations./award/award_nomination/nominated_for	-0.87544215,-0.16096197,-0.49530903,-0.007776056,-0.6938606,0.7828583,-0.72648054,-0.14007175,0.6644113,-0.13443469,1.4253795,-0.101234965,2.2319608,0.90524864,1.2929198,-0.037936352,-0.6799571,-1.5062321,-0.6645468,-1.5560743,-0.3302435,0.7181456,-0.23454642,-1.1174998,1.3425109,-2.199463,-1.0578976,0.07021992,0.7427179,1.2945676,-0.8596131,0.29197568,-0.16244927,0.8655302,0.8407569,0.3515442,0.3757963,1.1949277,-0.7938862,0.8016702,-0.8999299,-0.4296462,-0.72144186,0.7833625,0.056059998,0.8507294,-0.02326681,1.2354865,0.32113606,0.05845932
/film/film/other_crew./film/film_crew_gig/crewmember	0.51144785,-0.7680031,0.85211265,-1.0128877,1.298046,-0.6057705,1.00129,1.9216086,0.2841662,-0.36917925,1.3508751,0.28904444,-0.9384489,1.0187755,0.6263597,0.15333724,-1.330173,1.3015728,-1.4887811,-1.0165772,-0.1578686,-1.0850835,-0.9141009,-0.8763522,0.48479986,-1.6655887,-1.30126,-0.5156268,0.22327751,0.5489116,0.23381814,2.395796,-1.3798157,0.89170426,-0.009848309,-0.15665698,0.3963978,0.4460426,0.80123883,0.44134927,-0.49099183,1.3865399,-0.3334712,-0.3824013,-1.1351384,0.8298252,0.7923235,0.32904485,-0.12405343,-0.8610313
/base/schemastaging/person_extra/net_worth./measurement_unit/dated_money_value/currency	-0.6849836,-0.7793609,-1.5062017,-1.353118,-0.08747592,-2.2583296,-0.6713501,-0.16264087,1.0527885,-0.41676253,0.33353528,0.76858854,-0.6482679,0.6491095,-0.048883963,0.8831563,0.2791456,-1.3291458,0.75920814,0.67423934,-0.32116443,0.3616236,-0.20948824,0.7155729,-0.37792608,0.6893489,-0.6135368,1.8249023,-0.28725,-1.1698184,-1.4592286,2.147926,-0.69381213,-1.7913178,-0.0032514136,0.70597315,-0.9015071,1.6116155,1.1390084,0.368522,-0.02116493,0.99135154,2.5027635,0.10817053,0.48214483,0.20549503,-0.9488406,-0.72800934,-0.13061984,-1.662058
/education/educational_institution_campus/educational_institution	0.9677979,1.118231,2.2527256,-0.5012972,-0.39886856,1.6065997,0.75942063,-0.91124415,0.17461984,2.2994502,-0.8306046,0.7004743,0.37635905,-0.68393683,0.13954179,-1.7622865,-0.055057388,1.6167799,-0.10355154,-0.12270107,-0.15709148,1.5653201,0.6835378,0.5504261,-1.190649,0.24036294,-0.8100684,0.91339624,0.030828236,-0.77043724,-0.66525364,0.88532615,0.43623278,0.7481694,1.7094307,2.0438104,0.62764996,-0.68224305,-0.62077624,-0.32467663,0.53758776,-0.51099694,0.30760399,0.007615427,0.55110157,-1.4298203,1.5298291,1.2387928,1.8172729,0.29023534
/sports/sports_league_draft/picks./sports/sports_league_draft_pick/school	0.948366,-1.9148477,0.2537601,-1.289397,0.9439166,0.9399708,0.51232684,-0.9867895,0.9141244,-0.08366309,0.46973124,-1.275464,-0.6462203,0.20290075,-0.086586274,-0.5199362,-0.75502187,-1.8212178,1.1655385,0.37313873,0.6781256,-2.3682308,1.1371427,-1.5115762,0.5471427,-1.8959329,-0.2720593,-2.1768823,0.5875019,0.99110883,-0.33423793,0.26369172,0.4230008,-1.7796617,1.9923906,1.0278684,0.21435414,0.7119099,-1.4640201,-0.52799857,0.80403984,0.39885664,1.1386719,-0.47602636,0.35204726,-0.1125144,-1.2066125,-0.7644847,-0.4833624,-0.0064165494
/base/biblioness/bibs_location/country	1.7695371,-0.09111058,0.47567967,0.24575688,-0.40554294,-1.1888719,1.2480495,-0.8550244,-0.09991821,0.02230893,-0.18996678,-0.5107436,0.66646093,0.28491995,-0.52154183,-1.4674208,1.7025819,0.25581855,-0.7346414,0.70546365,1.7805785,0.34828436,-1.3039496,1.2417988,1.3220791,0.40351257,-0.84367824,-0.53436583,-0.51460457,2.050646,-0.6064946,0.6874583,-0.9085177,2.208029,0.72211426,-0.5632727,0.6768202,-0.8010407,-2.0577252,0.19604032,-0.94115627,0.865718,1.9193357,-0.4300411,1.9806826,-0.0514592,0.48522583,-0.86963713,-2.417783,-1.1410259
/base/schemastaging/organization_extra/phone_number./base/schemastaging/phone_sandbox/service_location	0.15135223,0.5717846,-0.48699245,0.29210564,0.43329,0.5204065,1.3355829,1.7754742,-1.2891821,0.88640517,-1.0138971,1.5275447,0.79810864,-1.6059947,-1.2457381,-1.858953,1.5468963,-2.0152001,0.4883294,0.061109968,0.35425663,-1.3330203,-1.2787613,-1.7665207,2.013955,1.0939041,1.5513053,-0.7530171,0.8291933,1.3944908,-0.090657,-1.2214429,1.9580911,0.9854073,2.0738494,-0.4189499,-0.5728947,2.0263116,-1.0894006,-0.69493747,-0.87079513,-0.4587547,0.6150321,-1.0899848,0.08995683,-0.12897323,0.09930397,-0.0012558998,0.76734084,-0.82642347
/sports/sports_team_location/teams	1.4402517,-1.2063907,-0.2701817,1.825142,-0.07522069,-0.9488968,0.73319703,-1.3839395,-1.3115586,0.49020326,1.1355884,-0.6158253,-2.1596441,1.7619994,-0.27494788,-0.16045651,0.5185099,1.1782695,1.6245717,0.0196096,1.9430466,0.2566035,0.1398421,-1.3207215,1.3516719,-0.7050416,-2.0064764,-1.0745591,-0.6623667,0.43807453,0.26479042,-0.6842278,0.6617056,0.40932083,-0.07961969,0.078963414,1.53016,-0.0050654626,0.23382604,-0.35232952,-0.7105705,-1.0855948,-0.85406226,-0.08353371,1.3614398,1.1059926,0.14891319,-0.578316,1.3923161,-0.42779788
/travel/travel_destination/how_to_get_here./travel/transportation/mode_of_transportation	0.44207108,1.017574,1.3144374,-0.10140901,0.14114158,1.3337474,-0.75264657,1.2237406,2.363817,0.40889102,-2.2106497,0.5778657,1.0449961,0.21185708,0.55711484,1.9540799,0.14490263,-0.5148855,-0.06881058,0.9644907,0.6541318,0.93431807,1.4457927,0.60843974,1.3421617,0.42693236,-0.50836927,1.6554227,1.4957789,0.43867964,-0.26744306,1.5503249,1.286401,-0.1301391,-1.0163114,-0.25504142,1.5591273,0.99688363,-0.17115726,-1.1381063,0.7398374,0.08622256,-1.056232,0.98409,0.64808744,-0.5628358,-0.9060673,-0.84573203,2.382113,0.3207967
/film/film_subject/films	-0.33292273,-0.89825505,-1.0017475,1.202953,1.0386354,-0.19673748,-1.8494375,-0.076024756,1.1038283,0.10540464,1.0161419,-1.445559,0.26655152,-0.61827046,1.2450539,0.73895335,-0.6646525,-0.6274227,-0.36981723,-0.18168022,0.9373124,-0.59605974,0.6506966,-0.06169284,-0.42675132,1.4432598,-1.4019024,-0.9603009,-1.9861877,0.7137282,-0.9960526,0.9563718,-0.1588753,-0.72007906,0.7123557,-0.1288593,0.532392,-0.094124384,0.38625276,-0.30281106,0.29971153,1.8295352,-0.30243284,-1.8308957,-1.6595126,1.4684814,0.1813686,-0.7657667,0.24971896,-1.157925
/location/administrative_division/country	1.2465893,-1.4185586,-0.44565028,-0.20156206,1.2628747,0.28755245,0.40568334,0.40110707,-2.8171885,0.8722152,-0.23886827,2.2990918,0.74795467,-1.4827336,-0.54822934,0.42912918,-0.5365708,1.4029106,0.5496522,-2.431148,0.87173486,-1.5939037,-0.64817655,0.5973864,0.18161426,1.0953056,0.20379645,0.9972553,-0.8067865,0.7534386,-2.4515953,0.8389268,-0.30828163,-0.016357098,-1.5885465,1.2381561,-0.16194254,-1.4264098,-1.0768437,0.23717944,1.4425482,1.0743034,-0.7706269,0.482675,-0.3002528,-1.1539844,-0.63043344,-0.26530218,0.90203494,-1.7158611
/film/film/story_by	-1.2025303,-1.4680816,-1.3045986,-0.7362169,-0.5965018,0.57152754,0.8445167,-0.4170355,-0.13265294,-0.40794173,0.13779074,0.024748107,-1.032389,0.45091173,0.8885451,1.8643746,0.498858,-2.0471904,-0.7580309,-0.04479385,2.0578198,0.6150886,0.6212866,2.0342858,0.62857765,-0.6958034,-0.43260136,-0.6429142,-0.43783978,-1.7462068,-0.20127569,-0.606251,-0.38092554,0.92236614,-0.21731603,0.8068243,0.3615123,0.4767978,0.5005483,0.9921184,-1.064722,1.5390164,-1.2998282,0.027532458,2.5031521,1.119921,-0.6873702,0.093315266,-0.9709472,-1.0003235
/base/biblioness/bibs_location/state	-0.32990575,0.4655432,1.1453918,-0.09466475,-0.77823997,0.12420154,-1.2194128,1.4047825,-1.0549179,-0.22501428,2.33029,0.57500184,0.8716644,1.1564852,-0.3163883,-0.26386952,0.26724258,1.3138111,0.20903496,-0.91677713,1.1004437,0.90444964,-1.4155513,0.7098425,-1.7440091,-0.9137987,-0.07758267,-0.23273747,-0.64879584,1.7425791,0.96074045,-0.47342065,-0.2682164,0.38188064,-2.1532023,-0.2536832,-0.13156524,-0.58037966,-0.58706695,1.1718317,0.35652402,0.008014206,-0.70963967,1.170734,-0.7908023,-0.96264446,0.3228342,-1.4062946,-0.82643324,-0.18062766
/education/university/fraternities_and_sororities	0.29507753,1.4473791,0.6495101,0.25444955,-0.6791484,0.84671324,-0.8221552,0.7378177,-1.6730248,-1.5851015,1.7228839,-0.11619143,0.39237034,-0.5847564,1.4182403,-1.4194952,0.09330116,0.33493024,1.4495524,-0.7124345,0.64879405,-0.4508759,0.18991178,0.98968136,-0.15364619,0.0366685,-0.1761508,0.08247764,0.05226428,0.09615911,0.60292065,-1.2681358,1.0368615,-0.35601377,-0.057471007,1.8454564,1.4011265,-1.0115212,0.9367396,0.022745484,-2.0602038,1.5199858,-1.025276,1.6378491,1.2374898,0.16242112,-1.4064407,1.9061705,1.1338078,0.08822163
/celebrities/celebrity/celebrity_friends./celebrities/friendship/friend	-0.28825656,0.6403124,0.13558674,0.6755186,0.25010258,0.64423865,-0.1464083,-0.60765314,-1.1291649,-2.0600295,1.4679143,0.72311765,0.9670342,-0.8143252,-1.6177809,-0.6384529,-1.0354813,-1.0841738,-0.037636407,0.71743137,-0.22828674,-0.045273013,1.1561666,-1.3834574,-0.28354353,0.5723316,-1.2648362,1.8174211,-1.8992773,0.6542699,0.37752092,-0.32900974,0.20310065,-0.50410897,0.18884334,1.8119092,1.0507561,0.26834697,-0.52745533,-0.53418094,1.9365513,-0.33729622,0.46106946,-0.6778462,-0.43855196,0.113983385,-0.5915169,1.9113846,-1.0702988,0.46572682
/location/statistical_region/gdp_nominal_per_capita./measurement_unit/dated_money_value/currency	-0.8486476,1.2053902,-0.2783662,-0.85304654,0.24675539,0.9763886,0.4721641,-1.3518368,-1.3722068,-2.2743044,-1.0157734,1.5414838,-0.45372885,0.5903384,0.69169366,-0.036808807,0.8019012,-0.08590865,0.50478566,0.19503444,1.1664214,-1.1079882,0.41290805,1.2164466,0.7885275,-2.3694623,0.6148799,-0.929228,-0.7891026,-0.22929822,0.67410326,0.84195113,0.9883512,-0.6275938,-1.9532042,0.12651668,0.9985369,-0.8094445,0.72983044,1.0833668,0.82031953,0.03788142,0.8383284,-1.7292863,0.48463237,0.23196065,-0.8580224,-1.3899775,-0.79861075,-0.26121536
/people/profession/specialization_of	0.78404874,-0.00939549,0.5803035,1.4951437,-0.07681527,0.7622156,-0.75311273,0.21281753,2.2434204,-1.5314763,-1.651603,0.39664024,0.5905893,1.3841698,-0.0072387327,0.29243678,0.43704885,0.2909593,0.7714615,-0.3175509,1.1461765,0.19710453,0.49228883,0.5261111,-0.67206544,-0.09463602,-0.5620336,0.05902588,-1.6624225,0.4419916,3.0602427,1.1786559,0.093850315,-0.2331474,0.124964364,-0.10689385,-0.26296076,-0.59084064,-0.36661234,-0.2836495,-0.0885406,-1.4171845,-0.64024514,0.99819654,-0.381912,0.089383565,0.36175567,-1.3394699,-0.38749316,-0.8414556
/american_football/football_team/current_roster./sports/sports_team_roster/position	-0.7742259,-0.57838833,0.8988319,0.9111502,-1.1278336,0.1961947,0.5377594,-0.09972727,1.7342982,-0.22702637,2.708313,0.53492296,-0.25148237,-0.8786649,-0.9910719,-0.12139273,-0.8020487,0.5882662,0.118943475,-1.1835353,0.65405357,-2.2090063,0.6300887,0.13481724,0.5079022,0.27252933,-0.029063886,-1.7832987,0.17326471,0.7877659,1.1278689,0.092995115,3.1233726,-2.294283,1.021404,-0.8265867,0.23695864,0.19405356,-1.5718167,-0.8341664,-0.24325508,0.35512,-1.1974272,-1.6494114,1.6237147,-0.049345896,1.0027329,0.33794495,-0.14846218,1.5111282
/base/schemastaging/organization_extra/phone_number./base/schemastaging/phone_sandbox/contact_category	1.1640472,1.3039186,1.0516789,0.20662509,0.3485045,0.980348,0.8487527,0.4558736,0.48065075,2.1728778,0.086296305,-0.41508192,0.68930817,0.40124017,1.3254896,-0.8539926,-0.27200326,0.30049968,0.8558785,-0.82729846,-1.2920368,-0.8189852,-0.40070948,-0.18997575,-1.6332506,-0.14056222,0.92065305,-0.70830774,0.8540889,0.20099534,0.7668687,0.55184597,-0.87699854,1.0783932,-2.0177512,-0.57641625,-0.41078728,-0.22064517,0.9469564,-0.6124426,1.3600582,0.4215387,-0.38538346,-0.55468905,0.86292994,1.3751007,1.2676094,-0.39122579,1.8825477,-0.035406295
/music/performance_role/track_performances./music/track_contribution/role	0.4168094,0.40616497,-0.949937,0.9814606,0.7042072,-1.0546898,0.25401947,-0.37399322,-0.6010966,-1.9666725,-0.2188826,-1.4954641,-0.9639532,1.5411066,-0.18813153,-0.12561505,1.0374717,-0.33751765,3.4123158,1.1915427,0.48739806,0.6931747,1.4923824,1.3234193,1.6832823,-1.9331391,1.1487206,0.2977908,1.9731183,0.77213526,0.3790517,-2.1614017,0.34832236,-1.7662115,0.42702484,-0.2611045,-0.9877367,0.75296336,0.90132546,-1.3641908,-0.80264515,-0.9114119,0.2996551,0.6247483,-0.38990712,0.9818213,0.07440455,-0.82726705,-0.33347785,-0.958097
/time/event/locations	-1.157026,1.5253618,1.3001292,-2.1783826,-0.15738901,0.6760112,-0.6920391,0.030125985,-1.5439137,-0.36812362,0.20359676,-0.21452811,-0.76006484,-0.7457237,0.91597986,-0.14857502,-1.2673719,0.5190504,-1.4245079,0.20941944,-0.93465596,0.9145668,-0.06415462,0.5687918,-0.02455832,2.1987169,1.5866537,-1.4230664,2.1001358,-0.61612093,0.23547857,0.7998318,1.2751608,-0.50173694,0.27033466,1.3669537,-1.0740125,-0.08229746,-1.4304981,0.09813322,0.81943643,-0.9465732,-0.38779894,0.10826971,0.50701,-0.05093786,-0.035879496,0.81484324,0.6874979,-0.3099874
/tv/tv_program/regular_cast./tv/regular_tv_appearance/actor	-1.2987199,-0.4378368,-0.5362933,-0.07854365,0.97149736,0.7078516,0.06732994,0.9375731,0.9503684,0.26059708,1.1931895,1.3183557,0.053912245,-0.79230434,-1.7222058,0.5881361,-0.34740072,-0.30348408,-0.16924833,0.49766082,-1.5656765,-1.5644,0.7621051,-1.7069014,0.123065576,0.0060901144,-1.4583342,-0.7150831,-0.6363633,1.5994159,-0.8843357,0.7563241,0.9633657,1.0039799,-0.39223462,1.018116,-0.43783173,-0.75766665,0.47914198,1.8231676,-1.6938033,0.5917187,1.4015594,0.87932307,1.4112983,1.281198,-1.0406227,-1.616836,-1.2348453,1.1429211
/language/human_language/countries_spoken_in	1.1334015,-1.548374,0.66246104,1.1532598,-0.027344573,0.08731663,0.5605028,-0.3060474,0.3851889,-0.11013798,0.808152,-1.4978948,-0.16411646,0.83874464,0.34350228,1.3657234,-0.51740783,-0.32235557,1.0214804,-1.2955642,1.7641505,-0.9559038,1.2191787,-0.85135,0.5325831,-1.8742036,-0.016088912,1.7554126,0.3061975,-0.50768346,-0.21399687,2.2516682,1.3835874,-1.8348299,1.3411281,1.2617763,-1.0543026,-2.003198,0.19032855,-1.5755192,-0.75878835,1.0298126,-0.07826443,0.50017446,-1.0718397,0.057172805,-0.40646335,0.23463763,1.6806799,1.6497532
/sports/sports_position/players./sports/sports_team_roster/position	1.0917951,0.99370927,0.8186044,1.9532852,2.6703289,1.7203597,1.2315806,-0.08998889,0.89400953,-0.36469206,1.2769926,0.4367631,0.5602382,0.6791024,-1.94749,-0.04940525,1.5278975,-0.80408645,0.77537805,-1.020059,0.0023574743,-0.09872023,0.97657704,-1.0079719,1.601705,-0.001363596,0.5857813,1.3525325,1.1377221,-0.56553936,1.377698,0.8425384,0.22121094,0.17016818,-0.82084954,-0.2734282,1.3159419,0.2228603,-0.07565499,-0.41548413,0.06902295,1.0332867,0.47535872,0.46043378,-0.10324324,-0.59295136,-1.2062738,1.1577872,0.28438988,-0.8624146
/music/artist/contribution./music/recording_contribution/performance_role	0.0071306215,0.7873425,0.51812196,-1.0616812,0.6944256,0.9834365,-0.26911026,-0.9706326,-1.4251342,0.2168494,-0.83662933,-1.4263389,-0.6414853,0.68573356,0.13183348,-0.17399637,0.0636068,-1.3265545,-1.234777,-1.1526017,1.6961596,0.14155975,-0.22964463,-0.20246613,-0.7171096,0.054993067,1.1804544,-0.110642835,0.10927079,0.35140643,-0.11445265,0.06567981,-1.5211191,0.29934973,0.4884491,0.19079061,0.18246207,0.91501635,1.5290954,0.036555216,-0.82337433,-1.4665099,-0.02229108,0.81537545,-1.3199557,0.1869382,0.21166727,-1.3229702,-0.7801627,-0.66935784
/tv/non_character_role/tv_regular_personal_appearances./tv/tv_regular_personal_appearance/person	-0.47692448,0.6756383,-2.0852952,0.3162911,1.844013,-0.1860083,-0.76036435,-0.71199137,-0.12470677,0.6443164,0.22803132,-0.22023265,2.0750554,2.167264,-0.21759231,-0.39577472,-0.00012265713,1.0619671,-1.4354601,1.8471779,-0.65007746,-0.97755694,0.5282924,1.632225,0.001964378,0.97834945,-0.44631115,0.77231604,1.8682139,1.5885546,-0.7176399,-2.255404,-0.7184463,0.3880733,-0.9957984,0.33308464,-0.8677508,0.4505713,0.6487209,1.2054247,0.8637454,0.48036936,-0.79922134,-0.19250827,0.00027611954,-0.74333584,-0.52587646,1.6622785,-0.87577647,-0.3425834
/location/country/second_level_divisions	-1.2555885,1.243115,-0.087116405,-0.2632531,-0.613877,-0.87012446,1.4130839,-0.92459285,0.98546344,0.26385152,1.6536912,-0.41848165,-0.9226112,0.16408317,-1.5261874,0.10752924,-0.9853783,1.0241469,-0.25310776,1.104045,1.2932055,-0.058191806,0.5948135,-0.3951526,-0.30920905,-0.5641706,-1.4390894,2.4415941,-1.0346253,-0.120921716,0.79098547,1.0480443,0.9800365,0.3717947,0.6533728,-0.96679384,-1.1811434,0.97825027,0.010666318,-0.033187304,1.1528705,-0.20366056,-0.76401544,-0.54966694,0.5159667,-0.112670206,-0.21699183,-0.5190529,-1.2503482,0.24743061
/people/person/religion	0.25775188,-1.5772853,-0.2818057,-0.267781,1.2020406,-2.1772919,0.596908,-1.6376834,-0.32917938,1.2259756,-1.3297561,-1.2402718,-1.7811399,1.2242045,-1.3089837,1.4059771,-0.14529006,-0.4888052,-0.37877578,-0.88661855,-0.013347608,-0.21394269,1.2258317,0.05686495,1.1482946,-1.5277201,-0.9586348,-0.515005,0.86268985,-0.35606512,-0.41820058,-1.1058046,-1.0365436,-0.48451838,-0.78023654,-0.45863295,-0.2991587,-1.341951,0.1783858,0.7272319,-0.64794827,0.35280076,2.6348019,-0.23866345,0.21622898,0.9462643,-1.1414375,-0.3325587,0.31952122,-0.5290255
/location/hud_county_place/county	0.37954944,-0.012271149,0.21005298,-0.0067201843,0.6158944,-0.04377666,1.4759866,-1.0757673,-1.1205798,0.11486949,0.12807019,-0.3580009,0.79263306,-0.4213513,-1.3116391,-0.46255806,0.56474674,-1.3122603,1.1198845,1.055077,-0.38233125,0.23744665,-0.6430842,-0.17508845,-0.21240866,-0.5206891,0.24901025,-0.772657,0.045962866,0.011421889,1.8366742,0.15948425,1.0740901,0.08441467,-0.7944218,-0.086551934,0.59905994,-0.105586655,-0.17364101,-0.12914518,0.73976344,0.7735363,-0.4303302,0.8709369,0.3560659,0.5107366,-0.5912529,-0.38373065,1.2013515,0.24048702
/film/film/music	1.2485768,0.17172185,-0.3159218,-1.480477,-0.84530175,1.6836205,-0.08877211,-0.9713244,0.45200405,0.57376903,0.6074966,-1.0416771,-1.1624908,0.35307932,-2.831427,-0.41635615,0.44308087,-0.062321026,0.9257583,-0.32986695,-0.7410586,0.3215286,-1.8909272,-1.1926051,0.32739615,-0.5421986,-0.9676457,-0.8087292,2.3033571,-1.3596948,-0.017325262,-0.17114265,-0.6602806,0.012337951,-1.3222327,-1.2690268,-0.62313426,0.5981042,-0.4958518,-0.6674616,0.5480541,-0.010435521,-0.50785637,-1.3697664,1.0673164,0.53512436,-0.636034,-0.51183695,-0.48925668,0.015967809
/education/educational_institution/school_type	-1.5431902,-0.32820833,0.87593603,0.34055424,-1.7489536,-1.7916558,-0.61461866,1.0767562,-0.79568005,-1.4249907,-1.2629162,-0.775512,0.27437347,0.06069449,-1.683195,-1.1158258,0.8851852,1.1662196,1.3888203,1.6507572,0.35590616,0.87705827,-0.5209771,-0.3965275,0.7320245,1.119027,-0.77069354,-1.122969,-0.35629824,-0.68472207,0.27864516,-1.2010835,0.42310253,-0.7971222,-0.5292572,-1.1862359,0.31516778,-0.819604,-0.6410791,0.6506845,-1.9420207,0.24410596,1.6393346,-2.5444942,-0.43298107,-1.9060401,0.13371728,0.0122713335,0.37635657,2.7472675
/film/film/film_art_direction_by	0.6472924,-1.945359,-0.12157598,1.9194379,-0.3092784,-1.6086897,-0.2709755,1.0855098,-1.0965149,0.23880017,-0.058208983,-0.12154854,0.5666306,0.91347027,-0.50253344,0.36098853,1.3245887,1.3108649,0.2715989,-0.72269315,0.38091168,1.4437915,0.9642373,0.55669856,-0.010794667,0.5105996,0.5406863,1.4471903,-0.90836716,0.30305013,1.3566843,0.13890257,-1.0967178,1.6183943,1.6115782,-1.0082128,1.2924988,-0.37339735,1.0065167,-1.0850148,1.453909,-1.362371,1.6499588,-0.82766074,-0.021194113,1.4631377,-0.6422465,-0.6250505,-0.72134596,-0.01902802
/music/genre/parent_genre	0.94321567,-1.0723531,0.30149215,-1.0720907,0.008795876,0.70801735,0.4421106,-0.1027917,1.6610522,1.6044505,1.6544173,1.196246,0.25343156,-0.49846637,-0.50007445,0.1203277,0.12937813,-1.2719244,0.037062813,0.9817958,-0.29772604,-1.6239643,-0.3567003,-1.8856506,-0.12562118,0.5348205,-0.93071014,0.021052726,0.034591313,-1.0301836,0.8075303,-0.084081195,0.5679819,0.12158087,-0.30439064,-0.5972387,1.1402965,-2.371085,-0.34537572,0.986652,-0.44926652,-2.1120546,0.09577824,-1.6349,1.5035826,-0.5353116,-0.06755326,-2.346094,1.112697,-0.31678638
/user/alexander/philosophy/philosopher/interests	-0.6427062,-0.2971875,-1.392169,0.07213804,1.3694527,1.4395388,-0.052263495,1.0105448,-0.6741753,0.09449127,1.3798146,-0.31225207,-1.4978077,0.66634184,1.0534283,0.41036686,-0.78427905,0.18910117,-1.4682127,1.36598,-0.4575406,0.91732186,-1.5066357,-0.77225274,0.42435917,0.630594,-1.3074403,0.8272589,-1.561628,1.1288363,-0.48456272,-0.40222833,-0.44845688,2.0332355,1.7731495,-0.42754665,-0.31798065,-0.66140664,0.32625988,2.0045118,-0.41464257,-0.0242746,-1.3320282,0.9810975,0.05874438,2.5465271,-0.7266951,1.3717185,1.3832629,-0.13432375
/people/person/place_of_birth	1.7908146,-0.18046188,-0.4746376,-0.15059924,-0.14598218,-2.451035,0.80516094,0.66226757,-0.85247576,0.05115815,-1.2522725,-1.3619721,1.4230313,0.36307326,-0.3886678,-0.11296773,-1.3492185,0.27583197,-0.34043762,-0.52822155,-1.1235739,1.1542685,0.68179697,-0.5992033,-0.15720809,-1.0231886,-1.4939476,-1.0055728,-1.2434114,-0.74320656,0.99541926,-0.5024483,0.03705779,-0.8185075,-2.1352477,1.3701091,0.94566214,-0.26783937,1.7845877,-0.17453769,-0.8718506,0.53346306,0.7579288,0.7039597,1.0915161,-1.0786,0.62786853,-1.0749832,1.3478513,-2.2852376
/location/statistical_region/gdp_nominal./measurement_unit/dated_money_value/currency	-0.45165697,-2.0483081,-0.9897278,1.1456064,-0.61904234,0.87292296,-0.46325338,0.10724495,-0.03520603,-1.9824735,2.4398158,0.5333641,0.0072010974,0.56020695,0.39132547,-0.9983253,-0.43843776,0.34554175,0.111062765,-0.85824627,1.6565311,-0.29646912,0.03740695,1.1059065,0.617684,0.55987746,0.707573,-0.17805496,-0.1048646,0.43910936,-0.23174658,-0.51816916,0.90151286,0.74518216,0.43284827,1.2565913,-0.19250308,-1.5409106,0.17405088,-0.3671908,-0.95168537,1.2319509,-0.8399261,-0.1698982,0.57130545,1.8949322,-1.2902751,-1.076385,1.3811058,-0.7522315
/business/business_operation/industry	-0.5115885,-0.87536925,1.2995288,0.54119843,-0.55830824,-0.013675337,0.4731007,-0.9567247,-1.0545248,1.2137516,-1.048556,-0.6920423,0.19156033,-2.2023122,-0.6527803,-0.95014256,0.24704653,-0.40667292,1.000572,-0.33110613,-1.3469517,-0.09151496,-0.966135,-0.05204871,0.2818339,-0.9707015,1.9091451,-0.5106887,-0.14341253,1.6693511,-1.7502557,0.44573364,1.4302703,-1.3445377,0.9968973,-0.42556435,1.1149007,-2.8576992,-0.7916764,0.4597583,-0.45210096,1.0950797,1.1449033,0.62039214,0.01407541,-2.1778824,-0.5046258,-1.9528728,-1.108992,0.63274926
/music/record_label/artist	-1.6158727,-0.006173106,0.21395592,-0.8883656,0.21870874,1.7106296,-0.6206921,0.20946348,-2.0960426,-0.95978373,1.3940054,1.607594,0.09021927,-0.5126814,0.33416826,-0.99369395,2.3415337,-1.0915626,0.01563947,-1.0270274,0.5648229,2.2506382,-0.25313726,1.174703,0.5192134,-0.37282872,0.54531944,-0.6848372,0.57362586,-0.53315693,1.5642948,2.0387883,-0.6247312,1.1885928,0.13658041,-0.9742014,-1.3551441,-2.002706,0.7263048,-0.6354314,-0.38067698,-0.032601453,-1.481676,-0.016580915,0.6675263,0.8426365,-0.5471542,1.033333,-0.9551675,0.94375664
/music/performance_role/regular_performances./music/group_membership/group	1.4767675,-0.14798109,0.20228,-0.98797774,0.66924644,-0.4515248,0.35266998,-0.038104516,-0.46995825,0.88600534,0.10875252,-1.2149557,-0.35340652,-0.34026977,0.5404398,-0.5698553,1.1404126,0.93258995,-1.0300288,0.1877976,1.7710305,0.62276137,1.7655636,0.9272577,-1.4148581,0.17005856,-0.8411404,-1.4495827,-1.3392216,-0.77523017,2.4001114,1.4895306,-1.0966743,-0.6026259,-0.29336974,1.3318173,-1.1979467,0.049031682,0.06638594,1.6262649,-0.2983371,-0.058658518,-1.8070778,-0.47006798,0.27926892,-0.12372595,0.10437052,-0.9076088,1.3660802,0.86666375
/sports/pro_athlete/teams./sports/sports_team_roster/team	-0.5477218,-1.780195,-1.0430374,1.7752212,-0.22364016,-0.48779207,2.0481355,-1.3294584,0.16345036,0.66944724,-0.2722777,-0.9344416,0.26352197,-0.66583544,-0.8864565,0.6905599,0.34556264,1.3063092,0.06262095,-0.40199655,-0.28549537,0.26289508,-1.1122812,1.2816415,0.073082656,-0.68220246,-1.9831719,-0.27863756,-0.12336764,-1.4618304,0.09526414,1.35457,0.44258967,-1.9004333,-0.0982262,1.6950629,0.20105267,0.6718788,0.6465658,0.6463691,1.3796725,0.6773689,0.4302405,0.7584891,1.3777366,-1.0735894,1.0976884,0.8002556,-0.57173175,1.9571567
/education/educational_degree/people_with_this_degree./education/education/major_field_of_study	0.46560258,0.22051272,-0.55437285,-1.1387409,1.0260977,-0.20630418,-0.6163094,-1.2937995,0.6838011,1.235817,-1.5531304,-0.19580807,0.15545021,0.9414105,-1.6673481,-0.6735462,0.7115413,0.023314284,-0.7995049,0.26814717,-0.06568296,1.5466495,0.14348565,0.7528358,-1.1911445,-0.6136029,-0.23364472,-0.38528442,-1.6352067,-1.0612019,-0.7400626,-1.2888087,-0.17603548,-0.8277195,-1.1596452,-0.52268636,-0.3754335,-1.1349589,-1.3923669,0.16466062,0.37957674,0.16444534,-2.1762445,0.97195095,-0.8746316,1.5467681,0.08375206,0.4985979,-0.5180446,-0.31517765
/business/business_operation/revenue./measurement_unit/dated_money_value/currency	-0.6370237,-0.8423999,-0.069043875,-0.64615947,-0.5500167,-0.58597034,-0.4409157,-0.3720296,-0.30646995,-2.1954567,0.11207568,0.7472534,2.0235827,0.050701458,-0.5231371,0.84262776,0.25058484,-1.1410743,1.5411801,-0.5664118,1.0970142,1.0209905,1.3000743,-1.4942743,0.6877162,-0.36295918,0.17548917,-0.61013615,-1.1624131,-1.0041746,-2.1297543,-0.16461308,-0.9048207,0.05713318,0.4052649,-0.3296749,-0.16571553,-0.72756374,0.32717705,2.2900705,-1.5354447,-0.25562257,1.0933958,-0.5163968,-0.60997576,0.9421935,0.28466767,-0.45621148,1.0098271,-0.8943668
/sports/sports_position/players./sports/sports_team_roster/team	1.3044429,0.16916704,0.8433146,1.8166453,0.4772569,-1.4855869,-0.35315865,0.017330933,1.3208812,-0.4326998,-1.1260313,-0.5629021,0.55992603,0.822043,-1.0429465,1.186012,0.6410885,-0.8078811,0.26520953,1.2143391,0.62205136,-0.37355843,0.36914486,0.9376676,-1.6829755,1.2061398,-0.48287576,1.1056157,2.1741338,0.061910413,0.6195736,-2.10845,0.7348515,1.1674834,2.5075927,0.62668425,-0.90088993,-0.03587612,-0.27596483,-0.19998042,0.514617,-1.011766,-0.7561104,-0.42443886,-0.82349277,-1.1213073,-0.85686266,0.08109334,0.42831105,0.49566066
/sports/sports_position/players./american_football/football_historical_roster_position/position_s	-1.338962,-0.5223218,-1.0510899,-1.0426358,1.3488072,-2.1818833,0.36221984,-1.0549393,0.631912,0.43868467,0.9533293,1.6183684,0.4848201,-1.2221766,0.3350568,0.8073336,0.31686014,0.7196419,-0.69486207,-0.36596492,-1.2049425,1.4381261,2.1307166,-1.0669373,-0.43258247,2.038115,0.9843055,0.79502976,0.08235006,0.8745606,-1.1842434,0.27250305,1.949186,-0.30250236,2.6953626,-0.92780983,0.33534384,1.753136,-0.97714233,0.32466343,0.20883904,0.5568691,0.2176516,-0.03084217,-0.16077842,1.1877437,0.009197773,-0.62993085,0.31819257,0.5097552
/tv/tv_program/languages	0.5035622,-0.63159114,1.001477,0.195868,0.047650635,0.5246342,-0.21401694,-0.56844324,-0.34202307,1.0261937,1.4951873,-0.99978244,0.32052523,-0.52376366,-0.9902295,0.26939148,1.0027632,0.035913303,0.86526006,-0.34889132,-0.20452052,1.9741687,-1.0508871,0.2881201,1.393651,0.23925793,-0.026462102,-0.2829749,1.0309614,0.52875257,-1.5422962,0.81319505,1.0625645,0.29663756,-1.6038824,1.4289993,0.4618583,0.26137084,-2.0942903,-0.64353204,1.3658725,0.9797313,-0.5985673,-0.0745155,0.46100226,0.95102346,2.3135211,-0.99884844,-1.2081261,-0.29406354
/film/film/personal_appearances./film/personal_film_appearance/person	-0.060033396,-0.08807023,1.797393,1.3347051,-0.00041540177,0.7049378,-0.8478493,1.0106751,-1.6800916,-0.85953456,1.0516812,-0.3517609,0.09362433,-1.0070374,-0.64681077,2.1590533,-0.42921454,-0.9367251,-0.52394855,0.13088313,0.35630286,-3.2063136,-1.4769951,0.4798986,1.052603,-1.7053006,0.54491746,0.7925302,-1.6315353,1.0408926,0.27100283,0.26748285,-1.4072701,-0.040556226,0.11101564,0.07353844,-0.016857559,-0.28300214,-1.3950255,0.026765052,-1.0089849,-1.2415919,-1.014551,-0.22535181,1.3394171,-0.5081858,-0.35858825,-0.6432239,-1.7853211,-2.0748794
/location/capital_of_administrative_division/capital_of./location/administrative_division_capital_relationship/administrative_division	0.089953944,-0.985799,0.406257,-0.5426725,-0.17769991,0.17582971,1.550518,-0.22044988,0.049103223,1.1247272,-0.20185558,0.30444556,1.1937338,0.1370435,0.72429895,-0.58781517,-0.4829673,-0.9239491,0.43896267,1.3340417,-2.0454895,0.2946326,0.7102745,-0.2886762,1.0985758,-0.540653,-1.3952805,0.14315926,0.42476138,0.2621903,-0.8783499,-0.46604565,0.20653334,-0.08214207,-0.9510135,-1.7169689,-0.42671895,-1.968252,-0.84730625,-1.4216204,-0.68268275,-0.046757113,-0.59256166,0.7163146,-0.09798638,-0.29758263,1.206125,0.106011376,-1.3283492,1.1295317
/tv/tv_program/tv_producer./tv/tv_producer_term/producer_type	-1.2353724,2.0114808,0.72429675,0.19857448,-0.55797696,-0.16596483,-0.75174123,-0.6034275,-0.29892448,1.2686772,-1.0244427,0.20192823,0.32487392,-1.2612362,1.0663363,0.15631978,0.6078838,-0.7821404,-0.5574924,-0.6114083,-1.1126257,0.4550146,-0.5401996,1.4200984,1.1102073,-1.9692185,0.02958695,0.8425097,0.044524975,0.9292696,0.465641,-0.73232317,-1.3567332,-0.37664592,-1.0332195,0.24195522,0.3905155,-0.94824123,-2.7908814,1.2754569,-0.3149118,1.3311174,0.4885025,-1.153945,-0.098372705,-1.4909052,0.5158293,-0.8250307,-0.051954288,-1.5774456
/award/award_ceremony/awards_presented./award/award_honor/honored_for	-0.5484739,1.1553974,-1.1644129,-0.53533536,-1.9090229,0.7278497,1.2580061,1.1626141,-0.58066094,0.04701987,1.1023954,1.4661906,-0.91925347,-1.432822,0.7872766,0.23866157,-0.21365955,-0.49133357,-0.6053892,0.19171529,0.08068396,0.77000535,0.8834408,-0.5032602,-0.28009343,-0.5065869,1.2350777,-1.3939136,0.42464322,0.50310093,1.1471877,-0.867533,-0.675702,0.07574648,-1.2167279,-0.06419255,0.08680395,-0.55018413,1.7140636,-0.50732607,0.5937914,2.2527876,-0.490327,0.9793885,-2.1297715,0.16260056,0.4151892,0.95275205,0.4186277,-1.3383864
/base/culturalevent/event/entity_involved	-0.68737394,0.86046493,-0.3472209,-0.61897767,2.1788638,0.049051967,1.0991247,-0.49640235,-0.013452824,0.3165236,-0.9218517,-0.7440627,-1.1249402,-0.1008282,-1.0029644,-1.4060162,0.3901868,-1.3637857,-1.1340933,-1.3346615,1.2555716,-1.3562942,0.5369801,-0.9747015,0.08892618,1.3598282,0.9101126,-0.35268068,-1.7427138,-0.18561125,1.3734889,-0.7198032,0.7835949,-1.0724654,1.0152243,-0.6603242,2.2181668,0.34425896,-0.78902906,-0.44965583,1.2824454,-0.2968167,-0.9269027,2.2952316,-0.28016368,-0.37212592,0.014133727,1.9692276,0.60766405,0.07258166
/award/award_category/category_of	0.6505767,0.75746864,0.33701092,-1.2421896,1.0781422,-0.34595028,-0.10218558,-0.009568419,0.7543135,-0.8375344,-0.5542589,0.17067847,1.0512594,0.96396285,1.6435307,0.5849478,0.03837252,-0.88445264,0.05701813,1.2325675,-0.8252647,-0.33023605,0.8374395,1.3457276,-1.2770255,-0.51933426,-0.040474597,-0.16112097,-0.2265582,1.3231511,-0.47429267,-1.3520494,1.1296859,0.09625472,0.07182077,0.5157321,-1.1050628,-0.32641846,-1.2416918,0.53920627,-0.34302494,-0.3893793,0.113548234,-0.96024615,0.85804754,-0.8535268,0.30449277,1.0807532,1.1657969,-0.37356582
/people/marriage_union_type/unions_of_this_type./people/marriage/location_of_ceremony	-1.0136,0.26285645,-0.76009,1.4580703,-1.1331565,-0.4388069,-0.19450445,-0.62860936,0.47165784,2.6088762,0.2990444,0.016471434,0.32828772,0.37230906,0.27564195,0.8542319,1.7237829,2.1253066,0.20525707,-0.50929844,0.63566524,0.29455766,-2.2425933,-1.1283445,-2.4536984,0.7863263,-0.93473226,-1.2480284,-0.70947146,1.2446779,-0.04045398,1.3335372,1.7116884,-0.45954493,-0.15956765,-1.0709409,1.3731693,0.43105468,0.18929955,1.8139107,0.7663367,0.89373714,-0.1844155,0.06095954,1.4789808,0.5123399,0.109286465,2.1889262,1.2610536,-0.8253487
/organization/organization/child./organization/organization_relationship/child	0.3734281,-0.95881265,0.55261236,0.27438134,-0.8407695,3.4135683,-1.6107411,-1.7705437,0.6406874,0.5360425,-1.1605039,0.33352187,0.044833742,0.07707313,-1.043263,-0.358436,-0.32332072,-0.19045533,-0.34499577,-1.1365355,-0.99037653,0.37230453,-0.16742158,-0.07839181,-1.1042827,0.25290352,-0.058615077,-1.1699059,-0.7661039,-0.064627394,0.9004455,-1.6217153,0.20974512,1.1223342,0.964671,-0.5553425,1.0138831,1.3418412,1.3011125,-0.70774585,0.06534088,-0.00820251,0.70308346,1.1237261,0.8712098,0.19735913,-1.8528174,-0.63400793,0.4147082,-0.3979901
/location/location/contains	-1.2859621,1.5506781,1.8758491,-1.1695957,-1.5503805,-1.0592837,0.73678446,0.48488072,0.66955596,-1.2830251,0.28226754,1.0102115,1.5381066,-1.4050543,-2.2747512,-0.736581,0.6222247,-0.008929888,-1.9031607,1.2011509,0.041829757,0.43269184,-1.4179351,0.8284756,-1.5093739,0.26560155,-0.52146435,0.8428287,0.36063856,0.26329184,-0.8373375,-0.8341335,1.5723673,-0.46896082,1.1314327,0.14345421,0.58550245,0.07489935,0.599288,-1.0870142,-0.032655418,-1.7611328,0.03742849,-0.69201714,0.0022425384,1.2159668,-0.44358093,0.054390345,1.0942007,1.1289471
/film/film/film_festivals	0.4909841,0.75873244,-2.016719,0.7470331,0.9150891,1.2523391,-1.2302685,0.25829926,0.2855842,0.36814725,-0.42176363,-0.31921926,-1.9734602,1.0437098,-0.07546992,1.1628128,1.037179,-0.6968597,0.5635161,-0.23264639,-0.28355497,-0.51449573,1.4187326,0.5202327,-0.10564887,-0.90863985,1.282598,0.55188316,0.42540538,-0.17952861,-1.1364261,-1.6213417,-0.41526005,0.4987629,0.1216453,1.377869,0.4399315,-0.7102953,1.3643956,1.744133,-1.0701236,-1.3612024,1.1122614,0.18348613,0.74995434,-1.009612,1.7521366,0.04661866,-1.3520896,1.2123445
/film/film/genre	-0.3811838,-1.4734477,-1.4813062,0.88055253,-0.7899084,-0.4529826,-0.33470654,1.2600268,0.9275671,0.6743913,0.65993226,0.22962251,0.7881413,0.0018621512,-0.650107,1.1678298,1.0902935,-0.24926057,1.1987908,-1.6070433,0.94813687,-1.0755625,0.07403749,2.0294404,-0.1359642,1.0988756,-0.1643119,-0.50109845,0.9083326,1.1781499,-0.5325138,-0.38589016,-1.6678513,-0.6192584,-0.30342698,0.5290126,1.8013737,-1.3048173,-0.901268,1.0444459,-0.4992976,-0.08799571,-0.6572076,-0.58010095,-0.6115334,1.4890869,1.075852,-1.3313638,0.46237233,-0.52694
/base/aareas/schema/administrative_area/administrative_parent	0.23593637,0.30840492,1.2810351,0.02838563,-1.3017541,1.8078966,0.5547846,1.969659,0.6588222,-0.11668833,-0.9339456,-2.0376687,0.42233828,-0.95121723,0.6448222,1.3437845,-0.90389687,1.2688004,0.28344712,-1.1945198,0.902359,0.4366062,0.25191942,0.7722273,-0.26651677,-0.9564557,-0.7541282,-0.074137166,-0.68423474,-0.21424523,-0.698162,1.970015,-0.22967777,-0.70536005,0.429592,-0.36541584,-1.1293696,1.8394337,0.1066956,-0.39895797,-1.3079567,0.7702951,0.38952327,0.48255876,-0.323929,-0.62388784,-1.4131838,0.5351931,-1.2276591,0.29261437
/military/military_conflict/combatants./military/military_combatant_group/combatants	2.1612005,1.059026,-0.6068696,-1.7962918,0.36565852,0.3038083,0.13170868,-1.1766201,1.0714208,-0.1221353,-0.9328685,0.7209432,1.7366946,0.71543425,-0.35882527,1.3642242,2.0056512,-0.33378085,-0.9826948,0.28562135,-2.5126963,-0.10867169,0.32912686,-0.3988484,0.40642777,-1.3692923,1.3318104,-0.49001405,0.6405587,1.6927756,-1.2335656,-0.4039668,-0.53252244,-2.4284122,-1.0029275,-0.11599794,-2.5028074,-0.6034157,0.84210896,0.24120641,-0.20680675,0.12658477,-0.263488,-1.5204009,-1.0143634,-1.0895478,0.011404063,1.1041014,1.4144984,-0.20196702
/location/us_county/county_seat	0.14962158,1.2910844,1.1148998,0.5077735,0.18230993,2.6024244,-0.44218117,1.5202448,0.6702746,0.17868625,0.37442037,0.36721873,2.4970455,-0.77487874,0.8786925,-0.07163529,1.4514011,-1.6973175,-2.6139622,1.2650554,0.16373643,-0.37295485,-0.71690726,0.18422511,0.9353459,-1.1381248,0.90937924,-0.9167576,-1.0559922,0.22055215,1.6342893,-2.190428,-0.13037911,-1.0270293,0.7645221,-0.18033165,0.10081899,0.5116524,-0.45738354,0.14802395,0.9643208,1.1386951,-0.1975332,-0.81401974,0.65350896,1.8077807,-0.4843942,1.1374733,-0.8543094,-0.20645662
/location/hud_county_place/place	0.07828537,1.8828591,0.6384046,0.2991857,1.080677,-0.6636574,-0.034685843,-0.69605327,0.53321445,2.400175,1.9437238,-2.0283084,0.13338406,1.2620715,-0.2622849,-1.0179802,0.5420269,-1.4254287,-0.70201355,0.44069102,0.91449547,0.8344656,-0.5077624,0.3205116,-1.4015616,-0.44206512,0.1629484,1.8555032,0.90246314,-0.39158633,0.005118442,0.9427827,2.546688,0.6514631,0.039861366,-0.2927176,1.040431,1.1353766,-0.26986748,1.6334281,0.34222424,-1.4837232,-0.46326187,-1.555278,0.88733363,-1.7093244,0.50703275,-0.7907607,-0.45796022,-1.2867703
/location/statistical_region/rent50_2./measurement_unit/dated_money_value/currency	0.7910089,-0.7834157,-2.270809,-1.3467457,0.93149316,-0.12171867,0.14944707,0.76396847,1.3977894,0.9057063,-0.79355115,0.43186992,1.434764,1.4204907,-0.1346893,-0.02503442,0.437415,-1.343361,-0.74595416,-2.1588256,-0.7815434,-1.9587876,0.94229513,0.57375723,-1.0484008,0.9399864,0.5307326,-0.9190107,1.9798334,-0.6437496,2.5813918,-0.31917205,0.6307818,-0.44291672,-1.0407596,-0.57896066,1.8998388,-1.0532546,-1.2578534,0.8463291,-0.15103327,1.9019356,-0.47980365,-0.118092805,0.53779954,0.060331028,1.3924533,-0.2437384,-0.4529668,0.33606657
/location/location/adjoin_s./location/adjoining_relationship/adjoins	-1.0023597,-1.9129347,0.16312462,0.24460375,1.5951568,0.7270843,0.7975293,1.4454012,-0.05810399,0.54422176,0.9098985,-0.9725872,-0.30658114,-1.8242377,-0.88573587,1.2524576,-0.5392078,-0.73255867,-2.3473203,-0.8004669,0.032475702,-1.3286605,0.37918964,0.22096469,-0.0030441282,-0.03114701,1.7004243,1.0863543,0.21701929,-1.0621833,0.6161014,-0.24741787,0.48833424,-1.8881617,-0.042049844,-0.7945722,-0.4432625,0.14981121,-0.061618824,-0.3411465,1.313321,-1.167415,0.41556558,0.21589908,-0.6381957,0.05855396,0.25818938,-1.0205721,-0.2460091,0.8103532
/baseball/baseball_team/team_stats./baseball/baseball_team_stats/season	-1.3047657,-1.2302499,-0.7197223,-0.7336241,-2.0320613,0.1652344,-0.764786,0.7633753,0.30146635,1.0732111,-0.20947693,-0.4514994,0.72698236,1.1669711,-0.5426762,-0.7126958,0.21983473,0.6858944,2.361755,-0.6552975,1.0581077,-0.76406085,-2.1918693,0.13772082,-0.7858166,0.08730834,-1.3501078,0.4369068,-0.9334886,1.2137021,-0.8763161,-0.87972337,-0.5023252,-0.9589927,0.86716264,-0.9399544,-0.54730254,-0.87242806,1.5409107,0.23712803,-0.51940733,0.1917929,-0.08052988,-1.049618,1.4785458,0.37634292,-0.607275,-0.70812285,-1.0592126,-0.5961004
/location/country/official_language	-0.29420218,-0.44716007,-0.5452773,0.5471659,-0.098646544,-3.8213325,0.8777004,-1.6831503,0.27786273,1.8444535,-0.23611769,-0.44648919,-3.4472356,-0.06417406,-0.34434432,-1.3130599,0.65617764,-2.161813,-0.3500978,-0.80398357,0.22598757,-1.3749636,1.4558831,0.46152478,1.4186944,-0.31571767,-2.753399,-0.71354365,-0.12565649,0.612846,-2.072074,1.5303292,-0.8330666,-1.7203443,0.022134146,-0.8541499,-1.0495218,-1.1787875,-1.6066078,-0.26224086,-1.1639029,-0.17380372,-0.07084903,1.0208895,-0.8945518,-1.2719362,0.30001035,1.2545804,-2.4218915,-2.1830437
/olympics/olympic_games/sports	-0.6759465,-0.66307837,-0.55709946,-0.75690717,-0.28237966,0.97941023,-0.9192465,-0.6508271,-1.8317006,-0.34580526,-0.0659158,-0.43955588,0.97801787,0.46503112,-0.91949,1.1638266,1.3908195,0.49693188,-1.0983486,0.41396296,-1.1651587,-0.17883082,0.58072966,0.38246286,0.7371781,1.0259879,-0.0686791,-0.22160251,0.80779594,-0.8226889,2.1814303,0.14280598,0.3992108,-0.22404239,-0.9472275,-2.7214675,-0.7491885,-0.07925319,0.23114969,1.7487566,-0.2006023,0.45213422,-0.98473454,-1.1868539,-0.2547565,1.0697317,-0.92574716,0.07255822,0.17546035,-1.6916014
/user/jg/default_domain/olympic_games/sports	-0.018704388,-2.0091705,0.67219937,1.997032,-2.0574348,0.08676804,-0.412493,-0.04071623,-0.9713346,1.9005706,-1.8395514,-1.564045,-0.32227266,-1.0899721,-1.1017157,0.93207747,0.5012209,-0.32308194,-0.45659387,0.47068593,-1.3568916,-1.3957548,1.7427967,0.50419813,1.1763805,-1.5125552,0.59811074,-0.08299406,0.73774385,-0.6090514,-0.40134627,-0.87366927,-0.882167,-0.18228884,0.4750292,-1.5947362,-0.9412738,-0.8331293,-0.53620946,0.38690564,0.009108225,-1.7505101,-0.74089897,-0.056443755,0.4511199,-0.62940514,-0.67389256,1.288679,0.12624736,-0.36056274
/people/person/sibling_s./people/sibling_relationship/sibling	-0.13515452,-2.0429876,-0.3636178,-0.7515435,-2.3832884,0.6776342,1.5597047,0.43648636,-0.35619268,-0.02507956,0.31416395,1.0052117,-0.1003617,-0.40498605,-0.42530018,-0.30594176,2.0469341,0.808857,-1.335678,-0.7649718,-1.0977488,0.20285514,-0.82277364,-0.4690649,-0.49002975,-0.065661594,-0.8146885,0.18931955,-0.025647663,-1.4813315,0.19488011,0.55454093,0.27401948,0.62544507,-0.17600442,-1.3123444,0.11154511,-0.35798794,0.68642133,1.2610155,-0.14549245,-0.9206218,-0.13783503,-0.06033627,-1.3663495,-0.23209493,0.8844378,-1.1479111,1.1862465,-0.37663156
/military/military_combatant/military_conflicts./military/military_combatant_group/combatants	1.3503488,0.413935,1.09494,0.10934763,1.2843878,0.45575127,-1.7402421,-1.0603702,-0.37694073,-0.5281023,-0.7248731,-0.16653854,1.2730352,0.010881191,0.252984,0.6899974,1.1160862,-1.9838064,0.42581397,1.9003823,0.42905477,1.3876058,-1.2425867,-0.81989145,-0.37869677,-2.593196,-0.6842012,-2.1348455,1.7348242,0.7320301,-1.7149631,1.5203362,-0.113186926,-0.9727592,0.4901252,-0.55903655,1.4905016,-0.769081,-2.138076,-0.1799429,-1.0089469,-2.4212224,0.7142952,-1.1041981,-1.2013803,-0.25304034,-1.1145595,0.49934915,1.0833855,1.0142217
/base/schemastaging/organization_extra/phone_number./base/schemastaging/phone_sandbox/service_language	0.17427877,-1.1695826,-1.2814807,0.96179134,-1.2970251,0.052203458,-0.936349,-1.5122418,1.3302661,0.26574498,-0.12828438,-0.4254612,0.3585999,0.081052125,-2.1606812,-1.1089687,0.6158362,-1.3332118,0.14842749,-0.38216665,-0.035010543,-0.5795622,-1.2338071,0.81911534,-0.9156862,0.81440175,0.16492279,0.24385113,-1.4945796,0.7908748,0.8901317,0.83319205,-0.1417975,-0.6032966,-0.44803625,0.45284072,1.9202644,-0.7468415,-0.42339903,-0.598952,-0.24741174,1.0508434,1.6171142,-0.88896227,0.039018665,-1.7364339,-0.70030296,0.94323,-0.30809373,-1.0882505
/film/film/release_date_s./film/film_regional_release_date/film_regional_debut_venue	-0.17287783,0.5694404,-1.5983235,-1.5510653,2.4739842,0.19539008,-0.43003505,0.67636293,0.52399844,0.4323325,0.055582404,-0.74705875,0.6184108,-0.7586175,0.025087547,-1.2617738,-0.13878922,0.40754312,1.3995526,0.0637511,2.7825768,1.4484184,-0.020995347,-2.0242774,1.0183339,1.0375618,0.058615513,-0.1682948,1.368555,-0.5448146,0.48153126,0.674977,0.39700186,0.1497879,-1.146338,1.3767312,-0.64432627,0.67552394,-0.42181882,0.08793825,0.42053762,-1.2500342,0.71901697,-0.1334317,0.4138006,0.009832437,-2.0448658,-0.79291475,2.0192752,-0.06067788
/music/instrument/family	-0.50678146,-1.3322724,-0.06855429,-1.425887,-0.826445,-0.74419343,1.5155097,0.506922,-1.0671536,-0.06936823,-0.24909858,1.1637822,-1.5362669,-1.0707203,3.7038379,0.8515722,-1.3426981,-0.2813455,-1.5608219,0.01661204,1.3571783,-3.1181102,0.8382795,-0.16241653,-0.20294414,1.0248896,0.027341986,0.006908931,1.5268562,-0.36442623,1.0002806,1.3485938,0.7039668,2.3248754,-0.77306235,0.46366206,0.7420401,0.46370274,-1.0143112,0.4102042,-1.2660222,0.595883,-0.19878176,-0.43281874,1.82162,-0.29758692,-0.58190554,0.19873375,-2.0073044,1.324676
/award/award_nominee/award_nominations./award/award_nomination/award_nominee	1.2975513,-0.8433778,0.33039382,-0.61869675,0.04983076,0.7519376,-0.7461271,-0.80905277,-0.39974135,1.1141001,-0.09882368,-0.017671453,-0.49857378,-0.0848922,-0.26084772,0.5460414,0.6712997,1.1386199,0.31398872,1.3277786,0.92782414,-0.48853594,0.28700656,-0.43720967,0.95126396,0.49031377,-1.0905944,-1.1558856,-0.9102323,-0.5610738,-1.3587042,-0.5611775,1.197521,-0.78162175,-0.8466464,-0.45073852,1.6403949,-0.6970917,-3.497975,1.33511,1.2893476,1.0961093,-0.44991106,0.36897844,0.45558095,-0.13496631,-0.77723914,1.0720084,-1.2441319,-0.73987716
/award/award_category/nominees./award/award_nomination/nominated_for	-1.3696052,0.519496,-0.7943652,0.35022795,-0.98785996,1.3839211,-0.12895842,1.1916933,1.5929552,0.64732003,0.798752,1.4020922,-0.3570171,0.36945537,-1.6285588,0.8920089,1.5203003,-1.1584824,-0.5339582,-0.42925122,0.93676263,-1.7199547,-0.49492994,0.92216456,0.26022044,-0.12777711,-0.7561835,-0.9686021,-2.028788,-0.46373165,1.2409457,0.7468082,-0.48091033,-0.85771275,-1.4532712,-1.3018897,0.39897168,1.0030591,-0.77028,0.8313827,0.7045691,-1.629507,0.5725542,-0.2591611,-1.1260256,0.3536785,0.87119246,1.6148657,1.1581984,1.476122
/film/special_film_performance_type/film_performance_type./film/performance/film	0.8519765,0.78496504,-0.76139545,-0.08147916,-0.61334556,-1.0224456,1.1324958,-2.3893533,1.7342086,-0.06386358,0.08068394,-0.4826293,-0.3038611,1.577057,-2.0436,1.0625386,-0.41502616,-1.7391622,0.56692934,-0.47356552,0.08357125,-0.11690207,2.3785727,0.20374091,-0.5583602,-1.576804,-0.36722583,1.7765021,-0.17782821,-0.51812184,-0.38342723,-0.627839,2.3826501,0.9916844,-1.5954396,0.5269584,-0.5949985,1.4540994,-1.4092536,-0.178579,-0.8720567,-0.7955097,1.3368988,0.20475443,1.3237109,0.6158237,0.46026787,-1.0646073,0.31943431,0.45463735
/education/educational_institution/campuses	-2.3779743,0.0588517,1.6796598,0.9578516,0.24465677,0.5342583,2.0779853,1.0926827,0.51230353,-0.3966053,1.4093112,-1.3486762,0.9881148,1.4727441,0.10708612,0.98630667,0.87250173,-2.0568655,0.55240285,0.8266954,0.33969468,-0.11634634,0.7149981,-1.5504622,0.63623536,1.2313178,0.3730508,-0.45116785,-0.9591813,-0.08165874,1.481824,-0.41652888,-1.1983078,-1.5537446,-0.14472045,0.32293785,0.05209032,0.74151725,0.06373322,0.8272742,0.71898746,-0.16551566,0.38637984,-0.6752225,0.98457384,0.04808918,-0.33761543,-0.21451016,-1.866093,0.4063708
/tv/tv_producer/programs_produced./tv/tv_producer_term/producer_type	1.171275,-0.28043318,-0.86560905,-0.48499689,-0.57319313,-0.93658453,0.91051275,-1.2013409,0.12526591,-0.031459372,0.4163716,0.15484858,-1.9456466,1.4787368,-0.79614687,-0.33573544,0.17710906,0.62846035,-0.09668397,1.0337237,-0.26365915,-0.80187005,-0.33659223,-0.22114636,-0.37847182,0.093763515,-1.3740543,1.2639239,0.31333545,1.3706367,-0.11703355,-0.38261452,0.17458808,-1.2048464,-0.22223242,-0.06933496,-0.18297395,0.9660162,0.69229424,1.022789,0.9022705,-0.08379363,0.84972066,-0.7909932,0.10707506,-0.37529597,1.6889756,0.7902075,2.555821,-0.43590307
/sports/sports_team/sport	0.96005285,0.5569519,0.6665226,0.48757875,1.9318888,-0.98702914,0.60745496,0.96205676,-1.0116034,0.29033569,0.8321539,-1.8163589,-1.2792484,-0.7790423,1.0383935,-0.6444644,-0.3630354,1.2077836,-0.29279652,0.91045284,3.0680232,-0.58895254,0.9055149,-0.5830711,1.2389177,1.2472456,-0.3357452,-0.6541684,1.226915,0.6138749,0.37825617,-0.85569215,0.8383713,-0.44045243,1.0387869,2.2706697,-0.5133471,2.006289,0.79184,-1.283064,0.7357948,0.51124877,0.07948161,0.00941132,-0.65831155,1.3909127,-1.5951866,-0.5710925,-0.73677,-1.306786
/tv/tv_program/genre	-0.22594973,-0.34919152,-0.21936606,1.6421374,-2.0367038,0.05038866,0.51167077,0.016467435,-0.33898506,-0.9972398,-0.20700437,-0.11514083,-0.61615026,0.3475136,0.7251065,-0.57672167,0.73354113,0.41203448,-0.28326836,-1.4335599,-1.8648496,0.34998724,0.85155994,-0.6760351,0.28105474,-0.52691954,-0.07032393,-0.5791836,0.1777744,0.8271663,1.5100844,1.1984586,0.043373488,-1.6752068,-0.5812193,-0.7702783,0.09307143,0.8379849,-0.06555181,-0.16844253,0.3074974,1.7589742,0.775462,-1.9999524,0.7911445,-0.07303171,-1.1022091,0.95059085,-0.46341807,-1.1970406
/base/petbreeds/city_with_dogs/top_breeds./base/petbreeds/dog_city_relationship/dog_breed	0.3333083,1.3183043,1.2811073,1.354244,-1.7706908,0.58987784,-0.8251402,0.47721064,-1.4444476,-0.56892306,-0.8259265,0.1364203,0.08500596,-0.65384537,0.9338106,-0.62746793,-1.2074851,-0.41630206,-1.0032471,-0.6211546,-1.9583007,1.0359591,0.02599187,-0.7155867,0.8291403,-1.1619905,0.7434156,0.5135201,-0.29750988,0.5752659,-0.21981297,1.8637406,1.7347269,-0.82389736,-1.683991,0.63206846,1.0480316,-0.54906183,0.84483767,0.96809185,0.03981479,1.3888663,0.43714243,0.42564932,-0.9825151,-0.19772145,0.90628815,1.013943,-0.8094448,-3.0912113
/user/tsegaran/random/taxonomy_subject/entry./user/tsegaran/random/taxonomy_entry/taxonomy	-1.243181,0.33483142,-0.3649566,-0.47190058,-0.4634784,0.9058218,0.42751074,-0.26599738,-0.23258367,-1.1946421,0.847877,1.3425686,0.6799633,1.5681336,-0.66796315,1.915368,1.1009036,-0.49381053,1.1351055,-0.8030933,-1.7539133,0.016445408,0.94905835,-0.85296875,-0.6224311,-0.52684754,-1.506278,-1.7313612,-0.39647493,-1.4697092,0.74278545,-0.6317602,0.13701245,-2.2614162,0.5626937,1.0519837,0.94667464,0.98630273,-0.1898753,1.6339461,0.6028543,-0.5236357,2.216524,-1.6579763,-1.1643403,-0.46695703,-1.2147901,0.29936418,1.7355996,1.0985721
/tv/tv_network/programs./tv/tv_network_duration/program	-0.45536616,0.6209502,0.972573,-1.6687512,0.21570183,0.11180695,-0.50485975,1.5921103,-0.8835678,-0.3799562,-0.354431,-0.36127234,-0.009302669,0.09599292,-1.2318863,0.03675479,1.1910495,0.010884683,-1.430549,0.66614586,-0.99163926,1.2996371,0.106322765,-0.48008114,0.5530267,1.3450903,-0.31262916,0.9129827,-0.81271255,0.39223596,0.59365964,0.21959722,-0.944673,0.8782338,-1.3583126,-0.089466855,1.1287733,-1.0918305,0.14570802,-1.1881086,-0.9339247,0.30684692,-1.8787404,1.1339055,2.0947008,-0.2598397,0.87813795,0.58433324,-0.39805704,-0.090355575
/people/person/spouse_s./people/marriage/spouse	-0.0860711,0.20918377,1.2392962,-0.9397323,0.84648746,-1.6178008,-0.073250405,-1.270909,-0.07398843,0.75734705,0.9645713,-0.44680575,-1.0530295,-1.2996229,-0.014281265,-0.7337793,0.7991811,0.39100507,1.3543081,1.1082011,-1.13782,0.60483444,-1.3195369,1.0189387,-0.7982853,-1.2553641,-0.3631464,-0.28651044,-0.89987993,-0.008532421,0.5355772,-0.6686488,-0.9027758,-1.5278491,0.0027496289,0.1568121,-1.7757189,-0.8738312,-0.1964867,-0.56442934,-0.2756245,0.8229809,0.9655428,-0.18787135,1.1013572,0.21007214,-0.10886072,0.76022434,-1.2785115,0.2791154
/education/university/domestic_tuition./measurement_unit/dated_money_value/currency	0.7380331,0.86146045,1.1134672,1.0921454,0.66550857,0.34316063,0.55925363,-0.39293635,-0.8220454,-0.3245441,-1.1899465,0.97614914,-0.096015446,-0.4157057,-0.011414554,-1.1149731,0.9493945,-0.016117377,-0.1487565,1.9264077,1.4885231,-0.187988,-1.6544719,-0.4378695,-0.06115342,-3.2943864,-0.34175146,0.41436878,-1.3650445,1.498322,0.16727325,0.5318238,-0.27169412,-0.42514446,-0.011704203,-0.9522162,-0.19517909,0.8719062,0.09953311,2.656411,-0.64383274,-0.58770055,1.0899078,0.029934755,0.22959931,-1.2167434,-0.50170666,-1.9563454,-0.05325959,1.5026547
/people/person/nationality	1.1296417,-0.8535453,-2.0336926,-0.6076534,1.0981839,-0.6617758,1.0684587,0.47246587,-1.3973905,1.4155464,-1.2051773,-0.5336564,-1.6089122,-0.8370404,-0.26792747,0.166366,-0.4864833,1.3907461,-0.7399254,-0.35829192,0.4801577,0.5733566,0.8273951,0.4454341,0.5523012,0.93628055,-1.1056054,0.19100195,-2.2009094,-0.37226644,0.094231725,0.83524823,1.1908425,1.7020004,-0.2972532,-0.2097126,0.10197068,-1.9303266,-0.80414265,-1.8281277,1.2642777,1.8899729,1.0616713,1.3768226,-0.80225444,-0.890002,-1.6001698,0.9438044,-0.06266244,-1.8334596
/business/business_operation/assets./measurement_unit/dated_money_value/currency	0.7969096,0.12667619,0.21685554,-1.4729767,-0.16986065,-2.273527,1.984845,1.1256282,1.3931563,0.4799989,1.1446795,-1.0668181,-0.22478686,-0.77750045,0.15482308,-0.5518002,-0.071144275,-0.7065409,-0.7498478,-0.11408146,-0.95646363,-0.64161956,-2.275161,0.104814894,-1.1289501,0.29131302,0.7130247,-0.8314592,1.6718756,-0.5181585,0.3381714,-0.8283206,-0.61330885,1.1305816,0.9699687,-0.502667,-1.6218913,-2.2644753,0.7954531,-2.201319,2.7096384,-0.0537403,0.43549654,-1.6139433,-0.96641403,-0.24088885,-0.795269,-1.073822,0.20133887,0.5891102
/olympics/olympic_sport/athletes./olympics/olympic_athlete_affiliation/country	-0.9795145,0.31331024,0.9637778,-0.78255904,0.37408197,1.351658,0.9149324,-0.48046368,2.056987,0.37215233,-0.9453362,0.42034936,-0.25974128,-0.90731543,-1.3883277,1.2055111,1.1570044,-0.49387813,-0.1879363,0.6726669,0.7448481,-1.0718302,-0.44004917,1.7693261,0.92735654,-0.63199395,0.42893738,0.9540165,-0.8923822,-0.35125384,-1.0774971,0.79670197,0.27946922,0.06980127,0.3907246,-0.91209745,0.20926486,-0.48025993,-0.32467535,-0.05083633,-1.5275785,-0.3909787,0.14445661,0.5960032,0.6974749,0.38076988,0.14959238,0.7429324,0.8811021,-1.2935511
/film/film/release_date_s./film/film_regional_release_date/film_release_region	0.2860615,-0.870775,0.29964212,-1.0545329,-0.47039276,-1.5654981,-0.6241709,1.079315,1.6521155,1.0948141,0.12914275,-0.25777057,-0.49821046,-0.7773476,0.83477247,1.0692548,-1.8004565,1.1678337,0.022817422,-0.58090913,-1.2572535,-0.6312269,1.3873965,-1.6927981,-0.7379849,2.21217,-0.25209746,-1.464531,0.33122125,0.27455577,0.3045674,-1.0249698,-0.15893807,-1.5180213,-1.8438209,1.040488,2.1164472,0.3261247,1.5506915,-0.60081995,-0.6182506,-1.3798385,0.44398758,0.7778718,-1.2499919,0.5044989,-0.7247157,0.17080617,0.7694778,-1.2713178
/government/government_office_category/officeholders./government/government_position_held/jurisdiction_of_office	-1.6879668,0.64752716,-0.2947207,-0.42973012,-1.0221288,0.40636867,-1.4141703,-0.21716312,0.8878681,0.9891363,0.44994372,-0.9694359,-0.6150182,-2.1635695,-1.2013704,-0.47086444,1.7384108,0.9954551,-0.7882436,-0.38737822,-0.0647227,-0.033929914,-0.9764751,-1.3164093,1.107952,0.13878965,-0.5223322,-0.63325727,0.6058898,-0.017403504,2.1312618,-0.27213514,0.3500285,-1.1766044,-0.97018456,-1.6166632,0.6553672,1.4003979,1.526053,0.17841844,-0.18603484,-0.7608389,-1.3590236,0.90575135,0.29268214,2.2475696,1.1649709,-1.4659396,0.33995947,-0.69708693
/media_common/netflix_genre/titles	0.2552571,0.21130341,-1.5274104,-0.74471754,-1.6468196,0.8258239,-0.30114403,-1.7558112,-0.86345226,0.011431118,-1.2501061,0.23557052,-0.19178355,-0.030796576,0.5726662,-0.16474628,1.9829743,0.4041109,1.5116984,0.30265275,0.49476716,-1.3877501,-1.2396398,0.25043815,1.076708,0.025591513,-0.7998403,0.04319267,-1.6564503,-0.19258432,0.10891398,-1.3184823,-1.4546331,0.4580503,-0.37630725,0.5190491,-1.3966907,1.0042368,-1.0061547,0.94669366,1.267767,0.26719823,-0.31414884,0.054032054,-1.1733041,0.4639891,1.3400977,1.519336,-0.36267546,-0.8531588
/sports/sports_league/teams./sports/sports_league_participation/team	0.27694365,-0.5891704,-1.1755944,0.8283255,1.4091644,2.9070332,1.805289,1.0858401,-1.0950387,-1.4646856,0.17333728,0.9751679,0.37250245,0.20213805,-1.9100071,0.51059216,1.8253337,0.72233766,-0.8216748,0.48848608,0.5471671,-0.77614594,0.8073149,-0.029209707,-1.9803723,-0.20001003,-0.63373154,-0.23447764,-0.3692531,0.7851829,-0.94940615,-0.80402404,-0.65662587,0.86370176,2.0594187,1.453144,-1.4145743,0.14253843,0.6822594,-0.084546685,-1.0881956,1.413659,-0.85860336,-1.1401684,0.06621712,-0.5249657,-0.8527266,0.29366785,0.46733075,-1.0929484
/education/educational_degree/people_with_this_degree./education/education/institution	-0.61489964,0.15837133,0.5525691,0.8275934,0.8786563,0.2416059,-1.3330146,0.18212917,-0.83089256,-0.16483174,-0.17218155,-0.32956403,-0.6811101,-1.2863171,0.27015576,0.5904168,0.28856868,1.1251599,0.0736355,-0.67292774,0.68868667,-1.2865871,0.33165956,0.96089655,-0.7524035,0.052462205,0.26496083,-1.1542577,0.081340596,1.8008647,1.3426789,1.1064063,-0.98120505,0.19538936,0.7131092,-1.5956923,-2.1686888,0.95615,0.11381006,0.15043634,0.7724059,0.07029015,-0.93468475,1.013909,0.61940986,-0.32405216,1.4335991,-0.075091384,0.3226583,0.5795396
/base/marchmadness/ncaa_basketball_tournament/seeds./base/marchmadness/ncaa_tournament_seed/team	-0.5851712,-0.5722656,0.61704946,1.652798,0.9317673,0.21227568,0.36905697,1.395582,-0.8374899,0.32814273,0.35903427,1.1105952,-0.33930385,1.2352917,-0.72376007,0.9062418,1.6976984,0.023286458,-1.0039176,0.7978629,-0.47546256,-0.4188527,-0.43793383,0.94843924,0.9553953,1.1782417,-0.06617543,0.76919967,-1.6353267,0.6669438,-1.2940646,-0.101624385,0.6253337,0.27973884,-0.84576815,1.2164847,0.18610428,-0.118370205,1.4267336,-0.345971,-0.9984688,1.6898433,1.1628513,0.503743,0.8488378,-0.97823393,0.91869074,0.6020276,0.50891113,-0.6731134
/business/business_operation/operating_income./measurement_unit/dated_money_value/currency	2.0686357,0.43272534,-0.31877065,-0.41441667,0.9174152,-0.8966242,-0.5428757,-1.2583758,1.1125302,-0.2728348,-0.5625994,0.7079076,1.547522,-2.470987,-1.992855,-1.0747918,1.405209,-1.3994853,-0.18106341,-1.4599454,1.0095514,1.2489895,0.9977532,1.3081142,0.57865363,1.5008547,-0.872154,1.0983793,0.31343812,-0.8910768,-0.27563077,-1.0403032,1.2789414,1.2882346,0.39899412,1.5049617,-0.061929617,1.2663397,1.1365378,-0.3156172,0.2559561,-0.41440818,0.22556615,-0.2849066,1.575802,1.2929132,-0.4536726,1.018449,-0.78936666,-0.9858224
/award/award_ceremony/awards_presented./award/award_honor/award_winner	-1.2184306,-1.0715606,-0.44206524,-0.7572396,0.489546,0.6411683,-0.082411565,0.63032013,1.7082449,-0.553772,-0.8495757,-0.26391393,0.50000495,-1.1775297,-0.7956334,1.3070011,-1.471732,-0.717065,0.49533463,1.7524583,-1.4717742,0.41217595,0.2703413,-1.6832945,1.2249925,-0.08238389,-1.5314556,-0.67202353,-1.383818,0.39265305,0.7094887,1.5452517,1.2933527,-0.43677855,0.26953673,0.5063346,0.75955546,0.70663154,-1.1226217,-1.1312104,0.85751677,0.73630714,1.0841674,-1.9072734,0.054131635,0.4192825,-0.15369937,-0.803634,-0.06709436,-0.4761358
/sports/sports_team/roster./american_football/football_roster_position/position	0.54970276,0.835174,0.55126405,-1.68965,0.5173042,0.529725,-0.35897776,0.05689155,0.22501071,0.6851387,0.6948834,0.44170916,-1.2941139,0.3410445,-0.35987997,-1.2483382,-1.2498748,-0.2356036,0.59167516,0.113783985,0.8178235,0.08983409,0.27051347,-0.8949507,1.4988469,-1.1334367,1.5547905,-1.4062716,-0.24193183,0.87538713,1.253457,0.6469283,0.20004006,-2.5089018,-0.22453374,0.18913691,0.61634207,-1.1229941,-1.5991979,0.17565091,0.33595973,-1.0422788,0.9649799,-1.0823336,-1.4261028,-0.7540716,-0.46736118,0.46455306,-0.047515266,0.6138115
/dataworld/gardening_hint/split_to	-0.2146291,0.20647593,-0.23216309,0.003208573,0.87531143,-0.011612497,-1.2906264,1.5147815,-1.2647698,-0.81668407,1.3798704,-0.72315645,-0.34647846,0.58126134,-0.607749,0.33314988,0.90357727,-0.22696678,0.5916736,0.67320955,-0.56856084,0.21305071,0.42457774,-0.98125863,-0.1386862,1.158053,0.25376934,-0.20496228,0.91937226,-1.0521454,-0.7320934,0.8342929,-1.0577427,-0.5323352,0.105655365,0.28465492,-0.6123386,-0.40562463,-0.629727,-0.31356817,1.5123416,-0.4388029,1.332996,-1.9623845,1.549252,-0.016178908,0.0061951643,0.26351678,1.7715129,-1.7899503
/organization/endowed_organization/endowment./measurement_unit/dated_money_value/currency	-2.4920838,1.3681684,-1.5786878,1.3469516,-0.8117347,-1.1258533,-0.93005145,-1.9390777,0.46657693,-0.13812904,-1.4514654,-0.64169204,0.1907289,-1.0136632,-0.48180434,0.9794115,-2.0035722,0.4909957,-0.17282,0.57686687,-1.0132837,1.1534519,1.1740938,0.7352827,-0.027113242,0.8015698,0.5739971,1.910267,-0.91532725,1.1852325,-1.1071787,-0.020026509,0.8271271,0.46063238,1.2143637,0.6886791,1.4099653,0.78711593,-0.3457022,0.6978537,0.6403215,0.5968798,1.195541,0.21172297,-0.009085932,-0.020214444,-1.2871636,0.68911964,-0.073617645,0.4702154
/influence/influence_node/influenced_by	0.11922288,-0.97240734,0.23293863,-0.39666992,0.7223457,0.64405674,-0.03507094,-0.2925418,-0.9643985,0.3543183,-0.5700519,-0.71797955,1.4359095,-1.0720643,0.9440916,1.1171036,0.20195888,2.4680772,-0.72683483,-0.51534283,-0.66734636,-0.27819312,0.9421815,1.0931207,-1.3077737,-0.6120489,0.3867347,0.56176084,-1.1189979,0.25379983,0.6196223,0.7300758,-0.2690997,1.8662719,-0.16884287,0.6292095,-0.31298867,-0.10430185,0.6684773,0.23081532,0.34165204,-0.65982854,1.2008815,0.95086825,-1.5034604,0.14764565,-0.69010353,0.44551677,0.2801492,-1.6484451
/tv/tv_program/country_of_origin	0.5649177,0.22550897,-0.49445754,0.42567325,-0.71916354,1.6561458,-0.5736693,0.43485054,-1.500897,-1.0557133,-0.23795806,0.9802626,-1.0408417,-1.2924188,-0.8905572,0.76244146,1.6690001,1.0452747,-0.14956854,-0.0909533,-1.2451552,1.5636797,-1.2651074,-0.5678079,-0.5616572,2.2840548,-1.3013269,0.1377306,-0.070679426,-0.52151805,1.1426438,0.2098254,-0.48654076,-1.0209457,-0.22092704,2.1156507,-0.5091399,0.44778082,0.32229573,-0.54092294,1.3347615,1.8348947,0.35644588,-1.5911292,1.1796086,-0.45607305,-0.6236995,0.28290933,-1.0220186,0.87367433
/people/person/spouse_s./people/marriage/type_of_union	-1.1367636,-0.5481016,-0.57313657,0.2641745,-0.61896384,-0.18102518,-0.32055238,-0.19881721,-0.4853923,-0.1913688,0.578508,-0.35658205,0.9769845,-1.1114942,-0.37544075,0.35124254,0.40500692,0.65151536,-1.2369148,0.41609955,-0.17394798,0.9228145,-0.30059123,1.9367486,-0.91601104,-1.3076493,-0.72167265,1.2530017,0.55377614,0.5568562,-0.724334,-0.26553956,0.53121144,-0.524321,-0.20943291,-0.8270925,-0.45695078,-0.9218333,-1.356536,1.1911831,-0.15290187,-0.5889638,0.17573659,0.24325661,-0.85709226,-0.028062578,0.79285127,-0.3076382,-0.5679359,1.3986484
/music/group_member/membership./music/group_membership/group	1.0329372,-0.12683359,1.1510897,0.993474,0.7883063,-2.0021353,0.94648284,1.7743655,-0.75224084,0.78770995,-0.51867163,1.362606,-0.8163475,-0.015928168,0.3262047,0.5454165,-1.6668315,-0.070534974,0.9512471,-0.5194853,-0.26161215,0.808374,-0.34653592,-0.9413277,0.70506006,0.7758872,0.112196356,-0.11035463,-0.9079539,1.0848677,-0.5977017,1.0489694,-0.16417453,-0.6632653,-0.6716012,-1.9273484,0.038216442,0.6014969,0.57134354,1.7210518,-0.09280327,-0.7056741,1.3724488,1.6663009,1.0946702,-0.14201704,-0.90954745,0.64718145,-0.5430085,-1.9031869
/film/film/country	-1.1020344,2.5591583,1.0381273,-0.64455116,1.7443647,0.80563486,-0.61468196,1.1735103,0.6701218,0.5583549,0.42662558,0.18480554,-1.1366535,0.61671245,-0.21360861,-0.8746216,-0.33811894,0.37822655,0.52653164,-0.64607435,-1.6075673,0.68455786,0.49489823,-1.0779235,0.19201256,0.86989516,1.7757764,-1.5734932,-0.54922324,0.9764136,1.3510495,-1.245486,-1.1026194,0.78263384,1.1563563,1.8007779,-0.5947772,-1.0429776,-0.012767477,0.5840128,-1.0249711,0.62583303,-0.11120354,0.8904234,0.22752008,0.9612507,-0.112637706,0.053993214,-0.75504947,0.35093868
/tv/tv_producer/programs_produced./tv/tv_producer_term/program	-0.5558587,1.1625088,-1.2678996,-0.87280166,0.6632049,1.608776,-0.34878308,1.5242928,-0.80478555,0.88491833,1.0645565,-0.13569404,-0.11416032,0.75218666,-0.5981011,-1.4681382,-0.6573827,-0.81324255,0.5278425,-0.22451796,0.9901988,0.67746675,0.5856662,0.48345694,-1.0106317,-0.25629178,0.25648993,0.8706682,-0.14545174,0.58019763,0.44631806,1.0929053,-0.38929588,-2.1731722,-1.9655913,-0.7299117,-0.57351154,0.36550933,0.420039,0.6078128,1.1606412,0.25083855,0.9829228,1.710616,0.24544962,-0.5901788,1.6811618,0.28860435,-0.9983982,1.0673393
/education/field_of_study/students_majoring./education/education/major_field_of_study	-0.023818055,2.1133208,-0.4502929,-0.72633433,0.16169725,0.6828838,-0.45046705,-1.4970915,1.0010691,0.20427723,-0.78932244,-0.16217887,-0.7310833,-1.5775086,0.36545026,-0.6594576,0.65079,0.41629297,-0.4063073,0.21363924,1.2292833,-1.2372364,-0.3959257,-0.32787085,0.09476001,-0.039790582,0.5652418,-0.5578695,0.1657914,-0.19313262,0.7417768,-0.9931869,0.76639235,-0.42507422,-1.5244446,-0.24502097,-0.42523777,-0.25195017,0.2930246,-0.45564598,-0.16689721,-0.61347175,-1.4784348,0.5017545,-1.6156032,0.47718617,1.616953,-0.124096625,2.1274467,1.7519584
/government/legislative_session/members./government/government_position_held/district_represented	0.8408069,1.3798727,-1.0122235,-1.4013081,-1.3893886,0.6050987,0.88242763,-0.9552881,-1.3808568,0.29970524,-0.31093228,0.46691903,-0.17675802,-0.31711012,0.6189089,0.16140835,0.87832636,1.3315717,-0.037279423,-1.4059775,1.6782963,1.3825061,1.4997754,0.9862224,0.85076296,-0.23794158,0.43465763,-0.82183605,-0.89762557,1.6582047,0.7596485,-0.49280894,-1.5043689,1.533141,-1.8811897,0.4982855,-0.49150956,-0.11340636,-0.11434844,-0.69666994,-0.24874313,0.7938744,-0.8242157,0.45861846,0.44348794,0.027465358,0.6231914,2.049746,-0.10067976,-0.47961003
/music/artist/track_contributions./music/track_contribution/role	-1.2296654,1.0263288,0.45715156,0.91234976,0.83179986,0.11218438,0.9150159,-0.7826745,-1.4045566,0.6618207,0.8560168,-1.9342872,-0.72740006,0.14958276,1.2296761,-0.23973157,-0.42706794,0.8045158,1.0473442,-1.2818367,-1.0760231,0.17161533,-1.6106837,-2.4577749,-0.26395774,-0.6872606,-2.0375388,0.4234246,0.253267,0.24854684,-0.925245,0.94684446,-1.0054573,1.3090048,-0.8405516,-0.8537661,-1.2444093,-0.36795413,-0.5743169,-0.73212475,0.12211425,-0.20700698,1.3745494,1.3331444,0.45983714,-0.8523441,0.41767964,0.6382698,0.7863427,-0.49615264
/olympics/olympic_games/participating_countries	0.7736934,-0.026078494,-1.0084206,0.9299046,0.36581895,1.3447199,-0.21478233,1.0311543,-0.8678983,-0.19308591,-0.99096495,0.91176623,-0.5112425,0.34066376,-0.96806127,-0.5751033,-0.11604426,-2.1706545,0.6510822,2.0762806,1.3446991,-0.85163677,-0.37591317,-0.3766989,0.5126332,-1.6796962,1.3248066,1.5446625,0.09132863,1.9388026,2.0495417,-1.4719954,2.1069052,-0.9934516,0.51853037,-2.3615668,-0.46327546,1.6231532,-0.011539676,-0.81178844,0.605955,-0.2535847,0.4719364,-0.47158408,-0.026069582,1.15952,1.4344093,0.07942631,-0.06082278,0.94650143
/film/film/release_date_s./film/film_regional_release_date/film_release_distribution_medium	1.7885097,-1.0717782,1.591297,0.20133711,-0.7754692,0.021393241,0.4181911,2.5239599,0.21989736,0.27613744,-2.0325265,-0.3535815,-1.2298148,1.8134317,-1.8635023,0.46302563,-0.28281277,1.0997658,1.134917,0.66954446,-0.7630556,-0.34371203,1.753426,-1.3063476,-0.6083362,0.8699484,-0.11407018,0.039820213,0.04803919,-1.6829698,-0.1762062,0.33898732,0.5320062,0.029739048,-1.9317417,0.53924054,1.1743121,-2.2026496,0.47240657,-0.66920817,0.56225395,-0.9147119,0.09279998,-0.4568016,0.085024625,-1.8912054,-0.74291027,0.9252086,-1.2072438,-0.20769298
/base/localfood/seasonal_month/produce_available./base/localfood/produce_availability/seasonal_months	1.7658405,1.5830209,0.81220406,-0.45776662,-0.70428896,2.261122,0.041475546,-1.0266229,0.08330799,0.18361521,-0.98223275,-0.17849478,1.9762232,-1.1473882,-0.86692697,-0.11060418,-0.94376,0.24460514,0.41326636,-0.43497953,-0.6450071,-0.5437323,-0.5747216,-0.017268233,-0.5369442,-1.3507625,-0.19715042,-1.3258506,0.38731205,-0.09382793,0.35753778,0.2554968,0.27770552,1.150425,0.20022963,0.8936336,-2.2599661,0.6653277,-0.2551345,0.12494372,-0.7955476,1.0304972,0.6430734,-0.037372958,0.59739715,-0.67004097,0.5990647,0.3272587,-0.9423494,0.8143256
/film/film/dubbing_performances./film/dubbing_performance/actor	0.2980072,-0.93736416,-0.72910804,0.9706235,1.1717056,0.23647892,2.9183106,-0.21076488,1.4546325,-1.2668186,-0.26261896,-0.59538895,0.72720766,0.7562524,1.2439041,-0.95719916,-0.100025944,-0.32491264,-1.1383244,-0.55541044,1.034043,0.56679744,1.3513577,0.52765495,1.7644162,1.3362706,-0.49850443,-0.3844952,-0.2802164,0.8131015,-1.680435,-0.35343045,-0.7771561,-2.25684,-0.40291068,-0.060292717,-0.011767553,-0.15644942,-0.69936156,0.86206263,-1.2463526,-1.4747152,0.11400199,0.47858158,0.98234785,1.014107,-0.20839493,0.8641855,0.41180074,0.5709502
/tv/tv_writer/tv_programs./tv/tv_program_writer_relationship/tv_program	0.08464922,1.1257018,0.09562443,0.85543936,0.713497,-1.2107279,0.6654973,0.13304861,0.34040242,0.5540296,-0.59774,0.25220695,0.21371254,-0.4409153,-0.9978817,0.7838189,0.1800213,0.7344636,-0.74056315,0.51447123,0.82657206,-1.7631092,1.5047327,-2.519223,0.37459958,-1.1924407,-1.1268966,0.377477,-0.36945894,0.9828776,-0.7690699,-2.0805268,-0.011680482,0.044731878,0.6909511,-0.83070767,-2.6187942,-1.0331616,0.99012715,-0.84364784,-0.4052154,0.32755947,-0.42467675,0.57008874,-1.00767,-0.26326126,-0.50948256,0.19020928,-1.0313526,1.446885
/film/person_or_entity_appearing_in_film/films./film/personal_film_appearance/type_of_appearance	0.34509417,-1.3494015,1.3074472,0.5883,-0.6399666,0.37555817,1.8203171,-2.0726187,-0.78844625,-0.93436986,-0.5397853,-0.25936878,0.9852325,0.0047463006,-0.056351405,-0.29412818,-0.470756,-0.0050804275,1.6154784,-0.02171281,1.3152978,-2.59412,-0.42878273,0.053881954,-1.3801074,1.5669965,-1.4959488,-1.0713544,-0.846133,0.11317595,0.07329926,1.6213297,-0.14832214,0.34857756,-0.57140386,-0.8164672,0.60215485,0.32162985,0.60993665,0.74057806,0.41133177,0.17740639,0.15540603,-0.8085926,-0.4766551,0.5101394,-1.9313426,-0.21820359,-0.4369067,1.728629
/celebrities/celebrity/sexual_relationships./celebrities/romantic_relationship/celebrity	0.95152247,0.2844449,-0.09983065,-1.3355601,0.8439253,-1.1594892,-0.16760565,0.4895795,-0.57904637,0.5909747,0.9567731,-0.32518634,-0.42990106,2.0618782,0.37031755,0.8420579,-1.6768918,-0.06721354,-0.47057354,0.49770483,-0.3441931,-0.555127,-1.0479144,-0.15351963,0.050413635,0.3453988,-1.3260963,0.022372993,0.84462535,-1.0421853,-1.8900816,-2.0580933,0.8837603,1.2819796,0.088971555,-0.8767778,0.56295043,-0.5120655,-0.642163,1.7493073,-1.0375472,-0.39409238,-0.1385985,-1.1994396,0.5464428,0.40740314,-1.3886683,-0.110821426,-0.15051423,-0.74669737
/people/ethnicity/geographic_distribution	-0.4435199,-0.76639056,1.7773262,-1.2583938,0.2866932,0.69519365,1.462661,-0.038608886,1.3166312,0.8340374,0.6758439,-0.41810325,1.0638561,0.69788104,-0.44961306,0.15544748,-0.6656182,-0.5684625,-0.66738355,0.35555807,-0.44246,-0.77164984,2.2149844,-2.2692277,-1.2251781,0.5633609,1.7325937,0.67078304,-1.8051432,-0.50045663,0.44555637,-0.41942984,-0.986557,-0.88908386,-0.39602384,0.5922009,-0.14298248,-0.069351986,0.12658715,-1.0451111,0.6797368,0.65720195,-0.2681926,-1.1499963,0.76705796,0.7223797,1.9776295,0.0043157134,-0.70891416,-0.14338346
/base/popstra/celebrity/breakup./base/popstra/breakup/participant	-0.31069705,1.1385545,2.021627,0.22929458,0.8415549,0.5182418,0.23350222,0.50722754,1.2199823,0.9874678,-2.1097724,-0.9050185,-0.030220654,1.2855005,-2.8351395,-2.4255428,1.0967339,-0.87937313,0.14418086,-0.95189136,-0.84148115,1.9606427,0.65398794,-0.47835878,-0.853655,-0.43794176,-0.4085773,-0.8471495,-0.2535027,0.19266531,0.8985547,-0.90009826,0.8082612,0.7212113,-0.74528575,-0.37250128,0.66218436,-0.6532283,-0.187863,0.40910494,1.807637,0.49481288,-0.5396991,0.31039202,1.320648,0.82118595,0.5433925,-1.9736274,-0.15064284,-2.0656514
/influence/influence_node/peers./influence/peer_relationship/peers	-0.56346416,0.03282451,0.5539667,-1.4753264,0.5407967,0.033766333,0.71874726,0.6249316,0.19208476,-0.032492254,1.2319825,1.409033,0.81419367,0.8854061,0.60907,-1.1133691,1.1284125,0.018492533,0.2457616,0.45982182,0.06511286,-0.1307378,-1.1173989,2.2438128,0.3843191,-0.3915299,-0.32294235,0.17782229,0.1750836,0.5512713,-1.4778688,-1.9860125,0.0915685,0.38388896,-0.4607576,0.58353186,1.3566654,-0.6467093,1.5240176,0.13233876,-0.48560578,1.2507282,-0.7685936,-0.8461084,-0.23283811,-0.022640016,-0.26318443,2.889213,0.45185483,0.51481533
/location/location/time_zones	2.2902575,0.15267815,-1.4120773,0.576454,-1.3697101,-0.71073186,-0.47788635,-0.2532089,0.13125338,-0.059321035,-0.68165404,-0.044267833,-0.4482642,0.4194565,1.0403556,0.12786044,0.016816014,-0.2967955,-0.13552755,0.30170885,-1.8829365,0.05714349,0.9954766,-0.32366604,-0.20897014,0.925781,0.58630043,-1.4638928,0.834048,-0.45125705,-0.013440819,-1.5147133,-0.77553004,-0.72675496,0.065206654,0.056183252,-0.065002866,0.032328587,1.4594898,0.46737704,0.4054321,0.7828715,-0.95518243,-1.0599902,-1.2203879,-0.6473873,0.6447462,-0.8560398,-0.6863752,1.3242841
/base/aareas/schema/administrative_area/administrative_area_type	-0.7177304,-0.70585567,1.0362178,-0.48024136,0.24964193,-0.19025275,-1.0598055,1.9808793,1.8852862,0.9857542,-0.4557711,-0.6558605,0.371729,-1.1666756,0.82501864,-0.5017468,0.13991079,0.15621531,0.87013257,-0.7008987,-1.7246407,-1.3781366,1.1375972,-1.7986722,1.3393129,-1.3532238,-0.27396813,0.2655665,0.076296985,0.6702619,0.6243725,-0.28604648,0.50266814,0.66272235,0.27662495,0.08621106,0.014920616,-0.6169025,-1.7798953,0.18477978,0.34165713,1.4284515,0.6839032,0.72601694,2.2766182,-2.4876587,0.18483643,-0.4880964,-0.5697576,-1.5716717
/base/eating/practicer_of_diet/diet	0.40426108,0.6373931,2.0674915,0.9284005,-0.96216446,-1.2103794,0.36890662,-0.27197927,0.7356032,0.0025623976,-0.72819865,-0.97754097,-0.7420697,0.35482973,0.39519188,-0.6913339,0.86949205,-1.3583664,0.5558403,-0.8055987,1.1938015,-1.1346067,-0.3185014,-0.31690517,-1.4237553,1.2791091,0.27214548,-0.5885251,-0.30976868,1.2820778,0.7918726,-1.0390139,-1.3437746,-1.0252135,-1.4364952,-0.39951023,0.07168007,0.03153186,2.460094,0.76575917,1.53601,-1.3227634,0.6299296,0.9680574,-1.4163582,0.26250365,-0.8692637,-0.46807984,-1.1602733,-0.2835739
/people/cause_of_death/people	-0.13683724,-0.34913704,-0.8101162,0.17693833,0.96580714,-0.3043973,1.2300179,-1.9816468,-1.5025709,-0.48442754,0.48704273,-0.6464117,-0.038324557,-0.8961212,-1.2683678,-0.03841258,0.13383886,-0.14053462,-1.7820162,0.41654524,1.2846974,0.46817288,-1.4290363,-1.4799451,0.02711058,1.1618769,0.7303484,-0.95456576,-0.72876126,-0.17085674,0.22692275,0.18729235,-0.22144547,-0.2952131,-0.50126064,1.3926783,-0.5466675,-0.5024451,-0.28405207,0.42940754,1.845366,0.8122616,-0.034715157,1.084358,2.2162235,0.6969701,-1.8476658,0.6153673,-0.26794618,1.3498057
/government/political_party/politicians_in_this_party./government/political_party_tenure/politician	0.24358617,-0.2467713,0.8574453,-0.25213125,1.2116253,0.07919305,-0.1572707,-1.1123483,0.21717075,2.0536492,-0.18110766,0.2828943,-2.0347807,1.0609272,1.5762537,2.3468766,0.14713196,1.3344554,-0.64605093,-0.7111227,2.920883,1.2682458,-0.300239,0.63136214,-1.3420644,-0.09748838,0.00728788,-0.12135239,1.9523284,-1.5727298,0.9906807,-0.99381715,1.1383051,0.2500206,-1.7038636,0.13004895,-0.5357218,-0.66117346,-1.5613343,-1.6142285,-1.5801715,0.00079582195,-1.9128247,1.608511,0.7425854,1.2084787,-0.28580797,0.019338178,0.020574542,-0.8982436
/film/film/other_crew./film/film_crew_gig/film_crew_role	1.0008099,-0.46445668,1.0301205,-0.46904254,-0.21699046,-2.9456263,0.60130143,0.03357126,-1.8282114,-1.0822234,1.4117024,1.5180128,-0.1504445,-0.42274395,-0.96255213,0.5007417,-0.31770945,0.089692414,-0.44266278,-0.17376077,-0.53433514,-1.0664313,-1.2932837,0.07577344,-0.34605432,-0.24881534,-0.4525241,-1.369487,0.4676247,1.8082889,1.4710531,0.75319505,0.5355508,1.1811646,-1.1059178,0.4653053,-0.43759033,-0.6578274,-1.0399922,1.1162051,-1.7696981,-0.5978704,0.29645166,0.80778563,2.227517,0.15725984,0.24165756,-1.6315131,-0.61396587,-1.7692372
/olympics/olympic_participating_country/medals_won./olympics/olympic_medal_honor/medal	-0.7603197,-0.11688189,0.7871617,-2.1067576,1.2289157,0.34523264,0.19040625,0.34474552,1.1691662,-0.6081397,0.2356734,-0.338706,1.0467483,-0.28612256,-1.2266808,-0.1666091,0.7099555,-0.98442066,0.5746668,0.44100863,-0.72149867,0.8745779,-1.0258334,0.6192499,-0.6366195,0.14218718,-0.78859943,1.8679067,0.11245147,-0.5845118,0.78572565,0.16795217,0.52829605,0.2874662,-0.80495423,-0.5973241,-0.36402363,-2.1405714,-0.94591355,0.5393631,-1.1988826,-0.96068877,-1.1592515,-1.1295211,0.97839564,-1.2635759,1.48171,0.43072742,-0.14067176,-1.405108
/organization/organization_member/member_of./organization/organization_membership/organization	-1.8071883,1.4965439,-0.72656226,1.6840584,0.77136743,-0.43510684,1.7143465,-0.14340274,-0.12864503,0.21953669,-1.2540855,0.84387326,0.21212131,-2.3012338,0.34278902,0.94575274,-1.3291274,-0.7481442,-0.19293763,-0.63480824,-0.19883832,-0.21556892,0.6354935,-0.23406199,-0.61850554,-1.217575,1.3571506,0.31909174,-0.87253153,-0.4779941,-1.5513493,0.37879357,0.94936067,-0.6767148,0.74038327,0.4550639,-0.59964013,0.6631132,-0.9762872,-0.9414426,-1.6703368,-1.137243,-0.5726611,1.5965999,0.25981286,0.2438835,-0.24951604,-1.111338,-1.6067911,-1.2220496
/olympics/olympic_participating_country/athletes./olympics/olympic_athlete_affiliation/olympics	0.9420676,-2.4096093,1.2795119,-0.59053683,0.5363174,1.5660064,-2.087248,-1.6928868,-0.4074019,-0.5901272,0.66535515,0.20560762,-1.0451734,-1.6358966,-0.745035,0.19056733,1.7230233,2.2157264,0.68483007,0.7713207,-1.3853247,1.7730552,0.10593216,0.5771856,0.8172797,-1.3762641,0.96107656,-1.6260431,0.7462122,0.56542325,0.15324704,0.49319986,-0.9027323,0.14285924,1.3280714,0.72978204,1.7210759,-0.71966267,-0.73917764,2.2189279,1.6945225,0.69993764,1.5203472,0.21967238,0.3632055,-1.2883815,-0.39655915,0.06881645,0.25000885,0.55014783
/people/person/spouse_s./people/marriage/location_of_ceremony	2.0329306,0.6510147,-1.1484973,-0.7166226,2.482822,-0.16243084,0.27057722,-0.90654826,0.42291158,-0.23482688,-0.08461526,-0.41060907,-0.022559889,1.4212866,-0.9859686,-0.29697278,-0.5208134,0.6606336,0.70231736,-0.8225508,0.44121054,0.42435136,1.0013188,0.70394945,-0.51017004,0.32224843,-1.6950288,1.2682296,-1.1374216,0.258897,0.014759163,0.6547637,3.3681808,0.29522866,1.2598939,-0.0041265315,-0.054481853,0.1522379,-0.24989524,-0.5283477,0.30753,0.0066853627,-0.020082371,-0.7352916,-0.9414536,0.052121986,-0.1695716,1.6483756,-0.5760926,-0.1266777
/location/statistical_region/religions./location/religion_percentage/religion	-0.04704207,-0.27915835,0.4352874,0.113144666,-0.8682836,-1.2398647,1.0027333,0.8827087,-1.4414251,0.43519244,-1.1537994,1.4363381,0.5101517,-0.9485627,0.9311429,0.17316677,0.18903683,-0.95386213,-0.7301681,2.4952366,0.43959987,-0.2899785,-0.8838651,-0.5204699,-0.46864802,-0.58961046,0.44111985,1.5980694,2.0764403,0.09718471,0.8713521,-0.3093583,-1.1514615,-1.789026,-0.83023196,-2.0442173,1.0994383,-0.60143393,-0.47226587,0.30861065,0.21606505,-0.003980496,1.4035352,-1.0467806,1.3017186,1.6457752,-0.2828843,-0.048630595,-0.39025912,-1.5736307
/food/food/nutrients./food/nutrition_fact/nutrient	1.0147408,-0.20599483,0.6671636,-0.23619014,-1.2847357,0.31285506,1.0624843,1.1142308,-0.1035605,-2.302369,0.6183035,1.0897344,1.1351119,2.132842,0.416461,-0.9807639,-0.6984294,-0.08882098,2.6974654,-1.6052511,-0.20811568,-0.82246566,0.34932613,-0.2992148,-1.5503821,-0.43247914,1.0613527,0.74257374,1.3736022,0.09244332,-1.7429138,0.14695555,0.3694416,-0.798686,0.6262241,-0.36003682,0.19358693,0.040536076,-0.78195864,-1.6362393,-0.7871284,0.5297965,1.0104312,-0.2579758,1.1465882,-0.7037599,-1.2427311,1.316952,-2.8171637,-0.14779249
/award/award_nominee/award_nominations./award/award_nomination/award	-1.5168335,-0.1710219,-0.68703574,1.346687,0.13118713,-0.91337,0.0012356606,-0.79098487,-0.7289402,0.69958943,0.5664332,1.3168274,1.1831645,-1.2520455,-1.6841066,1.2548594,0.9422666,0.4480874,0.45775717,-0.51370305,0.98342246,1.092466,-0.9774228,0.66190535,1.3868095,0.26290548,0.43625852,1.4873087,1.3095102,1.5455939,0.037509277,0.88330305,-0.1533929,1.0880399,0.05600737,0.68132055,1.2778107,-1.1380919,-0.15238695,1.4696983,0.9758975,1.3017538,-0.8332015,1.1896894,-0.21674979,0.8595913,-1.2779462,0.7143182,-0.5683411,-0.12693122
/soccer/football_player/current_team./sports/sports_team_roster/team	-0.24325532,-0.0672859,0.6688791,1.137264,-0.113190636,-0.1286691,-0.49825585,1.8913188,-0.7449091,-1.0034615,0.047880426,-0.5440625,1.202286,0.24661876,-0.06512116,0.04079094,-1.3894775,-0.02987013,0.30108702,-0.24802727,0.7592517,0.26515085,-0.84719944,1.4886327,-0.6113721,-0.18655656,-1.2285944,1.2001507,0.28809965,0.3446297,-2.1686969,-0.97729844,0.04472609,0.08646991,0.21463871,0.13244747,-0.92880553,-1.3487449,0.8065852,0.7485043,0.4146665,-0.836012,0.058557004,-1.4312848,2.0576906,-0.36427972,-0.48709905,0.45263758,-1.1004682,-1.4130341
/location/location/partially_contains	-0.14856872,-1.7240589,-2.2987866,1.3221202,-0.21708867,-0.76876146,-1.7743926,0.3001535,0.12398612,-0.41742066,0.284895,-0.01909322,0.9053018,0.26630345,-1.9391884,-1.4090927,-0.7151397,-0.3433319,0.41914862,1.2114604,0.73360443,1.4885648,1.0733694,1.9119892,2.5027735,0.6062125,-0.60346925,-0.78638315,0.7749155,1.2097868,0.38291225,0.68612605,-1.1918495,0.19513936,-0.78475916,-0.9119857,-0.43699923,-0.50375426,0.7411849,-0.093598165,-0.036473922,1.7366805,-0.5748724,0.7137165,0.69578016,0.93332094,-0.99395937,-0.61656237,-0.5055578,-1.97243
/education/educational_institution/colors	-0.11944403,0.013350038,0.89133203,1.762797,-0.34903404,0.047423735,0.15547346,0.5774714,0.07490158,0.05132113,-0.6900859,0.12265837,-0.33979648,0.45363736,-1.3009753,-0.82164425,-0.3082886,-0.7393739,-0.5774207,-0.8709921,0.60983115,0.9579849,1.43301,-0.7460154,0.7702365,-0.016775426,-0.89683014,-0.7822381,0.074636735,-0.28883457,1.158256,1.0587348,-0.60566366,-1.4543033,-0.2757131,-0.69950515,-0.29489863,-0.42438138,0.37118807,0.93851405,0.5075123,-0.5822251,-1.1101927,-0.29647002,-1.7085186,-0.088073835,-0.24108437,-0.6878208,0.20224907,-0.19244792
/film/film/executive_produced_by	-0.44293818,0.58286726,0.6535674,1.6426191,-0.5601322,-2.171002,-1.2010497,0.7298563,0.02121828,1.5577723,-0.084765956,-1.5124966,1.249618,-1.5232668,-1.0142092,-0.46768707,1.2665801,-0.63331306,-0.34197822,-1.4917299,2.3652592,0.7411859,0.55209464,-0.34179112,-1.6519958,0.35275453,0.9599505,-0.8082991,0.31838796,0.48376015,-0.35212815,-0.5930303,1.6912209,0.6656722,0.8604093,-1.0420051,-0.07396675,-2.0961363,0.71865106,-1.2402668,0.08857451,0.14377773,1.7430357,0.11835541,0.50624955,-1.09821,0.120238855,1.5260288,-1.4722717,-1.8245665
/film/actor/film./film/performance/special_performance_type	-0.50494796,-1.2497071,-1.1234431,-0.30364066,1.1455512,2.3154166,-0.4487904,0.33344498,1.0231202,0.72226113,0.1987748,-0.09797793,-1.1419603,-0.19525827,0.14205994,-1.791797,0.45966178,-1.4324354,1.1599163,-1.0505421,0.46927443,2.6481316,0.5094258,0.9386307,1.1920086,0.44287312,-1.5593789,0.48381305,-1.405067,-1.5886235,1.1689087,-0.19425064,-0.106276065,1.1099075,-0.39415184,-0.18637444,0.19904275,-0.6583964,0.95552146,-0.2931304,2.5398734,-0.9580488,0.30986145,-0.3965698,-0.48501992,-0.55578625,1.7081176,0.056958836,-0.9579364,2.3843215
/location/statistical_region/gdp_real./measurement_unit/adjusted_money_value/adjustment_currency	-0.50847566,1.2805953,-0.087229624,-1.0563616,0.3569112,0.64516777,0.77273554,1.0533679,-0.5187567,-1.5522305,-0.11805415,0.7283637,-0.9215808,0.4664738,-0.3499522,-1.1889344,1.1401895,-0.23456782,0.777304,0.2139452,0.22242889,0.6059746,-0.11531264,0.5442273,-0.3531399,0.07823039,-0.18831551,-0.49361733,-0.80359197,-0.3723524,0.17529151,0.1968503,-0.025756387,0.66541404,0.7267044,-0.29423973,1.0518655,0.34398326,-0.36919942,0.5934454,-1.6134707,0.6692998,0.5782301,1.4707545,0.21652171,-0.63803905,-0.82834584,0.28721133,1.859501,0.2939399
/award/hall_of_fame/inductees./award/hall_of_fame_induction/inductee	0.45953983,-1.2180586,1.3279698,0.32934144,-0.18928245,-1.2486033,-0.41736317,-0.85482264,2.1833518,-0.1701043,-0.41724712,-0.746493,0.88187325,-0.092635006,-0.2590317,0.19623424,1.0600935,1.6041898,0.9661881,0.46376607,0.74522775,-0.15115176,-0.8677938,-0.48544827,1.0967203,-1.224551,-0.09190559,0.36172295,-0.9820442,0.09074378,0.038574032,-0.62990224,-0.5862948,-0.34951317,-0.1968381,-0.6677862,1.7679653,0.9550414,0.68449706,-0.8037838,0.011986075,0.08743176,-0.77947056,0.6847702,-0.6232951,-0.39265966,-1.7203237,-0.6645454,-1.1887643,-0.6803925
/film/actor/film./film/performance/film	-1.0243586,0.4390797,1.3676261,-1.2072328,1.1699148,0.4306973,-1.390207,0.3218822,0.542026,1.1155984,-0.25482407,0.28033903,1.3838115,-1.4165637,-1.3086618,0.7506625,1.3973051,-2.033694,1.3649275,0.7449137,-0.62159926,-0.6260299,-0.72397006,-1.3206321,-1.0509113,-0.1482995,1.539715,1.3359281,1.5241435,-0.06858555,0.12700248,0.6192117,-0.30399245,0.9538914,1.0625861,-1.385268,0.7836205,-0.58617395,-0.6909278,-0.85250807,0.34195405,-0.26743105,-0.76058793,1.111269,-0.103368565,0.47644153,0.37399638,0.574621,-0.021287765,1.0544767
/sports/professional_sports_team/draft_picks./sports/sports_league_draft_pick/school	-0.25838292,0.40510246,-0.64972454,-0.6320954,-0.368451,0.5957743,1.3022712,-1.30582,0.56911725,-0.6264786,0.6314267,-0.03841627,-0.0440201,-0.6821915,0.04159209,0.15419589,-0.6966211,0.6456401,0.83207744,0.8368617,-0.8902269,-0.06886426,0.5335177,0.21534264,0.03217281,0.38087356,-0.2097159,-0.117115974,0.66233104,-0.7430594,-0.55846053,-1.2506807,1.5819157,-2.298291,1.064198,0.42204696,1.4350346,-0.47275767,0.6742468,-0.11548061,-0.07758522,0.32233012,-0.045639094,0.8661638,-0.57766527,-0.598805,-0.53373605,-0.5436026,-0.0782511,1.0881387
/organization/organization_founder/organizations_founded	-1.1447577,1.658258,-0.9116228,0.22626533,1.7242897,0.9176121,2.3007934,-0.6642407,1.0755323,-1.1840403,-1.249542,-1.8790045,-0.1778985,-2.0428615,-0.7299752,0.46817297,0.20868598,-0.04667279,0.22427219,-0.6612064,2.353073,0.34894654,1.4326273,-0.065473266,-2.1465902,0.30778146,-1.0114702,-0.18077663,-0.37033468,-0.6479156,0.9118489,-0.51308286,0.10084017,0.17602663,-0.23834199,-0.16017431,-0.6123589,1.0419757,0.40672612,-0.8176616,0.47099623,0.07933507,-0.03194794,-0.19653648,0.51592433,0.13455057,1.4325806,-1.2581975,-0.13745187,-0.65992886
/tv/tv_program/program_creator	-0.961437,0.46083823,1.0526627,0.14138806,0.93116605,-0.3398993,1.9711641,0.4467683,-0.35800624,-0.16605642,1.2526721,-0.8751912,-0.74675524,1.1240703,-1.5578389,0.9721921,0.26192072,0.946238,-0.92377186,-0.25435433,-0.774292,0.62479645,0.9724098,0.33077008,1.1653001,0.5269352,-1.1904078,0.21151279,0.20293278,1.5927638,0.7416558,2.0030344,-2.3519373,0.32146323,0.23266594,-0.94773346,0.20709358,-1.1581256,2.4717698,-1.5380704,0.123115525,0.2069647,0.05023063,-1.0612776,0.94246566,-0.23982039,-0.9587608,0.75859517,0.29751536,1.0639086
/film/film/produced_by	-0.25545445,-0.6220148,-0.5384107,-1.6209995,0.12481216,0.51643896,0.93263364,1.5508,-0.5420764,1.2475593,1.1529038,-0.3173318,0.5685372,1.4515115,0.20074387,-0.32240927,-0.17791936,0.21184875,0.06886581,0.6286981,0.44821456,0.0468839,0.8694301,-1.5674536,-1.4194475,1.4623444,1.3535959,0.8358132,-1.0518237,0.40937683,-0.6030568,0.84585774,1.0969969,0.9177394,-0.08382957,-0.6860083,-0.28028244,1.608032,-1.2318248,0.71544796,1.2448938,0.30903074,0.11007727,1.4450433,0.2754419,1.0989059,0.0033819934,-0.9442928,-0.17468636,-0.1153425
/music/genre/artists	-0.3202423,0.6960069,0.94596475,-1.4802543,0.18093473,0.36467257,-0.6878403,0.5649038,0.05685792,-0.058512706,0.7867638,0.55219513,1.5938218,1.61549,0.27892253,1.2597224,-0.5012173,-0.5489814,-1.265874,0.93939745,-1.2932206,-0.105272084,-0.6495721,-1.0387839,-2.0072918,-1.1736572,0.5844549,-0.70931274,-0.17500405,0.14489062,-2.089229,-0.20149276,-0.00952016,-1.4713582,-0.3689759,-1.3659484,-0.6061222,0.6955072,0.66522163,0.42760313,0.1785948,-0.21913059,1.2715724,1.4529941,-1.4989439,-0.9579966,-0.77620715,0.87606776,-1.2442547,0.95773405
